FANN_FLO_2.1
num_layers=106
learning_rate=0.700000
connection_rate=1.000000
network_type=1
learning_momentum=0.000000
training_algorithm=2
train_error_function=1
train_stop_function=0
cascade_output_change_fraction=0.010000
quickprop_decay=-0.000100
quickprop_mu=1.750000
rprop_increase_factor=1.200000
rprop_decrease_factor=0.500000
rprop_delta_min=0.000000
rprop_delta_max=50.000000
rprop_delta_zero=0.100000
cascade_output_stagnation_epochs=12
cascade_candidate_change_fraction=0.010000
cascade_candidate_stagnation_epochs=12
cascade_max_out_epochs=150
cascade_max_cand_epochs=150
cascade_num_candidate_groups=2
bit_fail_limit=3.49999994039535522461e-01
cascade_candidate_limit=1.00000000000000000000e+03
cascade_weight_multiplier=4.00000005960464477539e-01
cascade_activation_functions_count=10
cascade_activation_functions=3 5 7 8 10 11 14 15 16 17 
cascade_activation_steepnesses_count=4
cascade_activation_steepnesses=2.50000000000000000000e-01 5.00000000000000000000e-01 7.50000000000000000000e-01 1.00000000000000000000e+00 
layer_sizes=7 1 1 1 1 1 1 1 1 1 1 1 1 1 1 1 1 1 1 1 1 1 1 1 1 1 1 1 1 1 1 1 1 1 1 1 1 1 1 1 1 1 1 1 1 1 1 1 1 1 1 1 1 1 1 1 1 1 1 1 1 1 1 1 1 1 1 1 1 1 1 1 1 1 1 1 1 1 1 1 1 1 1 1 1 1 1 1 1 1 1 1 1 1 1 1 1 1 1 1 1 1 1 1 1 10 
scale_included=0
neurons (num_inputs, activation_function, activation_steepness)=(0, 0, 0.00000000000000000000e+00) (0, 0, 0.00000000000000000000e+00) (0, 0, 0.00000000000000000000e+00) (0, 0, 0.00000000000000000000e+00) (0, 0, 0.00000000000000000000e+00) (0, 0, 0.00000000000000000000e+00) (0, 0, 0.00000000000000000000e+00) (7, 8, 2.50000000000000000000e-01) (8, 8, 2.50000000000000000000e-01) (9, 16, 2.50000000000000000000e-01) (10, 16, 2.50000000000000000000e-01) (11, 3, 5.00000000000000000000e-01) (12, 11, 2.50000000000000000000e-01) (13, 10, 5.00000000000000000000e-01) (14, 11, 2.50000000000000000000e-01) (15, 10, 7.50000000000000000000e-01) (16, 8, 2.50000000000000000000e-01) (17, 10, 2.50000000000000000000e-01) (18, 14, 2.50000000000000000000e-01) (19, 10, 2.50000000000000000000e-01) (20, 10, 7.50000000000000000000e-01) (21, 10, 5.00000000000000000000e-01) (22, 5, 1.00000000000000000000e+00) (23, 10, 1.00000000000000000000e+00) (24, 8, 5.00000000000000000000e-01) (25, 10, 2.50000000000000000000e-01) (26, 11, 2.50000000000000000000e-01) (27, 10, 5.00000000000000000000e-01) (28, 14, 2.50000000000000000000e-01) (29, 10, 7.50000000000000000000e-01) (30, 16, 2.50000000000000000000e-01) (31, 10, 7.50000000000000000000e-01) (32, 15, 1.00000000000000000000e+00) (33, 10, 7.50000000000000000000e-01) (34, 8, 7.50000000000000000000e-01) (35, 10, 1.00000000000000000000e+00) (36, 10, 2.50000000000000000000e-01) (37, 10, 5.00000000000000000000e-01) (38, 10, 2.50000000000000000000e-01) (39, 10, 2.50000000000000000000e-01) (40, 10, 5.00000000000000000000e-01) (41, 10, 7.50000000000000000000e-01) (42, 10, 7.50000000000000000000e-01) (43, 10, 7.50000000000000000000e-01) (44, 10, 1.00000000000000000000e+00) (45, 10, 1.00000000000000000000e+00) (46, 11, 2.50000000000000000000e-01) (47, 10, 7.50000000000000000000e-01) (48, 10, 2.50000000000000000000e-01) (49, 10, 7.50000000000000000000e-01) (50, 10, 5.00000000000000000000e-01) (51, 10, 5.00000000000000000000e-01) (52, 11, 5.00000000000000000000e-01) (53, 10, 2.50000000000000000000e-01) (54, 10, 5.00000000000000000000e-01) (55, 10, 2.50000000000000000000e-01) (56, 10, 2.50000000000000000000e-01) (57, 10, 2.50000000000000000000e-01) (58, 10, 2.50000000000000000000e-01) (59, 10, 2.50000000000000000000e-01) (60, 10, 2.50000000000000000000e-01) (61, 10, 7.50000000000000000000e-01) (62, 10, 2.50000000000000000000e-01) (63, 10, 7.50000000000000000000e-01) (64, 10, 5.00000000000000000000e-01) (65, 10, 5.00000000000000000000e-01) (66, 10, 2.50000000000000000000e-01) (67, 10, 7.50000000000000000000e-01) (68, 10, 2.50000000000000000000e-01) (69, 10, 2.50000000000000000000e-01) (70, 10, 5.00000000000000000000e-01) (71, 10, 2.50000000000000000000e-01) (72, 10, 5.00000000000000000000e-01) (73, 10, 7.50000000000000000000e-01) (74, 10, 2.50000000000000000000e-01) (75, 10, 7.50000000000000000000e-01) (76, 10, 7.50000000000000000000e-01) (77, 10, 5.00000000000000000000e-01) (78, 10, 5.00000000000000000000e-01) (79, 10, 1.00000000000000000000e+00) (80, 10, 7.50000000000000000000e-01) (81, 10, 7.50000000000000000000e-01) (82, 10, 7.50000000000000000000e-01) (83, 10, 5.00000000000000000000e-01) (84, 11, 2.50000000000000000000e-01) (85, 10, 1.00000000000000000000e+00) (86, 10, 2.50000000000000000000e-01) (87, 10, 5.00000000000000000000e-01) (88, 10, 5.00000000000000000000e-01) (89, 10, 7.50000000000000000000e-01) (90, 10, 5.00000000000000000000e-01) (91, 10, 2.50000000000000000000e-01) (92, 10, 2.50000000000000000000e-01) (93, 10, 5.00000000000000000000e-01) (94, 10, 5.00000000000000000000e-01) (95, 10, 1.00000000000000000000e+00) (96, 10, 2.50000000000000000000e-01) (97, 10, 2.50000000000000000000e-01) (98, 10, 2.50000000000000000000e-01) (99, 10, 2.50000000000000000000e-01) (100, 10, 7.50000000000000000000e-01) (101, 10, 1.00000000000000000000e+00) (102, 10, 5.00000000000000000000e-01) (103, 10, 2.50000000000000000000e-01) (104, 10, 5.00000000000000000000e-01) (105, 10, 2.50000000000000000000e-01) (106, 10, 2.50000000000000000000e-01) (107, 10, 5.00000000000000000000e-01) (108, 11, 2.50000000000000000000e-01) (109, 10, 7.50000000000000000000e-01) (110, 10, 2.50000000000000000000e-01) (111, 4, 5.00000000000000000000e-01) (111, 4, 5.00000000000000000000e-01) (111, 4, 5.00000000000000000000e-01) (111, 4, 5.00000000000000000000e-01) (111, 4, 5.00000000000000000000e-01) (111, 4, 5.00000000000000000000e-01) (111, 4, 5.00000000000000000000e-01) (111, 4, 5.00000000000000000000e-01) (111, 4, 5.00000000000000000000e-01) (111, 4, 5.00000000000000000000e-01) 
connections (connected_to_neuron, weight)=(0, 1.42316329956054687500e+02) (1, 1.43586608886718750000e+02) (2, 1.43136596679687500000e+02) (3, 1.43150192260742187500e+02) (4, 1.42114181518554687500e+02) (5, 1.42742614746093750000e+02) (6, 1.40545532226562500000e+02) (0, 5.71592750549316406250e+01) (1, 5.72415122985839843750e+01) (2, 5.77137107849121093750e+01) (3, 5.81133308410644531250e+01) (4, 5.84072837829589843750e+01) (5, 5.74996070861816406250e+01) (6, 5.74432029724121093750e+01) (7, 5.67789115905761718750e+01) (0, 8.21739196777343750000e+01) (1, 3.69609880447387695312e+00) (2, 3.47087526321411132812e+00) (3, 4.50828981399536132812e+00) (4, 3.32324624061584472656e+00) (5, 4.53138732910156250000e+00) (6, 4.44468688964843750000e+00) (7, 1.92405819892883300781e-01) (8, 6.13001525402069091797e-01) (0, 3.45529144287109375000e+02) (1, 7.58431053161621093750e+00) (2, 7.42016077041625976562e+00) (3, 6.79874849319458007812e+00) (4, 9.28898143768310546875e+00) (5, 8.42306423187255859375e+00) (6, 6.63032293319702148438e+00) (7, -2.88632202148437500000e+00) (8, -1.48203456401824951172e+00) (9, 7.80929899215698242188e+00) (0, 6.27670335769653320312e+00) (1, -7.16741800308227539062e-01) (2, -1.77979719638824462891e+00) (3, 4.37270283699035644531e-01) (4, -4.84212994575500488281e-01) (5, 2.55274772644042968750e-01) (6, 1.72471851110458374023e-02) (7, 4.98904418945312500000e+00) (8, 3.36019897460937500000e+00) (9, -3.20536792278289794922e-01) (10, -1.95547759532928466797e+00) (0, 1.50000000000000000000e+03) (1, -2.54510354995727539062e+00) (2, 1.26620447635650634766e+00) (3, 1.89765274524688720703e+00) (4, -9.35533463954925537109e-01) (5, 7.52654671669006347656e-02) (6, 8.07160415649414062500e+01) (7, -5.47136001586914062500e+01) (8, -5.43502655029296875000e+01) (9, 7.25249710083007812500e+01) (10, 8.21779098510742187500e+01) (11, -1.30403961181640625000e+02) (0, 6.69356727600097656250e+00) (1, -3.25910091400146484375e-01) (2, -5.12866735458374023438e-01) (3, 2.77474045753479003906e-01) (4, 1.01061320304870605469e+00) (5, -7.98280596733093261719e-01) (6, -3.04403424263000488281e+00) (7, 3.42206358909606933594e+00) (8, 3.30246090888977050781e+00) (9, -2.26010575890541076660e-01) (10, -7.98061370849609375000e-01) (11, -6.03403151035308837891e-01) (12, -2.00186991691589355469e+00) (0, 7.96117309570312500000e+02) (1, 5.43128609657287597656e-01) (2, -1.32053530216217041016e+00) (3, -1.08139723539352416992e-01) (4, -8.77707660198211669922e-01) (5, 1.33432745933532714844e-01) (6, -3.40741252899169921875e+00) (7, 7.53158998489379882812e+00) (8, 6.85628461837768554688e+00) (9, -2.10159397125244140625e+00) (10, -3.88089609146118164062e+00) (11, -2.40107650756835937500e+01) (12, -4.23667335510253906250e+00) (13, -4.20702695846557617188e+00) (0, 5.93758535385131835938e+00) (1, -5.87198376655578613281e-01) (2, -5.95867276191711425781e-01) (3, 4.22228395938873291016e-01) (4, -3.90260547399520874023e-01) (5, -7.77192711830139160156e-01) (6, -3.20785164833068847656e+00) (7, 3.80443787574768066406e+00) (8, 3.11977171897888183594e+00) (9, -1.10425674915313720703e+00) (10, -8.01471352577209472656e-01) (11, -3.82772535085678100586e-01) (12, 1.11432564258575439453e+00) (13, 1.51422238349914550781e+00) (14, 2.13421535491943359375e+00) (0, 7.97221374511718750000e+02) (1, 7.96128051757812500000e+02) (2, 7.96799926757812500000e+02) (3, 7.97190063476562500000e+02) (4, 7.97151794433593750000e+02) (5, 7.95198852539062500000e+02) (6, 7.97399536132812500000e+02) (7, 7.95054809570312500000e+02) (8, 7.95179809570312500000e+02) (9, 7.97079589843750000000e+02) (10, 7.96033203125000000000e+02) (11, 7.97435974121093750000e+02) (12, 7.96854614257812500000e+02) (13, 7.95834106445312500000e+02) (14, 7.97072509765625000000e+02) (15, 7.97060485839843750000e+02) (0, 8.15578460693359375000e+00) (1, -1.39641916751861572266e+00) (2, -1.74612987041473388672e+00) (3, -1.00848758220672607422e+00) (4, -1.09179627895355224609e+00) (5, -5.44097065925598144531e-01) (6, -1.38838517665863037109e+00) (7, 2.85901570320129394531e+00) (8, 2.61757922172546386719e+00) (9, -3.62505048513412475586e-01) (10, -5.77720761299133300781e-01) (11, -8.95996928215026855469e-01) (12, -1.90409553050994873047e+00) (13, 2.09538578987121582031e-01) (14, 4.07456874847412109375e+00) (15, 7.51485824584960937500e-02) (16, 4.15452814102172851562e+00) (0, 8.95581604003906250000e+02) (1, 2.04430313110351562500e+01) (2, 2.20037517547607421875e+01) (3, 2.03796997070312500000e+01) (4, 2.11160507202148437500e+01) (5, 2.14747390747070312500e+01) (6, 2.16855659484863281250e+01) (7, -1.01504583358764648438e+01) (8, -1.19476652145385742188e+01) (9, 2.00957946777343750000e+01) (10, 1.99748344421386718750e+01) (11, 2.19186058044433593750e+01) (12, 2.17142791748046875000e+01) (13, 2.16941757202148437500e+01) (14, -1.12554616928100585938e+01) (15, 2.23465938568115234375e+01) (16, -9.76711559295654296875e+00) (17, 1.17575139999389648438e+01) (0, 6.40275192260742187500e+00) (1, -1.89378011226654052734e+00) (2, 4.09820675849914550781e-01) (3, -3.84537786245346069336e-01) (4, -7.84681677818298339844e-01) (5, 4.39820289611816406250e-02) (6, 6.94165766239166259766e-01) (7, 3.92259860038757324219e+00) (8, 3.46570611000061035156e+00) (9, 1.48500263690948486328e+00) (10, -8.89455914497375488281e-01) (11, -2.75070977210998535156e+00) (12, 2.33653783798217773438e-02) (13, -2.43896365165710449219e+00) (14, 3.07008576393127441406e+00) (15, -2.61041235923767089844e+00) (16, 1.77495253086090087891e+00) (17, -7.68281340599060058594e-01) (18, 8.74275267124176025391e-01) (0, 1.50000000000000000000e+03) (1, -4.52412843704223632812e-01) (2, 4.71132695674896240234e-01) (3, 1.60928994417190551758e-01) (4, -1.94582819938659667969e-01) (5, 1.45473271608352661133e-01) (6, 4.14325046539306640625e+00) (7, 1.95708858966827392578e+00) (8, 2.34138250350952148438e+00) (9, 1.39394063949584960938e+01) (10, 7.94277620315551757812e+00) (11, 3.00916194915771484375e+01) (12, 4.45036602020263671875e+00) (13, 5.18201522827148437500e+01) (14, 9.44694399833679199219e-01) (15, -3.57222633361816406250e+01) (16, 1.58255648612976074219e+00) (17, 2.57553458213806152344e+00) (18, 3.39404630661010742188e+00) (19, 2.57285366058349609375e+01) (0, 6.92242956161499023438e+00) (1, -1.36698806285858154297e+00) (2, -1.53061997890472412109e+00) (3, -4.57283347845077514648e-01) (4, -1.05850732326507568359e+00) (5, -3.48196119070053100586e-01) (6, -1.52280247211456298828e+00) (7, 2.21206808090209960938e+00) (8, 2.76213073730468750000e+00) (9, 7.31322348117828369141e-01) (10, 1.83801662921905517578e+00) (11, 7.94965088367462158203e-01) (12, -2.62066453695297241211e-01) (13, -5.97517192363739013672e-02) (14, 3.87769722938537597656e+00) (15, 5.86153268814086914062e-01) (16, 2.54307842254638671875e+00) (17, -5.02726435661315917969e-01) (18, 2.23029792308807373047e-01) (19, 8.44779610633850097656e-01) (20, -4.39064830541610717773e-01) (0, 1.50000000000000000000e+03) (1, -1.05306542968750000000e+03) (2, -1.50000000000000000000e+03) (3, -1.50000000000000000000e+03) (4, -1.50000000000000000000e+03) (5, -1.50000000000000000000e+03) (6, 8.73180210590362548828e-01) (7, 3.79011392593383789062e+00) (8, 4.48397111892700195312e+00) (9, -5.21098412573337554932e-02) (10, 1.10391318798065185547e+00) (11, -1.50000000000000000000e+03) (12, 1.90054380893707275391e+00) (13, 1.50000000000000000000e+03) (14, 2.26336169242858886719e+00) (15, -1.50000000000000000000e+03) (16, 4.11833286285400390625e+00) (17, -1.50000000000000000000e+03) (18, 1.77670970559120178223e-01) (19, -1.50000000000000000000e+03) (20, 2.50919055938720703125e+00) (21, -5.72583496093750000000e+02) (0, 7.87319231033325195312e+00) (1, -5.40882349014282226562e-02) (2, 3.58458101749420166016e-01) (3, -1.46161162853240966797e+00) (4, 9.98536109924316406250e-01) (5, -3.61086934804916381836e-01) (6, -3.35790562629699707031e+00) (7, 1.85945093631744384766e+00) (8, 3.76323437690734863281e+00) (9, 8.44686806201934814453e-01) (10, -4.61697190999984741211e-01) (11, -9.71732735633850097656e-01) (12, 1.56436741352081298828e+00) (13, 6.50324463844299316406e-01) (14, 3.31946063041687011719e+00) (15, -3.55078548192977905273e-01) (16, 2.36630296707153320312e+00) (17, -1.26849853992462158203e+00) (18, 7.04715669155120849609e-01) (19, -1.18150800466537475586e-01) (20, -3.72710794210433959961e-01) (21, 8.58072817325592041016e-01) (22, 4.48094606399536132812e+00) (0, 1.19673339843750000000e+03) (1, 1.19545800781250000000e+03) (2, 1.19777905273437500000e+03) (3, 1.19609692382812500000e+03) (4, 1.19659948730468750000e+03) (5, 1.19694628906250000000e+03) (6, 1.19676489257812500000e+03) (7, 1.19535241699218750000e+03) (8, 1.19735437011718750000e+03) (9, 1.19513305664062500000e+03) (10, 1.19586804199218750000e+03) (11, 1.19499804687500000000e+03) (12, 1.19620690917968750000e+03) (13, 1.19553332519531250000e+03) (14, 1.19766528320312500000e+03) (15, 1.19691064453125000000e+03) (16, 1.19618884277343750000e+03) (17, 1.19699243164062500000e+03) (18, 1.19753015136718750000e+03) (19, 1.19521105957031250000e+03) (20, 1.19594519042968750000e+03) (21, 1.19540905761718750000e+03) (22, 1.19764013671875000000e+03) (23, 1.19490466308593750000e+03) (0, 6.69325876235961914062e+00) (1, -5.60116171836853027344e-01) (2, -9.43898320198059082031e-01) (3, -3.21748822927474975586e-01) (4, 9.24636125564575195312e-02) (5, 5.45404613018035888672e-01) (6, 1.85688078403472900391e+00) (7, 2.53057050704956054688e+00) (8, 2.87149143218994140625e+00) (9, 9.41624224185943603516e-01) (10, -3.37522119283676147461e-01) (11, -7.67096400260925292969e-01) (12, 1.17709505558013916016e+00) (13, -1.38856500387191772461e-01) (14, 4.55106592178344726562e+00) (15, -2.04063981771469116211e-01) (16, 2.71735000610351562500e+00) (17, 6.92358314990997314453e-01) (18, 2.50716865062713623047e-01) (19, 3.21357667446136474609e-01) (20, 3.84908735752105712891e-01) (21, -6.33437275886535644531e-01) (22, 4.45282840728759765625e+00) (23, 1.57442486286163330078e+00) (24, 1.97747194766998291016e+00) (0, 1.50000000000000000000e+03) (1, 1.50000000000000000000e+03) (2, 1.50000000000000000000e+03) (3, 1.50000000000000000000e+03) (4, 1.50000000000000000000e+03) (5, 1.50000000000000000000e+03) (6, 2.20411038398742675781e+00) (7, 2.77856850624084472656e+00) (8, 4.46702909469604492188e+00) (9, 1.12468028068542480469e+00) (10, 1.24718332290649414062e+00) (11, 1.50000000000000000000e+03) (12, 1.18864154815673828125e+00) (13, 1.50000000000000000000e+03) (14, 2.25292944908142089844e+00) (15, 1.50000000000000000000e+03) (16, 5.24827766418457031250e+00) (17, -1.50000000000000000000e+03) (18, 1.80989599227905273438e+00) (19, -1.50000000000000000000e+03) (20, 1.96883726119995117188e+00) (21, -1.50000000000000000000e+03) (22, 2.32945036888122558594e+00) (23, 1.53078711032867431641e+00) (24, 3.24717068672180175781e+00) (25, 1.50000000000000000000e+03) (0, 8.55019378662109375000e+00) (1, 1.03980314731597900391e+00) (2, -8.87876868247985839844e-01) (3, 5.87676167488098144531e-01) (4, -1.89173352718353271484e+00) (5, 3.32916855812072753906e-01) (6, -3.80065083503723144531e+00) (7, 5.18003225326538085938e+00) (8, 4.26063632965087890625e+00) (9, 2.78721928596496582031e-01) (10, -5.03474831581115722656e-01) (11, -9.80289340019226074219e-01) (12, 5.30902981758117675781e-01) (13, -9.03891444206237792969e-01) (14, 5.67093229293823242188e+00) (15, -6.06595396995544433594e-01) (16, 4.09319210052490234375e+00) (17, -2.54781812429428100586e-01) (18, -1.55709779262542724609e+00) (19, -1.37864792346954345703e+00) (20, 2.31880784034729003906e-01) (21, 5.50792813301086425781e-01) (22, 4.92101430892944335938e+00) (23, -3.82142633199691772461e-01) (24, 4.92388868331909179688e+00) (25, -1.49288690090179443359e+00) (26, -1.71229541301727294922e+00) (0, 6.95688842773437500000e+02) (1, 7.32518863677978515625e+00) (2, 7.67807579040527343750e+00) (3, 8.17256736755371093750e+00) (4, 9.08454418182373046875e+00) (5, 8.54191780090332031250e+00) (6, 9.64427471160888671875e+00) (7, -1.06434607505798339844e+00) (8, -3.61880254745483398438e+00) (9, 9.21018600463867187500e+00) (10, 9.54318618774414062500e+00) (11, 6.59194278717041015625e+00) (12, 7.09951162338256835938e+00) (13, 6.66084623336791992188e+00) (14, -1.79084873199462890625e+00) (15, 6.92509841918945312500e+00) (16, -1.95129871368408203125e+00) (17, 7.17878913879394531250e+00) (18, 8.96665573120117187500e+00) (19, 8.77663993835449218750e+00) (20, 6.97885227203369140625e+00) (21, 6.68036603927612304688e+00) (22, -1.78018093109130859375e+00) (23, 9.48635482788085937500e+00) (24, -2.25930094718933105469e+00) (25, 8.98528289794921875000e+00) (26, 6.95922613143920898438e+00) (27, 6.73646688461303710938e+00) (0, 5.85790443420410156250e+00) (1, -1.75060480833053588867e-01) (2, -1.87242734432220458984e+00) (3, -1.70887267589569091797e+00) (4, -1.86377853155136108398e-01) (5, -6.85728669166564941406e-01) (6, -9.87482428550720214844e-01) (7, 3.03919005393981933594e+00) (8, 4.22522115707397460938e+00) (9, -4.09152120351791381836e-01) (10, -1.36498701572418212891e+00) (11, -9.75957036018371582031e-01) (12, -1.19565856456756591797e+00) (13, 1.12752211093902587891e+00) (14, 4.87993621826171875000e+00) (15, 3.05678188800811767578e-01) (16, 2.96474671363830566406e+00) (17, -1.82939851284027099609e+00) (18, 7.00559735298156738281e-01) (19, -4.06441539525985717773e-01) (20, -1.24776041507720947266e+00) (21, 4.10724759101867675781e-01) (22, 2.77155947685241699219e+00) (23, -5.16177773475646972656e-01) (24, 5.18911170959472656250e+00) (25, 5.55187463760375976562e-02) (26, 3.77373814582824707031e-01) (27, 7.70824134349822998047e-01) (28, -6.15287661552429199219e-01) (0, 6.96967773437500000000e+02) (1, 7.02922773361206054688e+00) (2, 6.87616825103759765625e+00) (3, 7.64446210861206054688e+00) (4, 6.89375305175781250000e+00) (5, 5.24554634094238281250e+00) (6, 6.38997364044189453125e+00) (7, 9.26545500755310058594e-01) (8, 6.98480725288391113281e-01) (9, 7.00008106231689453125e+00) (10, 7.24705505371093750000e+00) (11, 6.01735734939575195312e+00) (12, 5.36847209930419921875e+00) (13, 5.81032752990722656250e+00) (14, -1.48399889469146728516e+00) (15, 4.68401908874511718750e+00) (16, 1.58053740859031677246e-01) (17, 4.32486629486083984375e+00) (18, 6.98379898071289062500e+00) (19, 5.30214977264404296875e+00) (20, 5.12345027923583984375e+00) (21, 4.76422691345214843750e+00) (22, 7.88802981376647949219e-01) (23, 6.19566059112548828125e+00) (24, -4.53102290630340576172e-01) (25, 6.87826728820800781250e+00) (26, 6.93517398834228515625e+00) (27, 6.65803146362304687500e+00) (28, 6.29092121124267578125e+00) (29, 5.24201679229736328125e+00) (0, 7.06523370742797851562e+00) (1, 6.05147540569305419922e-01) (2, -3.19928735494613647461e-01) (3, -1.89411014318466186523e-01) (4, -7.29379534721374511719e-01) (5, -8.40806603431701660156e-01) (6, -4.27308368682861328125e+00) (7, 3.71059536933898925781e+00) (8, 3.85613703727722167969e+00) (9, 1.29574000835418701172e-01) (10, -2.92511314153671264648e-01) (11, 1.04446697235107421875e+00) (12, 9.41975176334381103516e-01) (13, 1.85866177082061767578e+00) (14, 2.34622478485107421875e+00) (15, 7.63219058513641357422e-01) (16, 2.05192136764526367188e+00) (17, 1.92880308628082275391e+00) (18, -3.95119756460189819336e-01) (19, -6.21307790279388427734e-02) (20, -6.95268273353576660156e-01) (21, -4.89518970251083374023e-01) (22, 2.05777263641357421875e+00) (23, 9.10007953643798828125e-01) (24, 2.30498075485229492188e+00) (25, 2.31660985946655273438e+00) (26, -4.43991273641586303711e-01) (27, -2.69428342580795288086e-01) (28, 1.69083034992218017578e+00) (29, -7.98045098781585693359e-02) (30, 1.53686392307281494141e+00) (0, 8.95388977050781250000e+02) (1, 2.61781477928161621094e+00) (2, 3.55234682559967041016e-01) (3, 3.00111937522888183594e+00) (4, 1.61487138271331787109e+00) (5, 2.30330300331115722656e+00) (6, 8.49853336811065673828e-01) (7, 3.20675897598266601562e+00) (8, 3.79806900024414062500e+00) (9, 2.63894939422607421875e+00) (10, 1.36212551593780517578e+00) (11, 1.68052601814270019531e+00) (12, 3.00934886932373046875e+00) (13, 2.30152583122253417969e+00) (14, 3.84086179733276367188e+00) (15, -4.78619545698165893555e-01) (16, 4.94880819320678710938e+00) (17, 1.70427048206329345703e+00) (18, 3.35287451744079589844e-01) (19, 1.99161320924758911133e-01) (20, 1.94332230091094970703e+00) (21, 1.78903186321258544922e+00) (22, 2.29017972946166992188e+00) (23, 3.72337490320205688477e-01) (24, 1.83092784881591796875e+00) (25, 1.66608452796936035156e+00) (26, 3.02647686004638671875e+00) (27, 5.39184629917144775391e-01) (28, 1.06006252765655517578e+00) (29, 1.73163974285125732422e+00) (30, 2.61238527297973632812e+00) (31, 1.71460568904876708984e+00) (0, 8.36320018768310546875e+00) (1, 1.29454028606414794922e+00) (2, 1.10912883281707763672e+00) (3, -2.75764560699462890625e+00) (4, -5.65629100799560546875e+00) (5, -3.30433607101440429688e+00) (6, -8.72693896293640136719e-01) (7, 1.76257550716400146484e+00) (8, 3.97464680671691894531e+00) (9, 2.57121229171752929688e+00) (10, 2.43183898925781250000e+00) (11, -4.54575920104980468750e+00) (12, 2.73883199691772460938e+00) (13, -4.14728593826293945312e+00) (14, 2.92873597145080566406e+00) (15, -3.12668991088867187500e+00) (16, 1.06180536746978759766e+00) (17, -5.28242588043212890625e+00) (18, -6.66778981685638427734e-02) (19, -5.10246086120605468750e+00) (20, 1.45574069023132324219e+00) (21, 2.05079126358032226562e+00) (22, 1.81812989711761474609e+00) (23, 2.19561636447906494141e-01) (24, 1.93343579769134521484e+00) (25, -4.33270645141601562500e+00) (26, 2.39101457595825195312e+00) (27, -3.86918926239013671875e+00) (28, 1.39245629310607910156e+00) (29, 2.95323669910430908203e-01) (30, 2.25811862945556640625e+00) (31, -1.76383122801780700684e-01) (32, 1.96987807750701904297e+00) (0, 1.50000000000000000000e+03) (1, 1.50000000000000000000e+03) (2, 1.50000000000000000000e+03) (3, 1.50000000000000000000e+03) (4, 1.50000000000000000000e+03) (5, 1.50000000000000000000e+03) (6, 1.50000000000000000000e+03) (7, 1.50000000000000000000e+03) (8, 1.50000000000000000000e+03) (9, 1.50000000000000000000e+03) (10, 1.50000000000000000000e+03) (11, 1.50000000000000000000e+03) (12, 1.50000000000000000000e+03) (13, 1.50000000000000000000e+03) (14, 1.50000000000000000000e+03) (15, 1.50000000000000000000e+03) (16, 1.50000000000000000000e+03) (17, 1.50000000000000000000e+03) (18, 1.50000000000000000000e+03) (19, 1.50000000000000000000e+03) (20, 1.50000000000000000000e+03) (21, 1.50000000000000000000e+03) (22, 1.50000000000000000000e+03) (23, 1.50000000000000000000e+03) (24, 1.50000000000000000000e+03) (25, 1.50000000000000000000e+03) (26, 1.50000000000000000000e+03) (27, 1.50000000000000000000e+03) (28, 1.50000000000000000000e+03) (29, 1.50000000000000000000e+03) (30, 1.50000000000000000000e+03) (31, 1.50000000000000000000e+03) (32, 1.50000000000000000000e+03) (33, 1.50000000000000000000e+03) (0, 6.31916236877441406250e+00) (1, -1.71412694454193115234e+00) (2, -6.12447381019592285156e-01) (3, -3.99230092763900756836e-01) (4, 2.31414914131164550781e-01) (5, 1.16061210632324218750e-01) (6, -3.88426470756530761719e+00) (7, 3.14841198921203613281e+00) (8, 5.29262065887451171875e+00) (9, -1.25068581104278564453e+00) (10, -8.93009066581726074219e-01) (11, 4.37015175819396972656e-01) (12, 1.24825060367584228516e+00) (13, 5.29422760009765625000e-02) (14, 3.44901156425476074219e+00) (15, 1.28635990619659423828e+00) (16, 5.05025291442871093750e+00) (17, 1.40107870101928710938e-01) (18, 8.85450482368469238281e-01) (19, 8.66205334663391113281e-01) (20, -1.97892463207244873047e+00) (21, -1.44565474987030029297e+00) (22, 3.78221392631530761719e+00) (23, -1.52075707912445068359e+00) (24, 4.59679460525512695312e+00) (25, -2.60507434606552124023e-01) (26, -1.04866945743560791016e+00) (27, -3.91182750463485717773e-01) (28, -1.23067653179168701172e+00) (29, -1.19422352313995361328e+00) (30, -1.14594686031341552734e+00) (31, -7.31108546257019042969e-01) (32, -9.20204043388366699219e-01) (33, 2.29751706123352050781e-01) (34, 5.45327425003051757812e+00) (0, 1.50000000000000000000e+03) (1, -6.71026855707168579102e-02) (2, 1.58174681663513183594e+00) (3, 7.77089893817901611328e-01) (4, 3.16148773193359375000e+02) (5, 5.54793212890625000000e+02) (6, -3.75894069671630859375e+00) (7, 6.17007923126220703125e+00) (8, 6.98236417770385742188e+00) (9, -2.28933425903320312500e+02) (10, -8.42381477355957031250e+00) (11, -3.11788299560546875000e+02) (12, -1.33149206638336181641e+00) (13, -2.69982874393463134766e-01) (14, 7.20182991027832031250e+00) (15, -1.12554559707641601562e+01) (16, 7.67570734024047851562e+00) (17, -8.21384239196777343750e+00) (18, -3.23904335498809814453e-01) (19, -7.10307884216308593750e+00) (20, -1.19608271121978759766e+00) (21, -1.47087305784225463867e-01) (22, 7.69944524765014648438e+00) (23, -9.04609560966491699219e-01) (24, 7.49654912948608398438e+00) (25, 1.08394718170166015625e+00) (26, -9.75721716880798339844e-01) (27, -8.49455566406250000000e+01) (28, -9.60170149803161621094e-01) (29, 9.80169326066970825195e-02) (30, -1.31676685810089111328e+00) (31, 1.08517036437988281250e+02) (32, -1.76179563999176025391e+00) (33, -1.49663782119750976562e+00) (34, 8.12655258178710937500e+00) (35, -1.65797698497772216797e+00) (0, 8.20443725585937500000e+00) (1, 9.00484681129455566406e-01) (2, -1.72316825389862060547e+00) (3, 5.12186646461486816406e-01) (4, 1.58118009567260742188e-01) (5, -4.87726300954818725586e-01) (6, 1.27101290225982666016e+00) (7, 3.28544878959655761719e+00) (8, 5.86235427856445312500e+00) (9, 1.31304466724395751953e+00) (10, -8.42864632606506347656e-01) (11, 3.65460991859436035156e-01) (12, -1.37701928615570068359e+00) (13, -1.97932696342468261719e+00) (14, 4.13117599487304687500e+00) (15, -6.31657123565673828125e-01) (16, 5.07214593887329101562e+00) (17, -1.42021024227142333984e+00) (18, -1.91775643825531005859e+00) (19, -2.91456073522567749023e-01) (20, -5.73877990245819091797e-02) (21, 7.91277527809143066406e-01) (22, 2.89563012123107910156e+00) (23, -1.93503606319427490234e+00) (24, 3.80718541145324707031e+00) (25, -3.40811103582382202148e-01) (26, 1.02065050601959228516e+00) (27, -2.40805894136428833008e-02) (28, -8.10410618782043457031e-01) (29, -1.51825040578842163086e-01) (30, -6.71542763710021972656e-01) (31, -1.76577413082122802734e+00) (32, -6.03400111198425292969e-01) (33, -4.06564801931381225586e-01) (34, 5.33002567291259765625e+00) (35, -1.79734265804290771484e+00) (36, 1.09385502338409423828e+00) (0, 1.50000000000000000000e+03) (1, 2.82418370246887207031e+00) (2, 5.94515562057495117188e-01) (3, 7.67970800399780273438e-01) (4, 1.98083066940307617188e+00) (5, 1.07051610946655273438e+00) (6, -1.92136716842651367188e+00) (7, 3.45260214805603027344e+00) (8, 5.63395881652832031250e+00) (9, -2.83714962005615234375e+00) (10, 1.21743416786193847656e+00) (11, 6.38689100742340087891e-01) (12, 2.68331217765808105469e+00) (13, 5.01581478118896484375e+00) (14, 3.36531662940979003906e+00) (15, 1.15383968353271484375e+01) (16, 4.25914144515991210938e+00) (17, 4.06196936964988708496e-02) (18, 7.41394162178039550781e-01) (19, 6.22688174247741699219e-01) (20, 2.39131426811218261719e+00) (21, 1.14811599254608154297e+00) (22, 3.21377825736999511719e+00) (23, 1.71625924110412597656e+00) (24, 3.72740912437438964844e+00) (25, 4.01742070913314819336e-01) (26, 6.84751689434051513672e-01) (27, -4.18501464843750000000e+02) (28, 1.45407700538635253906e+00) (29, 1.94206094741821289062e+00) (30, 2.17316222190856933594e+00) (31, -1.63600830078125000000e+02) (32, 1.48714995384216308594e+00) (33, 2.86023831367492675781e+00) (34, 3.55308890342712402344e+00) (35, 5.58388113975524902344e-01) (36, 2.53871846199035644531e+00) (37, 1.26063270568847656250e+01) (0, 8.23742675781250000000e+00) (1, -1.10156905651092529297e+00) (2, 6.72603726387023925781e-01) (3, -7.51887440681457519531e-01) (4, -1.89736640453338623047e+00) (5, 7.40617394447326660156e-01) (6, -4.62740182876586914062e+00) (7, 5.52275085449218750000e+00) (8, 5.71288061141967773438e+00) (9, 7.03527927398681640625e-02) (10, -3.74206393957138061523e-01) (11, 1.43448388576507568359e+00) (12, 1.17399513721466064453e+00) (13, -1.23110854625701904297e+00) (14, 4.25923585891723632812e+00) (15, -6.26779794692993164062e-01) (16, 3.81696295738220214844e+00) (17, -1.52981841564178466797e+00) (18, 1.01654970645904541016e+00) (19, -4.81719106435775756836e-01) (20, -1.31706774234771728516e+00) (21, -1.05376207828521728516e+00) (22, 3.19919848442077636719e+00) (23, -2.37001985311508178711e-01) (24, 5.73305320739746093750e+00) (25, -1.21588146686553955078e+00) (26, -4.00087445974349975586e-01) (27, -1.17658364772796630859e+00) (28, 8.43195080757141113281e-01) (29, -1.15542590618133544922e+00) (30, 8.64563584327697753906e-01) (31, -1.14166587591171264648e-01) (32, -2.68848985433578491211e-01) (33, 1.50120496749877929688e-01) (34, 5.71755886077880859375e+00) (35, 2.56728768348693847656e-01) (36, -4.96309369802474975586e-01) (37, -1.45033442974090576172e+00) (38, -6.37831568717956542969e-01) (0, 1.50000000000000000000e+03) (1, -5.47196090221405029297e-01) (2, 1.00894439220428466797e+00) (3, 3.98234933614730834961e-01) (4, 2.19006900787353515625e+01) (5, 8.03645515441894531250e+00) (6, 2.16710591316223144531e+00) (7, 3.85099339485168457031e+00) (8, 3.34452843666076660156e+00) (9, -1.45079925537109375000e+02) (10, 5.88462591171264648438e-01) (11, -5.25378875732421875000e+01) (12, -9.19768810272216796875e-01) (13, -2.84949159622192382812e+00) (14, 4.20983266830444335938e+00) (15, -1.95211052894592285156e+00) (16, 3.44467806816101074219e+00) (17, -5.55989623069763183594e-01) (18, 7.31192111968994140625e-01) (19, 2.12143397331237792969e+00) (20, 1.22363162040710449219e+00) (21, 1.76636040210723876953e+00) (22, 3.15676093101501464844e+00) (23, -6.77242398262023925781e-01) (24, 6.42018651962280273438e+00) (25, 1.24768948554992675781e+00) (26, -6.42995715141296386719e-01) (27, 3.79175543785095214844e-02) (28, 2.00082254409790039062e+00) (29, 1.47384786605834960938e+00) (30, 1.35074305534362792969e+00) (31, 1.57642066478729248047e+00) (32, 1.84648084640502929688e+00) (33, 1.03753089904785156250e-01) (34, 4.22925233840942382812e+00) (35, -9.23042476177215576172e-01) (36, 1.12211713790893554688e+01) (37, 1.98944759368896484375e+01) (38, 9.65827655792236328125e+00) (39, -4.12194699048995971680e-01) (0, 7.83803892135620117188e+00) (1, 7.56640613079071044922e-01) (2, 9.77731406688690185547e-01) (3, -1.16387259960174560547e+00) (4, 8.87707889080047607422e-01) (5, -8.72109830379486083984e-01) (6, 1.07358694076538085938e+00) (7, 5.87816381454467773438e+00) (8, 3.04366421699523925781e+00) (9, -2.82008796930313110352e-02) (10, 1.33057698607444763184e-01) (11, -4.83844757080078125000e+00) (12, 9.45488572120666503906e-01) (13, 5.28299152851104736328e-01) (14, 6.01619386672973632812e+00) (15, 4.95012849569320678711e-02) (16, 5.14333724975585937500e+00) (17, -5.44057178497314453125e+00) (18, 9.98368382453918457031e-01) (19, -3.48924684524536132812e+00) (20, -9.11266922950744628906e-01) (21, -1.20564341545104980469e+00) (22, 5.65160989761352539062e+00) (23, 1.18342542648315429688e+00) (24, 3.25259900093078613281e+00) (25, -5.18085241317749023438e+00) (26, -1.86312174797058105469e+00) (27, -1.05421543121337890625e+00) (28, -2.24539771676063537598e-01) (29, -2.16995358467102050781e+00) (30, -7.43347048759460449219e-01) (31, -1.61455154418945312500e+00) (32, 5.20330518484115600586e-02) (33, -1.70872569084167480469e+00) (34, 3.92632937431335449219e+00) (35, -4.61604261398315429688e+00) (36, -1.11548972129821777344e+00) (37, -1.37705230712890625000e+00) (38, -1.56614708900451660156e+00) (39, -4.71698522567749023438e+00) (40, 8.01667332649230957031e-01) (0, 1.50000000000000000000e+03) (1, 1.21043598651885986328e+00) (2, 1.26781910657882690430e-01) (3, 7.70145773887634277344e-01) (4, 2.31528067588806152344e+00) (5, 5.13843917846679687500e+00) (6, -3.17725896835327148438e+00) (7, 3.84886884689331054688e+00) (8, 5.03680181503295898438e+00) (9, 5.35816736519336700439e-02) (10, -5.56115686893463134766e-01) (11, 3.09631228446960449219e+00) (12, 1.06104600429534912109e+00) (13, 6.93081080913543701172e-01) (14, 5.35035467147827148438e+00) (15, 2.42642688751220703125e+00) (16, 5.49918031692504882812e+00) (17, 9.97247099876403808594e-01) (18, 8.08424055576324462891e-01) (19, -5.58214962482452392578e-01) (20, 4.13355290889739990234e-01) (21, -8.85933414101600646973e-02) (22, 5.30898714065551757812e+00) (23, -1.06386578083038330078e+00) (24, 5.02110433578491210938e+00) (25, 3.11849641799926757812e+00) (26, -9.01468932628631591797e-01) (27, -2.13202056884765625000e+02) (28, -6.77101552486419677734e-01) (29, 4.23143565654754638672e-01) (30, 1.06328761577606201172e+00) (31, -7.56091403961181640625e+00) (32, -4.40321773290634155273e-01) (33, 1.68756544589996337891e+00) (34, 5.01801872253417968750e+00) (35, 4.74191814661026000977e-01) (36, 3.25548827648162841797e-01) (37, 2.08621454238891601562e+00) (38, 1.97212529182434082031e+00) (39, 1.76337981224060058594e+00) (40, 1.68199807405471801758e-01) (41, -9.51225101947784423828e-01) (0, 6.79192876815795898438e+00) (1, 7.89641499519348144531e-01) (2, -4.96939748525619506836e-01) (3, -1.24915373325347900391e+00) (4, 1.34469997882843017578e+00) (5, -1.03316295146942138672e+00) (6, -1.68851077556610107422e+00) (7, 3.75582003593444824219e+00) (8, 2.74623799324035644531e+00) (9, 6.65358185768127441406e-01) (10, -1.16751754283905029297e+00) (11, -5.81186723709106445312e+00) (12, -2.87862151861190795898e-01) (13, -7.48051762580871582031e-01) (14, 3.18105959892272949219e+00) (15, -1.94965732097625732422e+00) (16, 5.41103839874267578125e+00) (17, -2.39947772026062011719e+00) (18, 1.69480562210083007812e-01) (19, -8.65963339805603027344e-01) (20, -9.15537714958190917969e-01) (21, -1.40960681438446044922e+00) (22, 5.57085275650024414062e+00) (23, 4.51097488403320312500e-02) (24, 5.94834280014038085938e+00) (25, -8.34439694881439208984e-02) (26, 1.19584381580352783203e+00) (27, -4.39213466644287109375e+00) (28, 1.37473690509796142578e+00) (29, -1.85984885692596435547e+00) (30, -8.25257897377014160156e-01) (31, -2.14569497108459472656e+00) (32, 9.17939305305480957031e-01) (33, 6.65948510169982910156e-01) (34, 4.24135971069335937500e+00) (35, 8.10615181922912597656e-01) (36, -1.81923806667327880859e+00) (37, -1.92437446117401123047e+00) (38, -1.48105537891387939453e+00) (39, -1.41063559055328369141e+00) (40, 7.29130387306213378906e-01) (41, -6.60426735877990722656e-01) (42, -1.67259299755096435547e+00) (0, 1.19536755371093750000e+03) (1, 5.80613732337951660156e-01) (2, -6.01799562573432922363e-02) (3, 1.38433650135993957520e-01) (4, -7.91675567626953125000e-01) (5, 1.10376477241516113281e+00) (6, -6.77128791809082031250e-01) (7, 6.76634216308593750000e+00) (8, 6.84660148620605468750e+00) (9, -8.85617256164550781250e+00) (10, -6.38450288772583007812e+00) (11, -3.21514010429382324219e-01) (12, -3.00785803794860839844e+00) (13, 1.23146855831146240234e+00) (14, 7.30350208282470703125e+00) (15, 1.12710392475128173828e+00) (16, 8.11119937896728515625e+00) (17, -2.49286794662475585938e+00) (18, -2.93528199195861816406e+00) (19, -8.74679470062255859375e+00) (20, -1.62853753566741943359e+00) (21, -1.60412359237670898438e+00) (22, 7.41993713378906250000e+00) (23, -2.56327366828918457031e+00) (24, 8.48639583587646484375e+00) (25, -3.63246083259582519531e-01) (26, -3.13242650032043457031e+00) (27, -2.63656210899353027344e+00) (28, -1.30197155475616455078e+00) (29, -2.39545464515686035156e+00) (30, -1.42624270915985107422e+00) (31, 4.30729985237121582031e-01) (32, -5.62233507633209228516e-01) (33, -1.75011634826660156250e-01) (34, 6.07334232330322265625e+00) (35, 1.63018393516540527344e+00) (36, 2.22629904747009277344e+00) (37, -7.04779982566833496094e-01) (38, 1.13197350502014160156e+00) (39, -6.42970943450927734375e+00) (40, 1.31569600105285644531e+00) (41, -2.59559845924377441406e+00) (42, 6.24950885772705078125e-01) (43, -2.14211869239807128906e+00) (0, 6.79754114151000976562e+00) (1, -1.61195027828216552734e+00) (2, -5.72457015514373779297e-02) (3, -8.07196497917175292969e-01) (4, 1.14842808246612548828e+00) (5, 3.93049359321594238281e-01) (6, 4.24139618873596191406e-01) (7, 3.29447007179260253906e+00) (8, 3.59288001060485839844e+00) (9, -4.93064016103744506836e-01) (10, 1.07185947895050048828e+00) (11, -3.19831085205078125000e+00) (12, -1.84553182125091552734e+00) (13, -3.16214752197265625000e+00) (14, 5.01695585250854492188e+00) (15, -5.65229606628417968750e+00) (16, 5.59995174407958984375e+00) (17, 3.59562039375305175781e-01) (18, 3.83072495460510253906e-01) (19, -9.79872345924377441406e-01) (20, 1.28570902347564697266e+00) (21, -3.60653966665267944336e-01) (22, 5.15285062789916992188e+00) (23, -1.48644101619720458984e+00) (24, 2.63322567939758300781e+00) (25, 1.00681459903717041016e+00) (26, -8.15002083778381347656e-01) (27, -5.72253084182739257812e+00) (28, 4.50251698493957519531e-01) (29, -1.83267152309417724609e+00) (30, 9.73598122596740722656e-01) (31, 1.42819845676422119141e+00) (32, -1.45647561550140380859e+00) (33, -5.65988421440124511719e-01) (34, 3.73412728309631347656e+00) (35, -5.62183666229248046875e+00) (36, -1.65527999401092529297e+00) (37, -1.39043986797332763672e+00) (38, -1.10323846340179443359e+00) (39, -2.61392617225646972656e+00) (40, 1.04642391204833984375e-01) (41, -6.36556506156921386719e-01) (42, -1.51892364025115966797e+00) (43, 2.47256398200988769531e-01) (44, 1.14372742176055908203e+00) (0, 1.50000000000000000000e+03) (1, 1.43320000171661376953e+00) (2, -9.77674663066864013672e-01) (3, 2.09606084972620010376e-02) (4, 1.03382661938667297363e-01) (5, -3.38670432567596435547e-01) (6, 3.07671397924423217773e-01) (7, 3.82855463027954101562e+00) (8, 3.67393589019775390625e+00) (9, 2.87975335121154785156e+00) (10, 5.56064558029174804688e+00) (11, 1.44994415283203125000e+02) (12, 3.31454515457153320312e+00) (13, 1.16468822956085205078e+00) (14, 5.58375453948974609375e+00) (15, -1.95056056976318359375e+01) (16, 4.68394279479980468750e+00) (17, 5.42333412170410156250e+00) (18, 2.27662491798400878906e+00) (19, 5.67691183090209960938e+00) (20, 2.14006900787353515625e+00) (21, 2.16058349609375000000e+00) (22, 2.41441893577575683594e+00) (23, -3.35111729800701141357e-02) (24, 2.40133261680603027344e+00) (25, 2.90830254554748535156e+00) (26, 4.22765582799911499023e-01) (27, 3.82502031326293945312e+00) (28, 2.78456759452819824219e+00) (29, 2.54232358932495117188e+00) (30, 1.86892819404602050781e+00) (31, 1.03869104385375976562e+00) (32, 2.43081355094909667969e+00) (33, 2.78355050086975097656e+00) (34, 5.02066993713378906250e+00) (35, 1.00744843482971191406e+00) (36, -7.04296112060546875000e+01) (37, -9.65553283691406250000e+01) (38, -7.13783416748046875000e+01) (39, 2.91728830337524414062e+00) (40, -7.22566070556640625000e+01) (41, 8.23332846164703369141e-01) (42, -7.34110107421875000000e+01) (43, 1.23676121234893798828e+00) (44, -7.14335784912109375000e+01) (45, -1.08817529678344726562e+00) (0, 9.00576210021972656250e+00) (1, -5.40625476837158203125e+00) (2, -3.65672254562377929688e+00) (3, -4.10089159011840820312e+00) (4, -5.31998252868652343750e+00) (5, -3.59742593765258789062e+00) (6, -2.60415267944335937500e+00) (7, 3.30408740043640136719e+00) (8, 1.66838800907135009766e+00) (9, 2.18421101570129394531e+00) (10, 1.31176340579986572266e+00) (11, -5.18832302093505859375e+00) (12, 5.88910996913909912109e-01) (13, -5.72667407989501953125e+00) (14, 4.18589735031127929688e+00) (15, -4.63131523132324218750e+00) (16, 4.41209030151367187500e+00) (17, 3.26028943061828613281e-01) (18, 9.74657535552978515625e-01) (19, 2.55666851997375488281e-01) (20, 2.03481841087341308594e+00) (21, -3.18317502737045288086e-01) (22, 3.26469635963439941406e+00) (23, 1.88135802745819091797e-01) (24, 2.30907964706420898438e+00) (25, -5.49370098114013671875e+00) (26, 1.58943855762481689453e+00) (27, -2.83107423782348632812e+00) (28, 2.23646807670593261719e+00) (29, 7.83990919589996337891e-01) (30, 1.61693727970123291016e+00) (31, 1.92310106754302978516e+00) (32, 1.19733011722564697266e+00) (33, 2.80274569988250732422e-01) (34, 2.88021397590637207031e+00) (35, 1.08946406841278076172e+00) (36, -9.97091889381408691406e-01) (37, -3.56315946578979492188e+00) (38, -1.25465720891952514648e-01) (39, -2.24696010351181030273e-01) (40, 9.41111385822296142578e-01) (41, 1.68980193138122558594e+00) (42, -3.24393838644027709961e-01) (43, -8.58528733253479003906e-01) (44, -1.10933363437652587891e+00) (45, 2.70545816421508789062e+00) (46, 3.06769490242004394531e+00) (0, 1.50000000000000000000e+03) (1, -2.43052750825881958008e-01) (2, 2.20428228378295898438e+00) (3, -4.90011759102344512939e-02) (4, -2.75852769613265991211e-01) (5, 1.30629003047943115234e+00) (6, -8.22745323181152343750e+00) (7, 2.04685096740722656250e+01) (8, 1.86831226348876953125e+01) (9, -2.33242218017578125000e+02) (10, -7.55465984344482421875e+00) (11, 7.27807164192199707031e-01) (12, -6.93098783493041992188e+00) (13, 6.17961730957031250000e+02) (14, 2.03935871124267578125e+01) (15, -3.53825607299804687500e+01) (16, 2.01362628936767578125e+01) (17, -6.64340496063232421875e+00) (18, -7.55035781860351562500e+00) (19, -3.81522178649902343750e+00) (20, -6.31583309173583984375e+00) (21, -1.91871047019958496094e+00) (22, 1.92481670379638671875e+01) (23, -5.77271080017089843750e+00) (24, 1.88332729339599609375e+01) (25, 1.77016890048980712891e+00) (26, -7.23954010009765625000e+00) (27, -4.18774948120117187500e+01) (28, -5.24903297424316406250e+00) (29, -5.37147045135498046875e+00) (30, -7.93110513687133789062e+00) (31, -2.53551578521728515625e+01) (32, -8.01287364959716796875e+00) (33, -8.37108898162841796875e+00) (34, 2.04059295654296875000e+01) (35, 3.14646887779235839844e+00) (36, 6.48563504219055175781e-01) (37, 2.31291534423828125000e+02) (38, 2.22070288658142089844e+00) (39, -1.84006214141845703125e+01) (40, 1.16689074039459228516e+00) (41, -5.36532974243164062500e+00) (42, 2.11002683639526367188e+00) (43, -8.08803462982177734375e+00) (44, 3.77025187015533447266e-01) (45, 2.98522043228149414062e+00) (46, 8.88611602783203125000e+00) (47, -7.79089212417602539062e+00) (0, 8.45478630065917968750e+00) (1, -6.49721264839172363281e-01) (2, 1.63101112842559814453e+00) (3, -8.47737431526184082031e-01) (4, -8.67689728736877441406e-01) (5, 8.31559956073760986328e-01) (6, -1.18083631992340087891e+00) (7, 2.06419706344604492188e+00) (8, 1.66020739078521728516e+00) (9, -4.85228300094604492188e-02) (10, 1.21470463275909423828e+00) (11, 1.71998214721679687500e+00) (12, 1.87132704257965087891e+00) (13, 1.64508688449859619141e+00) (14, 3.94793200492858886719e+00) (15, -5.50119996070861816406e-01) (16, 3.84005522727966308594e+00) (17, 7.75364696979522705078e-01) (18, 1.48528206348419189453e+00) (19, 1.49340593814849853516e+00) (20, 1.89630186557769775391e+00) (21, 1.92225754261016845703e+00) (22, 1.88040220737457275391e+00) (23, 1.19399607181549072266e+00) (24, 2.27711820602416992188e+00) (25, 2.37509417533874511719e+00) (26, 1.87726366519927978516e+00) (27, -2.89059728384017944336e-01) (28, -1.10011160373687744141e+00) (29, -2.00028270483016967773e-01) (30, 7.87253439426422119141e-01) (31, 1.53507959842681884766e+00) (32, 2.61233627796173095703e-01) (33, 1.82306766510009765625e-03) (34, 4.53627014160156250000e+00) (35, 5.04527151584625244141e-01) (36, 1.94436609745025634766e+00) (37, -1.93007194995880126953e+00) (38, 9.41762745380401611328e-01) (39, 1.97761213779449462891e+00) (40, 1.06214690208435058594e+00) (41, -2.59973376989364624023e-01) (42, 1.02957558631896972656e+00) (43, 5.17032563686370849609e-01) (44, -1.03132784366607666016e+00) (45, -1.76878303289413452148e-01) (46, 4.69300365447998046875e+00) (47, 1.18176662921905517578e+00) (48, 1.70946943759918212891e+00) (0, 1.50000000000000000000e+03) (1, -4.07990552484989166260e-02) (2, -3.86833436787128448486e-02) (3, -7.04263430088758468628e-03) (4, 1.71905219554901123047e-01) (5, -7.62940347194671630859e-02) (6, -7.20880651473999023438e+00) (7, 1.17246465682983398438e+01) (8, 1.29069089889526367188e+01) (9, -2.95678591728210449219e+00) (10, -1.52780971527099609375e+01) (11, -2.31069259643554687500e+01) (12, -5.61089468002319335938e+00) (13, -3.97686233520507812500e+01) (14, 1.24255914688110351562e+01) (15, 1.69090995788574218750e+01) (16, 1.15170078277587890625e+01) (17, -1.05312402343750000000e+03) (18, -4.79055500030517578125e+00) (19, -9.57911682128906250000e+02) (20, -3.13075804710388183594e+00) (21, -5.76909667968750000000e+02) (22, 1.00067911148071289062e+01) (23, -3.08063244819641113281e+00) (24, 1.01707944869995117188e+01) (25, 3.03885879516601562500e+01) (26, -5.81513547897338867188e+00) (27, 3.12440509796142578125e+01) (28, -5.47530746459960937500e+00) (29, -2.76064181327819824219e+00) (30, -4.93845033645629882812e+00) (31, -1.50000000000000000000e+03) (32, -4.11810493469238281250e+00) (33, -3.04941821098327636719e+00) (34, 1.09952669143676757812e+01) (35, 2.64422492980957031250e+01) (36, -1.80792224407196044922e+00) (37, 4.68430557250976562500e+01) (38, -5.28389632701873779297e-01) (39, 1.35458765029907226562e+01) (40, -1.23986983299255371094e+00) (41, -1.82831439971923828125e+01) (42, 1.21968877315521240234e+00) (43, -1.61257209777832031250e+01) (44, 7.66898572444915771484e-01) (45, -4.75869274139404296875e+00) (46, 7.38852882385253906250e+00) (47, -5.17318725585937500000e+00) (48, 2.74321258544921875000e+02) (49, 5.31777858734130859375e+00) (0, 5.88649559020996093750e+00) (1, 1.51727926731109619141e+00) (2, -9.73485350608825683594e-01) (3, -1.30339372158050537109e+00) (4, -1.90167701244354248047e+00) (5, -8.37391018867492675781e-01) (6, -1.31065785884857177734e+00) (7, 5.90360307693481445312e+00) (8, 6.02834320068359375000e+00) (9, -1.29895126819610595703e+00) (10, -9.70681548118591308594e-01) (11, -5.22361397743225097656e-01) (12, -4.17971223592758178711e-01) (13, 5.33013463020324707031e-01) (14, 3.46040081977844238281e+00) (15, -2.98443460464477539062e+00) (16, 6.12753391265869140625e+00) (17, -7.28363394737243652344e-01) (18, -1.95623528957366943359e+00) (19, -3.13778251409530639648e-01) (20, -1.37593996524810791016e+00) (21, -1.49389356374740600586e-01) (22, 5.77632713317871093750e+00) (23, -2.47716516256332397461e-01) (24, 5.53991794586181640625e+00) (25, -2.22554773092269897461e-01) (26, -1.42504227161407470703e+00) (27, -5.26154708862304687500e+00) (28, 1.97513818740844726562e-01) (29, -5.76266944408416748047e-02) (30, -7.84830689430236816406e-01) (31, 2.64414429664611816406e-01) (32, -1.06454819440841674805e-01) (33, 2.29829907417297363281e-01) (34, 5.54463386535644531250e+00) (35, -1.99856758117675781250e-02) (36, 1.38058531284332275391e+00) (37, -4.32066392898559570312e+00) (38, -2.77956813573837280273e-01) (39, 1.24735414981842041016e+00) (40, 1.99979543685913085938e-01) (41, 7.39508271217346191406e-01) (42, -8.41114401817321777344e-01) (43, -1.78409898281097412109e+00) (44, -2.93585628271102905273e-01) (45, 8.89128923416137695312e-01) (46, 5.64652776718139648438e+00) (47, -3.27625840902328491211e-01) (48, 1.27174866199493408203e+00) (49, 1.08297169208526611328e+00) (50, 1.34674227237701416016e+00) (0, 1.50000000000000000000e+03) (1, 1.22920083999633789062e+00) (2, 1.22486054897308349609e+00) (3, -1.53800380229949951172e+00) (4, -1.50000000000000000000e+03) (5, -1.50000000000000000000e+03) (6, 2.23807907104492187500e+00) (7, -5.94808638095855712891e-01) (8, 2.11212182044982910156e+00) (9, 4.69914674758911132812e+00) (10, 6.30507993698120117188e+00) (11, 1.48356066894531250000e+03) (12, 6.81496047973632812500e+00) (13, 2.32958602905273437500e+00) (14, 2.38675618171691894531e+00) (15, 7.33843982219696044922e-01) (16, -2.51621186733245849609e-01) (17, 2.34778237342834472656e+00) (18, 7.55480098724365234375e+00) (19, 3.90549826622009277344e+00) (20, 8.07932567596435546875e+00) (21, 7.01651048660278320312e+00) (22, 1.77534043788909912109e+00) (23, 6.14920949935913085938e+00) (24, 1.85363566875457763672e+00) (25, 4.10549697875976562500e+01) (26, 8.03536510467529296875e+00) (27, 2.17789211273193359375e+01) (28, 8.53213882446289062500e+00) (29, 5.75372886657714843750e+00) (30, 5.59508419036865234375e+00) (31, 6.08756971359252929688e+00) (32, 5.68317556381225585938e+00) (33, 5.39072275161743164062e+00) (34, 1.18262040615081787109e+00) (35, 1.39413952827453613281e+00) (36, -5.25835514068603515625e-01) (37, 1.49257159233093261719e+00) (38, 1.36635744571685791016e+00) (39, 8.75717258453369140625e+00) (40, 3.30971509218215942383e-01) (41, 5.59054374694824218750e+00) (42, 2.27338337898254394531e+00) (43, 7.88419198989868164062e+00) (44, 1.66993188858032226562e+00) (45, 2.73515462875366210938e+00) (46, 7.70635175704956054688e+00) (47, 8.36078739166259765625e+00) (48, -9.00751266479492187500e+01) (49, -5.38740444183349609375e+00) (50, -4.97798995971679687500e+01) (51, 7.84138488769531250000e+00) (0, 7.92504692077636718750e+00) (1, -3.47659915685653686523e-01) (2, 4.97317910194396972656e-01) (3, -3.77425521612167358398e-01) (4, -2.22270536422729492188e+00) (5, -2.36199706792831420898e-01) (6, -3.10697245597839355469e+00) (7, 7.23013925552368164062e+00) (8, 6.69509410858154296875e+00) (9, -1.24112457036972045898e-01) (10, -1.20932614803314208984e+00) (11, -2.02444815635681152344e+00) (12, 8.30627679824829101562e-02) (13, -1.64269912242889404297e+00) (14, 4.16292953491210937500e+00) (15, -1.54542279243469238281e+00) (16, 6.84818029403686523438e+00) (17, -4.43083429336547851562e+00) (18, 1.71112656593322753906e-01) (19, -3.63305425643920898438e+00) (20, -9.89335179328918457031e-01) (21, -1.49831473827362060547e+00) (22, 7.10291290283203125000e+00) (23, 4.69960808753967285156e-01) (24, 7.03595781326293945312e+00) (25, -1.97536158561706542969e+00) (26, -6.54180407524108886719e-01) (27, -1.40473127365112304688e-01) (28, -8.70241522789001464844e-01) (29, -2.32218217849731445312e+00) (30, -2.81020998954772949219e+00) (31, -3.23650622367858886719e+00) (32, 3.70899319648742675781e-01) (33, -2.85225653648376464844e+00) (34, 7.14291334152221679688e+00) (35, -1.33857524394989013672e+00) (36, -4.77141141891479492188e-02) (37, -2.08677172660827636719e+00) (38, -2.52488923072814941406e+00) (39, 3.36118340492248535156e-01) (40, -2.16822552680969238281e+00) (41, 3.59121918678283691406e-01) (42, -4.92726176977157592773e-01) (43, -2.62452769279479980469e+00) (44, -2.87553763389587402344e+00) (45, -1.13547176122665405273e-01) (46, 5.64575004577636718750e+00) (47, 1.88892006874084472656e-01) (48, -1.25229847431182861328e+00) (49, -1.54699504375457763672e+00) (50, -1.52078717947006225586e-01) (51, -2.53487437963485717773e-01) (52, 5.64349460601806640625e+00) (0, 1.50000000000000000000e+03) (1, 2.11355018615722656250e+00) (2, -2.24415361881256103516e-01) (3, 2.80322462320327758789e-01) (4, -2.01832294464111328125e-01) (5, 7.80201673507690429688e-01) (6, -9.29105663299560546875e+00) (7, 1.50843744277954101562e+01) (8, 1.60785007476806640625e+01) (9, 4.48788070678710937500e+01) (10, -9.29178142547607421875e+00) (11, -6.04554443359375000000e+01) (12, -7.90755414962768554688e+00) (13, 7.14286376953125000000e+02) (14, 1.58010034561157226562e+01) (15, 7.57470214843750000000e+02) (16, 1.41479482650756835938e+01) (17, -3.30712371826171875000e+02) (18, -4.91571474075317382812e+00) (19, -6.09447708129882812500e+01) (20, -5.34487485885620117188e+00) (21, -1.62170196533203125000e+02) (22, 1.41033658981323242188e+01) (23, -7.63846683502197265625e+00) (24, 1.52082929611206054688e+01) (25, -1.31617927551269531250e+01) (26, -6.44961977005004882812e+00) (27, -9.72962188720703125000e+01) (28, -5.65140581130981445312e+00) (29, -7.94855165481567382812e+00) (30, -7.41526365280151367188e+00) (31, -1.32787036132812500000e+03) (32, -8.30874347686767578125e+00) (33, -7.16749906539916992188e+00) (34, 1.60191669464111328125e+01) (35, -1.11042630672454833984e+00) (36, 1.50655674934387207031e+00) (37, -1.21802856445312500000e+02) (38, 5.80350399017333984375e-01) (39, -3.30443664550781250000e+02) (40, -2.94680452346801757812e+00) (41, -7.94667100906372070312e+00) (42, 1.86467409133911132812e+00) (43, -6.70315313339233398438e+00) (44, -1.24897718429565429688e+00) (45, -6.31659698486328125000e+00) (46, 9.30400085449218750000e+00) (47, -7.20319890975952148438e+00) (48, 3.21510648727416992188e+00) (49, 2.18606376647949218750e+00) (50, 6.51357397437095642090e-02) (51, -5.29450927734375000000e+02) (52, 4.99104070663452148438e+00) (53, -1.71772811889648437500e+02) (0, 6.81495428085327148438e+00) (1, 5.41180968284606933594e-01) (2, 5.39769172668457031250e-01) (3, -1.13617753982543945312e+00) (4, -7.73047208786010742188e-01) (5, 4.46417391300201416016e-01) (6, -2.68298673629760742188e+00) (7, 4.22261190414428710938e+00) (8, 3.85543298721313476562e+00) (9, 3.84243369102478027344e-01) (10, 1.51795253157615661621e-01) (11, -3.00815010070800781250e+00) (12, 5.65689384937286376953e-01) (13, -5.38924646377563476562e+00) (14, 6.51421403884887695312e+00) (15, 7.36100673675537109375e-01) (16, 6.14163208007812500000e+00) (17, -7.88677453994750976562e-01) (18, 5.59666931629180908203e-01) (19, 2.09180220961570739746e-01) (20, -2.69805717468261718750e+00) (21, -2.15098190307617187500e+00) (22, 7.11439514160156250000e+00) (23, -2.47500324249267578125e+00) (24, 6.67851066589355468750e+00) (25, -2.35073995590209960938e+00) (26, 8.18234443664550781250e-01) (27, -6.72262668609619140625e-01) (28, -1.54196929931640625000e+00) (29, -2.26569032669067382812e+00) (30, 3.73541712760925292969e-01) (31, -5.46609401702880859375e-01) (32, -1.34449529647827148438e+00) (33, -2.31173372268676757812e+00) (34, 6.12644624710083007812e+00) (35, -2.47069931030273437500e+00) (36, -4.10003304481506347656e-01) (37, -3.09039115905761718750e-01) (38, -2.38747215270996093750e+00) (39, -1.75272122025489807129e-01) (40, -2.49248385429382324219e+00) (41, 1.77544784545898437500e+00) (42, -9.68886494636535644531e-01) (43, 8.06424379348754882812e-01) (44, -2.67716884613037109375e+00) (45, -1.68043231964111328125e+00) (46, 5.32875728607177734375e+00) (47, -1.56238213181495666504e-01) (48, 2.64109015464782714844e-01) (49, -5.94298988580703735352e-02) (50, -8.18897485733032226562e-01) (51, 2.99270033836364746094e-01) (52, 5.59882116317749023438e+00) (53, -9.30263042449951171875e-01) (54, 5.57485878467559814453e-01) (0, 1.50000000000000000000e+03) (1, 1.45487060546875000000e+01) (2, 7.96571135520935058594e-01) (3, 1.14891435950994491577e-02) (4, 1.00326228141784667969e+00) (5, 4.77662026882171630859e-01) (6, -3.24389190673828125000e+01) (7, 4.45365638732910156250e+01) (8, 4.39782905578613281250e+01) (9, -3.00897922515869140625e+01) (10, -2.61301898956298828125e+01) (11, -2.20127201080322265625e+01) (12, -2.64264507293701171875e+01) (13, 4.60403518676757812500e+01) (14, 2.87905158996582031250e+01) (15, 5.30537719726562500000e+01) (16, 4.66405792236328125000e+01) (17, -1.06343225097656250000e+03) (18, -2.61227703094482421875e+01) (19, -3.51474609375000000000e+02) (20, -2.67830104827880859375e+01) (21, -3.40888671875000000000e+02) (22, 4.64786109924316406250e+01) (23, -2.91533908843994140625e+01) (24, 4.69681701660156250000e+01) (25, -9.30868721008300781250e+00) (26, -2.75139255523681640625e+01) (27, -1.06220080566406250000e+03) (28, -2.81407871246337890625e+01) (29, -2.88694858551025390625e+01) (30, -2.65495204925537109375e+01) (31, -1.46959997558593750000e+03) (32, -2.93195858001708984375e+01) (33, -2.58329105377197265625e+01) (34, 4.50672683715820312500e+01) (35, -2.94109619140625000000e+02) (36, -9.84923171997070312500e+00) (37, -3.67214630126953125000e+02) (38, -9.38142395019531250000e+00) (39, -8.75413635253906250000e+02) (40, -8.75391006469726562500e+00) (41, 1.48839050292968750000e+03) (42, -9.03846836090087890625e+00) (43, -2.69349193572998046875e+01) (44, -1.11622877120971679688e+01) (45, -7.84686813354492187500e+01) (46, 2.49840641021728515625e+01) (47, -2.60602092742919921875e+01) (48, 8.61601924896240234375e+00) (49, 6.23302795410156250000e+02) (50, 1.43203945159912109375e+01) (51, -1.47892321777343750000e+03) (52, 1.76536598205566406250e+01) (53, -1.15672863769531250000e+03) (54, 4.64880462646484375000e+02) (55, -1.43533813476562500000e+02) (0, 8.19427394866943359375e+00) (1, -1.17451298236846923828e+00) (2, -2.93460583686828613281e+00) (3, -2.01868146657943725586e-01) (4, -1.91593301296234130859e+00) (5, -4.71842336654663085938e+00) (6, -1.81884896755218505859e+00) (7, 4.13084983825683593750e+00) (8, 5.17638587951660156250e+00) (9, 1.24700415134429931641e+00) (10, -1.84751975536346435547e+00) (11, 2.82518792152404785156e+00) (12, -1.08009898662567138672e+00) (13, 3.54115295410156250000e+00) (14, 5.80761289596557617188e+00) (15, 1.54738295078277587891e+00) (16, 4.43015575408935546875e+00) (17, -1.22560286521911621094e+00) (18, -8.47920775413513183594e-01) (19, -2.39110374450683593750e+00) (20, 9.87186431884765625000e-02) (21, -1.16047060489654541016e+00) (22, 3.31747984886169433594e+00) (23, -8.04362893104553222656e-01) (24, 5.25968408584594726562e+00) (25, 2.33558654785156250000e+00) (26, 1.51108229160308837891e+00) (27, 9.53650236129760742188e-01) (28, -1.00143158435821533203e+00) (29, 7.23794579505920410156e-01) (30, -5.79130530357360839844e-01) (31, 2.25041079521179199219e+00) (32, -1.03915202617645263672e+00) (33, -4.72994655370712280273e-01) (34, 3.24865317344665527344e+00) (35, 1.49789869785308837891e+00) (36, 6.28176331520080566406e-01) (37, 2.76969671249389648438e+00) (38, 5.56590199470520019531e-01) (39, 4.46891188621520996094e-01) (40, 1.58398389816284179688e-01) (41, 6.97217106819152832031e-01) (42, -1.12439811229705810547e+00) (43, 1.06644546985626220703e+00) (44, 3.80067467689514160156e-01) (45, -5.38472986221313476562e+00) (46, 3.35099196434020996094e+00) (47, -1.42627298831939697266e+00) (48, 1.52497208118438720703e+00) (49, -2.41995930671691894531e+00) (50, -1.62695825099945068359e+00) (51, -1.73387527465820312500e-02) (52, 5.31889295578002929688e+00) (53, -9.16798710823059082031e-01) (54, 1.16644442081451416016e+00) (55, -4.08483409881591796875e+00) (56, 1.18966066837310791016e+00) (0, 1.50000000000000000000e+03) (1, -9.12486791610717773438e-01) (2, 8.05550575256347656250e-01) (3, 2.45246797800064086914e-01) (4, -6.87021315097808837891e-02) (5, 1.32986363023519515991e-02) (6, -2.12186031341552734375e+01) (7, 3.00055103302001953125e+01) (8, 3.12287769317626953125e+01) (9, -6.61503016948699951172e-01) (10, -5.85532569885253906250e+01) (11, -2.00608501434326171875e+01) (12, -1.80721359252929687500e+01) (13, -8.30512046813964843750e+00) (14, 3.05863342285156250000e+01) (15, 9.37820129394531250000e+01) (16, 3.18298091888427734375e+01) (17, 2.69672515869140625000e+02) (18, -1.59061632156372070312e+01) (19, -1.14980773925781250000e+03) (20, -1.68367748260498046875e+01) (21, -1.50000000000000000000e+03) (22, 2.99079875946044921875e+01) (23, -3.31666679382324218750e+01) (24, 3.10931835174560546875e+01) (25, -1.19852724075317382812e+01) (26, -1.70672912597656250000e+01) (27, -1.32989456176757812500e+02) (28, -1.77342720031738281250e+01) (29, -1.81428241729736328125e+01) (30, -1.60883522033691406250e+01) (31, -1.44760705566406250000e+03) (32, -1.72852077484130859375e+01) (33, -1.70442485809326171875e+01) (34, 3.21885795593261718750e+01) (35, 6.45433959960937500000e+01) (36, -6.12967252731323242188e+00) (37, 9.29869537353515625000e+01) (38, -5.12881708145141601562e+00) (39, -6.73551330566406250000e+01) (40, -5.89346408843994140625e+00) (41, 1.50000000000000000000e+03) (42, -7.30096960067749023438e+00) (43, -1.75552062988281250000e+01) (44, -6.32213354110717773438e+00) (45, -9.15885257720947265625e+00) (46, 1.20801467895507812500e+01) (47, -1.79008941650390625000e+01) (48, 6.25715255737304687500e-02) (49, 1.78869369506835937500e+02) (50, 9.89219486713409423828e-01) (51, -1.22278857421875000000e+03) (52, 6.53624916076660156250e+00) (53, -5.81540771484375000000e+02) (54, 2.31222747802734375000e+02) (55, 1.76382064819335937500e+02) (56, 5.51556457519531250000e+02) (57, -1.50000000000000000000e+03) (0, 7.18094491958618164062e+00) (1, 7.74314045906066894531e-01) (2, 1.44339060783386230469e+00) (3, -1.25647735595703125000e+00) (4, 1.08480274677276611328e+00) (5, -9.40310120582580566406e-01) (6, 8.23964238166809082031e-01) (7, 3.03554987907409667969e+00) (8, 5.98617744445800781250e+00) (9, 7.48153328895568847656e-01) (10, -7.30762243270874023438e-01) (11, 1.34182941913604736328e+00) (12, 1.13493055105209350586e-02) (13, -6.42401218414306640625e-01) (14, 4.72818946838378906250e+00) (15, -3.37482166290283203125e+00) (16, 5.17052745819091796875e+00) (17, -2.10160136222839355469e+00) (18, 7.72297501564025878906e-01) (19, -1.27770113945007324219e+00) (20, 1.04744386672973632812e+00) (21, -2.77359747886657714844e+00) (22, 3.61746048927307128906e+00) (23, -9.87014055252075195312e-01) (24, 6.02040958404541015625e+00) (25, -1.38658452033996582031e+00) (26, 3.67797493934631347656e-01) (27, -2.30949163436889648438e+00) (28, 8.65152001380920410156e-01) (29, -2.08271765708923339844e+00) (30, -8.74666333198547363281e-01) (31, -3.52295064926147460938e+00) (32, 8.98517251014709472656e-01) (33, -8.76871943473815917969e-01) (34, 4.76383495330810546875e+00) (35, -1.39203488826751708984e+00) (36, -7.06199169158935546875e-01) (37, -4.39906120300292968750e+00) (38, -5.55150508880615234375e-01) (39, -2.23884510993957519531e+00) (40, -1.48383069038391113281e+00) (41, 9.21008229255676269531e-01) (42, 1.04778814315795898438e+00) (43, 7.34439969062805175781e-01) (44, -1.16698908805847167969e+00) (45, 1.86912477016448974609e-01) (46, 6.53137779235839843750e+00) (47, 9.71052289009094238281e-01) (48, -8.03705930709838867188e-01) (49, 6.18671536445617675781e-01) (50, 3.44690918922424316406e-01) (51, -2.03567910194396972656e+00) (52, 3.73582053184509277344e+00) (53, -2.68300819396972656250e+00) (54, 1.80483907461166381836e-02) (55, -2.16818070411682128906e+00) (56, -1.90251588821411132812e+00) (57, -4.67242383956909179688e+00) (58, 1.34192228317260742188e+00) (0, 1.50000000000000000000e+03) (1, -8.10866057872772216797e-01) (2, 4.38298016786575317383e-01) (3, 1.32637202739715576172e-01) (4, -5.48807263374328613281e-01) (5, 5.31752705574035644531e-01) (6, -5.26409959793090820312e+00) (7, 7.53213977813720703125e+00) (8, 6.63581752777099609375e+00) (9, -2.06925892829895019531e+00) (10, -2.40042161941528320312e+00) (11, -1.20212905883789062500e+02) (12, -1.33334279060363769531e+00) (13, 5.08009338378906250000e+00) (14, 5.77384853363037109375e+00) (15, 4.99294728040695190430e-01) (16, 8.56004428863525390625e+00) (17, -1.86358470916748046875e+01) (18, -3.27465605735778808594e+00) (19, -4.63120231628417968750e+01) (20, 1.68376833200454711914e-01) (21, -2.02570343017578125000e+01) (22, 8.04625892639160156250e+00) (23, -1.54014921188354492188e+00) (24, 6.14209508895874023438e+00) (25, -2.76957817077636718750e+01) (26, 6.66985288262367248535e-02) (27, -4.55874519348144531250e+01) (28, -2.51814913749694824219e+00) (29, -1.26602458953857421875e+00) (30, -2.72421669960021972656e+00) (31, -7.35410499572753906250e+00) (32, -3.05085444450378417969e+00) (33, -2.73743796348571777344e+00) (34, 6.99959897994995117188e+00) (35, -5.58285057544708251953e-01) (36, 3.68781864643096923828e-01) (37, -1.15795016288757324219e-01) (38, 1.04762780666351318359e+00) (39, -1.09947906494140625000e+02) (40, 3.76498043537139892578e-01) (41, 2.99832582473754882812e-01) (42, 1.67550697922706604004e-01) (43, -2.02124691009521484375e+00) (44, -9.13804829120635986328e-01) (45, -2.08011550903320312500e+01) (46, 7.11506891250610351562e+00) (47, -2.01856112480163574219e+00) (48, 3.62718850374221801758e-01) (49, -1.31607017517089843750e+01) (50, 1.25835508108139038086e-01) (51, -8.18045902252197265625e+00) (52, 7.77539587020874023438e+00) (53, -4.56461601257324218750e+01) (54, 8.89817504882812500000e+01) (55, -1.10156784057617187500e+02) (56, 2.17052841186523437500e+02) (57, -1.74921207427978515625e+01) (58, 2.18251144409179687500e+02) (59, 1.01749980449676513672e+00) (0, 7.98992347717285156250e+00) (1, -7.26453900337219238281e-01) (2, -8.80469441413879394531e-01) (3, 1.69389009475708007812e-01) (4, 6.79329037666320800781e-01) (5, -1.11446988582611083984e+00) (6, -4.52104568481445312500e+00) (7, 4.33901453018188476562e+00) (8, 4.33297920227050781250e+00) (9, -3.10172885656356811523e-01) (10, 3.06267738342285156250e-02) (11, 8.70156109333038330078e-01) (12, -3.90045642852783203125e-02) (13, -8.01442027091979980469e-01) (14, 2.81334090232849121094e+00) (15, -1.94492429494857788086e-01) (16, 5.83537673950195312500e+00) (17, 6.64801239967346191406e-01) (18, 1.61057639122009277344e+00) (19, 5.84734082221984863281e-01) (20, -2.63744205236434936523e-01) (21, -1.85970103740692138672e+00) (22, 2.89113736152648925781e+00) (23, -1.19322144985198974609e+00) (24, 3.29473900794982910156e+00) (25, 1.60878586769104003906e+00) (26, -3.47302287817001342773e-01) (27, 1.12889444828033447266e+00) (28, -4.79995340108871459961e-01) (29, 2.67864823341369628906e-01) (30, 5.84573388099670410156e-01) (31, -1.98480260372161865234e+00) (32, 1.52955687046051025391e+00) (33, -1.98288619518280029297e+00) (34, 4.76819944381713867188e+00) (35, 5.21896004676818847656e-01) (36, -1.10920989513397216797e+00) (37, 1.62101423740386962891e+00) (38, -1.42154586315155029297e+00) (39, 6.16448521614074707031e-01) (40, -1.25331127643585205078e+00) (41, 5.97226738929748535156e-01) (42, -1.07754790782928466797e+00) (43, 6.95830464363098144531e-01) (44, 9.06767964363098144531e-01) (45, -8.71527552604675292969e-01) (46, 6.20778846740722656250e+00) (47, 4.59688305854797363281e-01) (48, -1.89371621608734130859e+00) (49, 1.53590738773345947266e+00) (50, -6.42567992210388183594e-01) (51, -1.69314235448837280273e-01) (52, 6.25981903076171875000e+00) (53, -3.58751147985458374023e-01) (54, 6.25609993934631347656e-01) (55, -1.32336509227752685547e+00) (56, -4.36955541372299194336e-01) (57, -1.40868175029754638672e+00) (58, 9.16513085365295410156e-01) (59, 1.07119524478912353516e+00) (60, 8.47329258918762207031e-01) (0, 1.50000000000000000000e+03) (1, 1.35830366611480712891e+00) (2, -5.50471246242523193359e-03) (3, -3.18807251751422882080e-02) (4, 4.03596496582031250000e+00) (5, 1.23336446285247802734e+00) (6, -1.20782909393310546875e+01) (7, 2.56787948608398437500e+01) (8, 2.54265594482421875000e+01) (9, -4.30737304687500000000e+00) (10, -2.48879470825195312500e+01) (11, -4.31325866699218750000e+02) (12, -1.25023822784423828125e+01) (13, -8.83621752262115478516e-01) (14, 2.46101646423339843750e+01) (15, -5.06532096862792968750e+00) (16, 2.25704154968261718750e+01) (17, -5.90722229003906250000e+02) (18, -1.20476551055908203125e+01) (19, -2.13076477050781250000e+02) (20, -1.04942417144775390625e+01) (21, -4.34622573852539062500e+01) (22, 2.28511695861816406250e+01) (23, -1.05656909942626953125e+01) (24, 2.39320564270019531250e+01) (25, -3.72672943115234375000e+02) (26, -1.19125518798828125000e+01) (27, -4.46510070800781250000e+02) (28, -1.00593509674072265625e+01) (29, -1.17045211791992187500e+01) (30, -1.31554927825927734375e+01) (31, 2.91633239746093750000e+02) (32, -1.17886791229248046875e+01) (33, -1.27308158874511718750e+01) (34, 2.50349464416503906250e+01) (35, -6.74922800064086914062e+00) (36, -1.34899377822875976562e-01) (37, -1.94525085449218750000e+02) (38, -1.24775338917970657349e-03) (39, 5.49950561523437500000e+02) (40, -1.96411192417144775391e+00) (41, 1.81107635498046875000e+02) (42, -2.65549802780151367188e+00) (43, -2.00004005432128906250e+01) (44, -3.36250662803649902344e-01) (45, -1.26058235168457031250e+01) (46, 9.27903842926025390625e+00) (47, -1.01888790130615234375e+01) (48, -3.26452702283859252930e-01) (49, -6.75706024169921875000e+01) (50, 7.42343187332153320312e-01) (51, -5.24342041015625000000e+01) (52, 5.62303686141967773438e+00) (53, -8.98121566772460937500e+01) (54, 2.51413131713867187500e+02) (55, -4.14386253356933593750e+01) (56, 2.62311553955078125000e+02) (57, 2.87429931640625000000e+02) (58, 5.90340698242187500000e+02) (59, -6.53063598632812500000e+02) (60, 2.62748321533203125000e+02) (61, -2.85611801147460937500e+01) (0, 5.87965726852416992188e+00) (1, -2.48909807205200195312e+00) (2, 2.83997118473052978516e-01) (3, -2.67218852043151855469e+00) (4, 9.66790914535522460938e-02) (5, -1.32636630535125732422e+00) (6, -4.48535156250000000000e+00) (7, 3.16381144523620605469e+00) (8, 4.55204868316650390625e+00) (9, -4.94052261114120483398e-01) (10, 2.63612806797027587891e-01) (11, -4.94023370742797851562e+00) (12, 5.90115964412689208984e-01) (13, -3.11020612716674804688e+00) (14, 4.96277856826782226562e+00) (15, -1.69061350822448730469e+00) (16, 4.07435464859008789062e+00) (17, -5.81644773483276367188e+00) (18, 1.21881592273712158203e+00) (19, -1.77395570278167724609e+00) (20, 1.11963617801666259766e+00) (21, 1.15878641605377197266e+00) (22, 3.94190955162048339844e+00) (23, 2.07927155494689941406e+00) (24, 3.31172537803649902344e+00) (25, -2.33894634246826171875e+00) (26, 1.49348890781402587891e+00) (27, -9.26400899887084960938e-01) (28, -6.45951390266418457031e-01) (29, -2.32716411352157592773e-01) (30, 2.12732625007629394531e+00) (31, -5.85888504981994628906e-01) (32, -5.99299788475036621094e-01) (33, -1.74772828817367553711e-01) (34, 3.10263228416442871094e+00) (35, -1.43043935298919677734e+00) (36, 4.87006604671478271484e-01) (37, -4.18256759643554687500e+00) (38, 2.14521241188049316406e+00) (39, -2.84985393285751342773e-01) (40, 1.14297449588775634766e+00) (41, -4.88588190078735351562e+00) (42, 5.94375073909759521484e-01) (43, -8.53005528450012207031e-01) (44, 2.53211784362792968750e+00) (45, -6.44050240516662597656e-01) (46, 3.34411072731018066406e+00) (47, 1.28243124485015869141e+00) (48, 2.36259281635284423828e-01) (49, -1.89833045005798339844e+00) (50, -5.65838456153869628906e-01) (51, 2.46687889099121093750e+00) (52, 4.24660015106201171875e+00) (53, -2.95950126647949218750e+00) (54, 1.96005403995513916016e+00) (55, -1.38082253932952880859e+00) (56, 1.53267872333526611328e+00) (57, 8.67446720600128173828e-01) (58, 1.71972477436065673828e+00) (59, -2.71090078353881835938e+00) (60, 1.74571335315704345703e+00) (61, 1.26095449924468994141e+00) (62, 2.52280521392822265625e+00) (0, 1.50000000000000000000e+03) (1, 8.72359126806259155273e-02) (2, -1.91484272480010986328e-01) (3, 2.28754028677940368652e-01) (4, -6.04563243687152862549e-02) (5, 2.87672355771064758301e-02) (6, -5.73533391952514648438e+00) (7, 1.00805664062500000000e+01) (8, 1.14942502975463867188e+01) (9, 1.02802300453186035156e+00) (10, -2.03268852233886718750e+01) (11, -1.65754280090332031250e+01) (12, -4.54106903076171875000e+00) (13, 4.32638702392578125000e+01) (14, 8.13576221466064453125e+00) (15, -2.43776664733886718750e+01) (16, 1.01089906692504882812e+01) (17, -1.50000000000000000000e+03) (18, -4.56476116180419921875e+00) (19, -1.50000000000000000000e+03) (20, -4.53811073303222656250e+00) (21, -1.50000000000000000000e+03) (22, 1.14204511642456054688e+01) (23, -2.55407581329345703125e+01) (24, 9.03527927398681640625e+00) (25, -6.58186292648315429688e+00) (26, -1.83435201644897460938e+00) (27, -3.67031593322753906250e+01) (28, -4.12200021743774414062e+00) (29, -2.52495312690734863281e+00) (30, -4.13305521011352539062e+00) (31, -1.50000000000000000000e+03) (32, -4.44120693206787109375e+00) (33, -5.28730392456054687500e+00) (34, 1.06282825469970703125e+01) (35, -2.33615970611572265625e+01) (36, -1.38780903816223144531e+00) (37, -1.02902992248535156250e+02) (38, -2.03740000724792480469e+00) (39, 5.65262832641601562500e+01) (40, 2.32207044959068298340e-01) (41, -2.62195587158203125000e+02) (42, 5.12563586235046386719e-02) (43, -1.01210927963256835938e+01) (44, -1.21410620212554931641e+00) (45, -8.65159149169921875000e+01) (46, 5.13202142715454101562e+00) (47, -2.50814938545227050781e+00) (48, 1.72393596172332763672e+00) (49, 4.57615127563476562500e+01) (50, 4.43770676851272583008e-01) (51, -1.31501489257812500000e+03) (52, -2.82118946313858032227e-01) (53, -1.50000000000000000000e+03) (54, 3.13579177856445312500e+01) (55, 5.80143966674804687500e+01) (56, 3.56558074951171875000e+01) (57, -1.50000000000000000000e+03) (58, 9.64645996093750000000e+01) (59, -7.43972253799438476562e+00) (60, 3.40924491882324218750e+01) (61, -8.15919555664062500000e+02) (62, 9.35805206298828125000e+01) (63, -4.92062044143676757812e+00) (0, 9.00845050811767578125e+00) (1, 6.34448170661926269531e-01) (2, -1.94966733455657958984e+00) (3, -1.74201524257659912109e+00) (4, -1.18637931346893310547e+00) (5, -1.61808001995086669922e+00) (6, 1.15546286106109619141e+00) (7, 5.10251903533935546875e+00) (8, 4.20545530319213867188e+00) (9, -1.55999028682708740234e+00) (10, -1.43163430690765380859e+00) (11, -3.65096330642700195312e+00) (12, -9.45885300636291503906e-01) (13, 3.15425992012023925781e-01) (14, 4.25320720672607421875e+00) (15, 1.07790660858154296875e+00) (16, 3.42458271980285644531e+00) (17, -1.50323140621185302734e+00) (18, -1.60940301418304443359e+00) (19, -9.07282233238220214844e-01) (20, -1.51361835002899169922e+00) (21, -3.74717086553573608398e-01) (22, 3.09661602973937988281e+00) (23, -6.70352339744567871094e-01) (24, 4.37983751296997070312e+00) (25, -1.10425102710723876953e+00) (26, 4.56916928291320800781e-01) (27, 2.26516318321228027344e+00) (28, -1.55548560619354248047e+00) (29, -1.06682670116424560547e+00) (30, 7.43517518043518066406e-01) (31, 1.63336968421936035156e+00) (32, 1.55576813220977783203e+00) (33, 7.81996369361877441406e-01) (34, 2.75657677650451660156e+00) (35, -1.36085546016693115234e+00) (36, 1.15206301212310791016e+00) (37, 5.39514780044555664062e-01) (38, 1.13434278964996337891e+00) (39, 9.76742804050445556641e-03) (40, -1.69812381267547607422e+00) (41, 2.66881489753723144531e+00) (42, 1.20043861865997314453e+00) (43, -6.55863165855407714844e-01) (44, 2.76036381721496582031e-01) (45, -8.72065186500549316406e-01) (46, 5.39752435684204101562e+00) (47, 1.09329855442047119141e+00) (48, -3.87150138616561889648e-01) (49, 1.18080055713653564453e+00) (50, -1.54422795772552490234e+00) (51, 8.73777866363525390625e-02) (52, 3.67130589485168457031e+00) (53, -1.05493199825286865234e+00) (54, 1.40517151355743408203e+00) (55, -2.98309183120727539062e+00) (56, -1.71036928892135620117e-01) (57, 1.31844520568847656250e-01) (58, 5.06112217903137207031e-01) (59, 2.61623501777648925781e-01) (60, 1.05316364765167236328e+00) (61, -4.80614513158798217773e-01) (62, 1.64749383926391601562e-01) (63, 8.78687500953674316406e-01) (64, -1.42886197566986083984e+00) (0, 1.50000000000000000000e+03) (1, 8.41345250606536865234e-01) (2, 8.49464178085327148438e-01) (3, 3.88704597949981689453e-01) (4, 1.22540080547332763672e+00) (5, 1.14285938441753387451e-01) (6, -4.23842239379882812500e+01) (7, 5.65612487792968750000e+01) (8, 5.35008277893066406250e+01) (9, -1.76947629451751708984e+00) (10, -6.72409515380859375000e+01) (11, -1.24836341857910156250e+02) (12, -3.37828521728515625000e+01) (13, 2.00304546356201171875e+01) (14, 5.09656753540039062500e+01) (15, 4.94587783813476562500e+01) (16, 5.51016273498535156250e+01) (17, -6.61240234375000000000e+01) (18, -3.84294662475585937500e+01) (19, -6.57505950927734375000e+01) (20, -3.28529281616210937500e+01) (21, -6.61264953613281250000e+01) (22, 5.57063941955566406250e+01) (23, -3.91161613464355468750e+01) (24, 5.45181617736816406250e+01) (25, -4.70648574829101562500e+00) (26, -4.04529533386230468750e+01) (27, -1.53852645874023437500e+02) (28, -3.96305198669433593750e+01) (29, -4.05065536499023437500e+01) (30, -4.13456726074218750000e+01) (31, -1.51295227050781250000e+02) (32, -4.09591178894042968750e+01) (33, -3.95369606018066406250e+01) (34, 5.38224334716796875000e+01) (35, 2.33745709061622619629e-01) (36, -5.56114244461059570312e+00) (37, -1.27981586456298828125e+01) (38, -7.25747346878051757812e+00) (39, -6.93630371093750000000e+01) (40, -5.56922674179077148438e+00) (41, -6.71621704101562500000e+00) (42, -6.71876764297485351562e+00) (43, -6.92619018554687500000e+01) (44, -7.11989068984985351562e+00) (45, 6.77823352813720703125e+00) (46, 1.06242055892944335938e+01) (47, -4.13382263183593750000e+01) (48, -1.23111391067504882812e+00) (49, -8.20898056030273437500e-01) (50, -2.17036676406860351562e+00) (51, -6.68967437744140625000e+01) (52, 8.33204841613769531250e+00) (53, -1.51466964721679687500e+02) (54, 1.41897678375244140625e+01) (55, -3.06911830902099609375e+01) (56, 1.31641006469726562500e+01) (57, -1.52129028320312500000e+02) (58, 1.89138671875000000000e+02) (59, -4.34961462020874023438e+00) (60, 1.60933170318603515625e+01) (61, -3.75753860473632812500e+01) (62, 4.32893371582031250000e+02) (63, -3.79514846801757812500e+01) (64, 1.87390289306640625000e+02) (65, -6.75146255493164062500e+01) (0, 9.50544357299804687500e+00) (1, -3.99624109268188476562e+00) (2, -2.95396566390991210938e+00) (3, -4.53074216842651367188e+00) (4, -5.29464673995971679688e+00) (5, -5.77369880676269531250e+00) (6, 1.44188106060028076172e-01) (7, 3.32889628410339355469e+00) (8, 5.09036064147949218750e+00) (9, -9.39713120460510253906e-01) (10, 1.14581739902496337891e+00) (11, -1.24134504795074462891e+00) (12, -2.96683162450790405273e-01) (13, -1.30309140682220458984e+00) (14, 4.17061853408813476562e+00) (15, -4.79513263702392578125e+00) (16, 3.17944693565368652344e+00) (17, -3.10468626022338867188e+00) (18, -4.73622083663940429688e-02) (19, -4.27942466735839843750e+00) (20, -3.87727588415145874023e-01) (21, 1.27241575717926025391e+00) (22, 2.20806598663330078125e+00) (23, 4.95794951915740966797e-01) (24, 4.24635601043701171875e+00) (25, -2.78763246536254882812e+00) (26, 2.53343963623046875000e+00) (27, -3.67602491378784179688e+00) (28, -1.68715804815292358398e-01) (29, 1.07390713691711425781e+00) (30, 2.10719227790832519531e+00) (31, -4.93058633804321289062e+00) (32, -8.41846823692321777344e-01) (33, 1.23371374607086181641e+00) (34, 3.80482125282287597656e+00) (35, -2.24665808677673339844e+00) (36, 1.27960932254791259766e+00) (37, -4.88370227813720703125e+00) (38, 1.38503515720367431641e+00) (39, 1.73486995697021484375e+00) (40, -3.82077693939208984375e-03) (41, 6.33697628974914550781e-01) (42, -4.41993474960327148438e-02) (43, 8.10478985309600830078e-01) (44, 1.64037907123565673828e+00) (45, -2.20915317535400390625e+00) (46, 4.57288503646850585938e+00) (47, -5.46243071556091308594e-01) (48, 1.47525846958160400391e+00) (49, -2.72077059745788574219e+00) (50, 9.93926525115966796875e-01) (51, 2.19851422309875488281e+00) (52, 4.28079748153686523438e+00) (53, -3.13358020782470703125e+00) (54, 6.61851167678833007812e-02) (55, -4.54022973775863647461e-01) (56, 8.67885649204254150391e-01) (57, -4.73711109161376953125e+00) (58, 2.56670999526977539062e+00) (59, -2.89845848083496093750e+00) (60, 2.15639042854309082031e+00) (61, 1.16861450672149658203e+00) (62, -1.03994667530059814453e+00) (63, 2.42552685737609863281e+00) (64, 6.51367127895355224609e-01) (65, 1.13791334629058837891e+00) (66, -5.19496798515319824219e-01) (0, 1.50000000000000000000e+03) (1, -1.09179568290710449219e+00) (2, -9.13892015814781188965e-02) (3, 3.24527442455291748047e-01) (4, 1.30434620380401611328e+00) (5, 1.46044604480266571045e-02) (6, -1.26012973785400390625e+01) (7, 1.47968502044677734375e+01) (8, 1.40324506759643554688e+01) (9, -2.01969833374023437500e+01) (10, -2.09952926635742187500e+01) (11, -3.24194732666015625000e+02) (12, -8.33204841613769531250e+00) (13, 7.43506050109863281250e+00) (14, 1.35372133255004882812e+01) (15, -4.12908935546875000000e+01) (16, 1.22294788360595703125e+01) (17, -2.74335601806640625000e+02) (18, -7.48049592971801757812e+00) (19, -5.14743896484375000000e+02) (20, -7.47996377944946289062e+00) (21, -4.82991256713867187500e+01) (22, 1.39855461120605468750e+01) (23, -1.05343303680419921875e+01) (24, 1.35629072189331054688e+01) (25, -2.94183013916015625000e+02) (26, -8.48419666290283203125e+00) (27, -7.75984430313110351562e+00) (28, -7.82707071304321289062e+00) (29, -6.46718263626098632812e+00) (30, -7.50976133346557617188e+00) (31, -1.90287170410156250000e+01) (32, -6.09097719192504882812e+00) (33, -6.08271741867065429688e+00) (34, 1.48355779647827148438e+01) (35, -3.07469457387924194336e-01) (36, -6.66811037063598632812e+00) (37, -6.26117658615112304688e+00) (38, -9.86874401569366455078e-01) (39, -2.75541595458984375000e+02) (40, -2.50669932365417480469e+00) (41, -4.50207176208496093750e+01) (42, -3.27194213867187500000e+00) (43, -7.74247503280639648438e+00) (44, -5.98252439498901367188e+00) (45, -1.18367109298706054688e+01) (46, 2.22384834289550781250e+01) (47, -6.15644979476928710938e+00) (48, -3.89568901062011718750e+00) (49, -1.96960043907165527344e+00) (50, -8.96257936954498291016e-01) (51, -4.64541511535644531250e+01) (52, 1.34410066604614257812e+01) (53, -1.16690658569335937500e+02) (54, 3.09651489257812500000e+01) (55, -2.06602840423583984375e+01) (56, 9.99376144409179687500e+01) (57, -5.15134460449218750000e+02) (58, 1.45796661376953125000e+02) (59, -1.09626169204711914062e+01) (60, 2.80071754455566406250e+01) (61, -1.93368949890136718750e+01) (62, 3.46725280761718750000e+02) (63, -9.05230903625488281250e+00) (64, 1.47946838378906250000e+02) (65, -2.00604934692382812500e+01) (66, 3.45363037109375000000e+02) (67, -8.71215724945068359375e+00) (0, 6.44473075866699218750e+00) (1, -5.68065285682678222656e-01) (2, -6.47833466529846191406e-01) (3, -2.55928730964660644531e+00) (4, 8.41897547245025634766e-01) (5, -1.71326625347137451172e+00) (6, -2.25453257560729980469e+00) (7, 2.68842482566833496094e+00) (8, 3.52630209922790527344e+00) (9, 9.42998528480529785156e-01) (10, 4.37493324279785156250e-02) (11, -2.18407487869262695312e+00) (12, 1.23709261417388916016e+00) (13, 7.70224034786224365234e-01) (14, 6.31995964050292968750e+00) (15, -1.02570140361785888672e+00) (16, 4.08745145797729492188e+00) (17, 2.61184835433959960938e+00) (18, -1.48690068721771240234e+00) (19, 6.41714632511138916016e-01) (20, -8.27278494834899902344e-01) (21, -1.12504094839096069336e-01) (22, 5.29607963562011718750e+00) (23, -1.50406920909881591797e+00) (24, 3.86200833320617675781e+00) (25, -6.42952620983123779297e-02) (26, 1.64538455009460449219e+00) (27, 2.66561567783355712891e-01) (28, 1.54916107654571533203e+00) (29, -4.34260934591293334961e-01) (30, -1.22597110271453857422e+00) (31, -7.07805514335632324219e-01) (32, 9.85819935798645019531e-01) (33, -7.62821793556213378906e-01) (34, 3.49195218086242675781e+00) (35, -1.65374624729156494141e+00) (36, -4.87941831350326538086e-01) (37, 1.52008879184722900391e+00) (38, -7.39461302757263183594e-01) (39, -3.40040826797485351562e+00) (40, -1.85195773839950561523e-01) (41, 1.76277661323547363281e+00) (42, 3.07293057441711425781e-01) (43, -7.19223380088806152344e-01) (44, -1.92573535442352294922e+00) (45, 1.13782894611358642578e+00) (46, 4.83868789672851562500e+00) (47, -4.45604413747787475586e-01) (48, 2.24230885505676269531e-01) (49, 7.44466900825500488281e-01) (50, 1.30709373950958251953e+00) (51, 1.38509905338287353516e+00) (52, 6.33841228485107421875e+00) (53, 1.11374914646148681641e+00) (54, -1.89009034633636474609e+00) (55, -4.59308052062988281250e+00) (56, -1.59882915019989013672e+00) (57, 2.62060356140136718750e+00) (58, 6.15912556648254394531e-01) (59, -9.43624615669250488281e-01) (60, -4.61940616369247436523e-01) (61, -2.45336055755615234375e+00) (62, -1.41761004924774169922e+00) (63, -1.24724066257476806641e+00) (64, -1.15585434436798095703e+00) (65, -5.32978177070617675781e-01) (66, -7.96601474285125732422e-02) (67, 3.44349980354309082031e-01) (68, -1.66117227077484130859e+00) (0, 1.50000000000000000000e+03) (1, 3.02585899829864501953e-01) (2, -2.48795285820960998535e-01) (3, 1.05968989431858062744e-01) (4, -2.41238877177238464355e-01) (5, 2.06604041159152984619e-02) (6, -6.87956380844116210938e+00) (7, 6.37843513488769531250e+00) (8, 6.78719234466552734375e+00) (9, -2.01650589704513549805e-01) (10, -3.37820172309875488281e+00) (11, -8.97122573852539062500e+01) (12, -2.63579678535461425781e+00) (13, -8.02449941635131835938e-01) (14, 7.42039155960083007812e+00) (15, 6.42556915283203125000e+01) (16, 9.90849018096923828125e+00) (17, -3.44221252441406250000e+02) (18, -2.08673882484436035156e+00) (19, -3.46180114746093750000e+02) (20, -2.36299335956573486328e-01) (21, -2.57628955841064453125e+01) (22, 6.75163221359252929688e+00) (23, -1.82431852817535400391e+00) (24, 6.79595756530761718750e+00) (25, -1.03689682006835937500e+02) (26, -2.26044917106628417969e+00) (27, -2.52381256103515625000e+02) (28, -6.17376625537872314453e-01) (29, -3.32725971937179565430e-01) (30, -6.78602039813995361328e-01) (31, -2.02862071990966796875e+00) (32, -1.53360831737518310547e+00) (33, -2.51618409156799316406e+00) (34, 9.79685115814208984375e+00) (35, 3.44451507568359375000e+02) (36, -5.11934831738471984863e-02) (37, -6.72228927612304687500e+01) (38, -3.14087343215942382812e+00) (39, 1.68659420013427734375e+01) (40, -1.07183687388896942139e-01) (41, 5.86703338623046875000e+01) (42, -2.46827173233032226562e+00) (43, -3.31750655174255371094e+00) (44, -1.86994993686676025391e+00) (45, -8.43878841400146484375e+00) (46, 6.24073362350463867188e+00) (47, -2.35836815834045410156e+00) (48, -8.28917682170867919922e-01) (49, -8.03434729576110839844e-01) (50, -2.18846499919891357422e-01) (51, -1.96757545471191406250e+01) (52, 7.45346021652221679688e+00) (53, -3.44084991455078125000e+02) (54, 6.68818283081054687500e+00) (55, 7.71471309661865234375e+00) (56, 1.89088573455810546875e+01) (57, 9.23679065704345703125e+00) (58, 1.09124816894531250000e+02) (59, -1.79747665405273437500e+02) (60, 6.78839540481567382812e+00) (61, -2.85177707672119140625e+01) (62, 1.10546020507812500000e+02) (63, -1.15811336040496826172e+00) (64, 1.10063453674316406250e+02) (65, -2.41006970405578613281e+00) (66, 1.11879325866699218750e+02) (67, -2.91829895973205566406e+00) (68, 1.10523010253906250000e+02) (69, -1.45691909790039062500e+02) (0, 7.80601644515991210938e+00) (1, -2.52903699874877929688e-02) (2, -6.10155463218688964844e-01) (3, -7.99912333488464355469e-01) (4, -3.61136525869369506836e-01) (5, 7.24797189235687255859e-01) (6, -2.24695229530334472656e+00) (7, 4.37130451202392578125e+00) (8, 3.74176669120788574219e+00) (9, -3.24403852224349975586e-01) (10, 3.08469295501708984375e+00) (11, 9.75086688995361328125e-01) (12, 6.46542310714721679688e-01) (13, -2.33806037902832031250e+00) (14, 1.18558442592620849609e+00) (15, -4.61209011077880859375e+00) (16, 3.49431300163269042969e+00) (17, 8.40424358844757080078e-01) (18, 6.89288496971130371094e-01) (19, 2.27451729774475097656e+00) (20, 3.33994364738464355469e+00) (21, 2.81060314178466796875e+00) (22, 2.31195139884948730469e+00) (23, 9.86595511436462402344e-01) (24, 4.44351100921630859375e+00) (25, 2.99653482437133789062e+00) (26, 1.34434378147125244141e+00) (27, -4.32670831680297851562e+00) (28, 4.88799214363098144531e-01) (29, -3.08735460042953491211e-01) (30, 2.83061981201171875000e+00) (31, 2.47522068023681640625e+00) (32, 7.76957392692565917969e-01) (33, 3.33144783973693847656e+00) (34, 3.97630190849304199219e+00) (35, 8.71453940868377685547e-01) (36, 1.38832950592041015625e+00) (37, -5.47620725631713867188e+00) (38, 1.30921375751495361328e+00) (39, 2.81148552894592285156e-01) (40, 1.89832448959350585938e-02) (41, 1.60416340827941894531e+00) (42, 7.64585733413696289062e-02) (43, 1.04553973674774169922e+00) (44, 2.96081876754760742188e+00) (45, 4.52047109603881835938e-01) (46, 3.44305396080017089844e+00) (47, 1.86623704433441162109e+00) (48, 2.40345478057861328125e+00) (49, 3.06229376792907714844e+00) (50, 1.47283864021301269531e+00) (51, 2.34451389312744140625e+00) (52, 3.31493449211120605469e+00) (53, -2.46478605270385742188e+00) (54, -6.77748620510101318359e-02) (55, 1.71948766708374023438e+00) (56, 2.57244491577148437500e+00) (57, 1.65658283233642578125e+00) (58, -3.06471675634384155273e-01) (59, -3.37640374898910522461e-01) (60, 1.72786140441894531250e+00) (61, 2.90416193008422851562e+00) (62, 2.51759433746337890625e+00) (63, 2.88483333587646484375e+00) (64, 2.83672523498535156250e+00) (65, 1.90500199794769287109e+00) (66, 1.01275253295898437500e+00) (67, 8.26170444488525390625e-01) (68, 2.24838924407958984375e+00) (69, 1.09384834766387939453e+00) (70, 1.74738597869873046875e+00) (0, 1.50000000000000000000e+03) (1, -1.52078986167907714844e+00) (2, 1.70773553848266601562e+00) (3, -4.78408746421337127686e-02) (4, -4.22473400831222534180e-01) (5, 3.79186332225799560547e-01) (6, -4.16236782073974609375e+00) (7, 1.17183456420898437500e+01) (8, 1.12547082901000976562e+01) (9, -1.61136388778686523438e+00) (10, -5.37173938751220703125e+00) (11, -3.93080282211303710938e+00) (12, -4.50965452194213867188e+00) (13, 1.49220395088195800781e+00) (14, 9.11623859405517578125e+00) (15, -5.71295738220214843750e-01) (16, 1.03279447555541992188e+01) (17, -3.61222572326660156250e+01) (18, -3.33673357963562011719e+00) (19, -3.94209823608398437500e+01) (20, -1.52948379516601562500e+00) (21, -3.86139144897460937500e+01) (22, 1.08792390823364257812e+01) (23, -4.01770591735839843750e+00) (24, 9.65595722198486328125e+00) (25, -2.94614639282226562500e+01) (26, -4.62700510025024414062e+00) (27, -3.28231620788574218750e+01) (28, -3.75135970115661621094e+00) (29, -4.02916669845581054688e+00) (30, -5.08071470260620117188e+00) (31, -9.19514160156250000000e+01) (32, -3.90246891975402832031e+00) (33, -1.69950175285339355469e+00) (34, 9.34424209594726562500e+00) (35, 1.73349583148956298828e+00) (36, 9.69672083854675292969e-01) (37, 1.10651218891143798828e+00) (38, 9.92325544357299804688e-01) (39, -1.70763130187988281250e+01) (40, -4.70226973295211791992e-01) (41, -9.07560253143310546875e+00) (42, -5.59338450431823730469e-01) (43, -3.12846946716308593750e+00) (44, 7.77182340621948242188e-01) (45, -1.26222360134124755859e+00) (46, 6.65348529815673828125e+00) (47, -4.56251811981201171875e+00) (48, 7.00133386999368667603e-06) (49, -1.96322250366210937500e+01) (50, -6.80098116397857666016e-01) (51, -1.71060104370117187500e+01) (52, 5.53578472137451171875e+00) (53, -3.66473693847656250000e+01) (54, 7.61105680465698242188e+00) (55, -3.93602218627929687500e+01) (56, 4.32172241210937500000e+01) (57, -3.68208923339843750000e+01) (58, 4.47645950317382812500e+01) (59, -7.41555500030517578125e+00) (60, 1.74076232910156250000e+01) (61, -9.73967742919921875000e+00) (62, 4.61396713256835937500e+01) (63, -3.69388508796691894531e+00) (64, 4.43832664489746093750e+01) (65, -4.67830562591552734375e+00) (66, 4.38052024841308593750e+01) (67, -4.32105207443237304688e+00) (68, 4.61259231567382812500e+01) (69, -3.95362167358398437500e+01) (70, 4.50662651062011718750e+01) (71, -3.99100112915039062500e+01) (0, 9.25096702575683593750e+00) (1, -7.69346594810485839844e-01) (2, -9.99562144279479980469e-01) (3, -5.21173834800720214844e-01) (4, 7.24589586257934570312e-01) (5, -2.68603873252868652344e+00) (6, -4.29710674285888671875e+00) (7, 6.11138582229614257812e+00) (8, 7.19026231765747070312e+00) (9, 6.92244291305541992188e-01) (10, -9.44631218910217285156e-01) (11, 3.51287007331848144531e-01) (12, -1.13493573665618896484e+00) (13, 1.77230334281921386719e+00) (14, 5.03552484512329101562e+00) (15, -1.66770410537719726562e+00) (16, 5.81317710876464843750e+00) (17, 4.74196076393127441406e-01) (18, -1.90764653682708740234e+00) (19, -7.07427382469177246094e-01) (20, -2.33292293548583984375e+00) (21, 3.14039826393127441406e-01) (22, 5.03024959564208984375e+00) (23, 2.44738698005676269531e-01) (24, 7.29795026779174804688e+00) (25, 1.03243041038513183594e+00) (26, -1.29919826984405517578e+00) (27, 1.68350672721862792969e+00) (28, -8.23952555656433105469e-01) (29, 2.81717419624328613281e-01) (30, -2.16847658157348632812e+00) (31, -1.19061434268951416016e+00) (32, -1.24492037296295166016e+00) (33, -1.27296775579452514648e-01) (34, 4.35541296005249023438e+00) (35, 3.92083108425140380859e-01) (36, 2.27405667304992675781e-01) (37, -1.16754695773124694824e-01) (38, -2.74802041053771972656e+00) (39, 6.28426313400268554688e-01) (40, -1.26329267024993896484e+00) (41, 4.00685906410217285156e-01) (42, -5.70120692253112792969e-01) (43, 6.42513990402221679688e-01) (44, -7.18388915061950683594e-01) (45, 6.81653261184692382812e-01) (46, 5.36604547500610351562e+00) (47, -2.48699545860290527344e+00) (48, 3.98557782173156738281e-01) (49, -3.25352042913436889648e-01) (50, -1.53681129217147827148e-01) (51, -2.69165682792663574219e+00) (52, 6.05588912963867187500e+00) (53, -3.96833014488220214844e+00) (54, 5.93823671340942382812e-01) (55, -3.83129024505615234375e+00) (56, -3.01749080419540405273e-01) (57, -1.46266615390777587891e+00) (58, -1.20771324634552001953e+00) (59, -1.88299334049224853516e+00) (60, -1.93823993206024169922e+00) (61, -3.35448116064071655273e-01) (62, -3.28654050827026367188e-02) (63, -1.42418712377548217773e-01) (64, -1.22003686428070068359e+00) (65, 5.38796663284301757812e-01) (66, -2.17733216285705566406e+00) (67, -1.74992239475250244141e+00) (68, -1.41674005985260009766e+00) (69, -3.14772582054138183594e+00) (70, -2.67133021354675292969e+00) (71, -2.41814327239990234375e+00) (72, 5.04220604896545410156e-01) (0, 1.50000000000000000000e+03) (1, 1.59473285675048828125e+01) (2, 2.54871082305908203125e+00) (3, 8.45970749855041503906e-01) (4, 5.78981995582580566406e-01) (5, 1.23327600955963134766e+00) (6, -4.04500350952148437500e+01) (7, 5.52202835083007812500e+01) (8, 5.44619445800781250000e+01) (9, 2.34240770339965820312e+00) (10, -3.40719833374023437500e+01) (11, -1.46448760986328125000e+02) (12, -3.32480392456054687500e+01) (13, 2.39505386352539062500e+02) (14, 5.62977066040039062500e+01) (15, 1.61410690307617187500e+02) (16, 5.71517257690429687500e+01) (17, -1.29669689941406250000e+03) (18, -3.67008514404296875000e+01) (19, -1.30663061523437500000e+03) (20, -3.58807830810546875000e+01) (21, -1.50000000000000000000e+03) (22, 5.44466400146484375000e+01) (23, -8.91100215911865234375e+00) (24, 5.63547058105468750000e+01) (25, -5.84611816406250000000e+01) (26, -3.52087402343750000000e+01) (27, -1.50000000000000000000e+03) (28, -3.48225708007812500000e+01) (29, -3.49994812011718750000e+01) (30, -3.50274963378906250000e+01) (31, -1.50000000000000000000e+03) (32, -3.34226455688476562500e+01) (33, -3.64715957641601562500e+01) (34, 5.45875167846679687500e+01) (35, -5.07567176818847656250e+01) (36, 7.20661997795104980469e-01) (37, -4.74285675048828125000e+02) (38, -5.73314905166625976562e-01) (39, -1.06922448730468750000e+03) (40, 1.04516482353210449219e+00) (41, 1.50000000000000000000e+03) (42, 1.16447424888610839844e+00) (43, -4.38606376647949218750e+01) (44, 1.69497656822204589844e+00) (45, -4.92090272903442382812e+00) (46, 5.93608331680297851562e+00) (47, -3.35996398925781250000e+01) (48, 3.61255002021789550781e+00) (49, -6.44464135169982910156e-01) (50, 4.52677011489868164062e-01) (51, -1.50000000000000000000e+03) (52, 4.98592948913574218750e+00) (53, -1.50000000000000000000e+03) (54, 7.79097414016723632812e+00) (55, -4.24171829223632812500e+01) (56, 2.05490322113037109375e+01) (57, -1.50000000000000000000e+03) (58, 4.82770690917968750000e+01) (59, 1.04251831054687500000e+03) (60, 1.24176969528198242188e+01) (61, -2.32261032104492187500e+02) (62, 5.06929092407226562500e+01) (63, -3.38317642211914062500e+01) (64, 5.04379081726074218750e+01) (65, -1.38849822998046875000e+02) (66, 5.02644309997558593750e+01) (67, -3.44477767944335937500e+01) (68, 2.16005573272705078125e+01) (69, -1.23585192871093750000e+03) (70, 4.90113449096679687500e+01) (71, 7.20920410156250000000e+01) (72, 2.17010974884033203125e+01) (73, -3.52447814941406250000e+01) (0, 8.26906108856201171875e+00) (1, 1.09872102737426757812e-01) (2, -1.40879023075103759766e+00) (3, -1.55515897274017333984e+00) (4, -1.14774000644683837891e+00) (5, 1.33874428272247314453e+00) (6, -2.30531573295593261719e+00) (7, 5.55610752105712890625e+00) (8, 2.75207734107971191406e+00) (9, 6.32504582405090332031e-01) (10, 8.26397538185119628906e-01) (11, -5.19521331787109375000e+00) (12, -1.39796006679534912109e+00) (13, -1.87081903219223022461e-01) (14, 4.44996213912963867188e+00) (15, -9.54767167568206787109e-02) (16, 5.21779251098632812500e+00) (17, 6.47653698921203613281e-01) (18, 5.25374412536621093750e-02) (19, -9.60360646247863769531e-01) (20, -1.57791745662689208984e+00) (21, 1.59490942955017089844e+00) (22, 4.75196123123168945312e+00) (23, -1.70031201839447021484e+00) (24, 5.70778179168701171875e+00) (25, 2.66017627716064453125e+00) (26, 1.01615297794342041016e+00) (27, -1.80427062511444091797e+00) (28, -8.85737776756286621094e-01) (29, 1.22709619998931884766e+00) (30, -1.35003459453582763672e+00) (31, 1.56372857093811035156e+00) (32, -4.91583675146102905273e-01) (33, -7.70678877830505371094e-01) (34, 2.77548384666442871094e+00) (35, 1.22598516941070556641e+00) (36, -1.26048672199249267578e+00) (37, -7.02180564403533935547e-02) (38, -5.19089341163635253906e-01) (39, -1.86080241203308105469e+00) (40, -1.26626527309417724609e+00) (41, -1.52124392986297607422e+00) (42, -4.91348832845687866211e-01) (43, -6.76079392433166503906e-01) (44, -5.97342610359191894531e-01) (45, 1.35129272937774658203e+00) (46, 4.93489360809326171875e+00) (47, -1.80356872081756591797e+00) (48, 1.70394659042358398438e-01) (49, -1.43658769130706787109e+00) (50, -7.75783419609069824219e-01) (51, 5.80623269081115722656e-01) (52, 2.92523598670959472656e+00) (53, 1.36885750293731689453e+00) (54, 8.68457436561584472656e-01) (55, 1.43023073673248291016e+00) (56, 1.32331812381744384766e+00) (57, 5.60579299926757812500e-02) (58, 1.61410689353942871094e+00) (59, -5.22241973876953125000e+00) (60, -5.45397877693176269531e-01) (61, -1.56448018550872802734e+00) (62, -1.65579545497894287109e+00) (63, 9.51164841651916503906e-01) (64, -3.47012847661972045898e-01) (65, -1.48763167858123779297e+00) (66, -5.28565287590026855469e-01) (67, 3.80646824836730957031e-01) (68, 4.30296063423156738281e-01) (69, 9.40491795539855957031e-01) (70, 1.25306332111358642578e+00) (71, 2.02934002876281738281e+00) (72, 1.40739452838897705078e+00) (73, -1.06683766841888427734e+00) (74, -1.35245454311370849609e+00) (0, 1.50000000000000000000e+03) (1, 1.15473277866840362549e-01) (2, 2.25929164886474609375e+01) (3, 3.05551469326019287109e-01) (4, 1.25564041137695312500e+01) (5, 1.13389873504638671875e+01) 