FANN_FLO_2.1
num_layers=186
learning_rate=0.700000
connection_rate=1.000000
network_type=1
learning_momentum=0.000000
training_algorithm=2
train_error_function=1
train_stop_function=0
cascade_output_change_fraction=0.010000
quickprop_decay=-0.000100
quickprop_mu=1.750000
rprop_increase_factor=1.200000
rprop_decrease_factor=0.500000
rprop_delta_min=0.000000
rprop_delta_max=50.000000
rprop_delta_zero=0.100000
cascade_output_stagnation_epochs=12
cascade_candidate_change_fraction=0.010000
cascade_candidate_stagnation_epochs=12
cascade_max_out_epochs=150
cascade_max_cand_epochs=150
cascade_num_candidate_groups=2
bit_fail_limit=3.49999994039535522461e-01
cascade_candidate_limit=1.00000000000000000000e+03
cascade_weight_multiplier=4.00000005960464477539e-01
cascade_activation_functions_count=10
cascade_activation_functions=3 5 7 8 10 11 14 15 16 17 
cascade_activation_steepnesses_count=4
cascade_activation_steepnesses=2.50000000000000000000e-01 5.00000000000000000000e-01 7.50000000000000000000e-01 1.00000000000000000000e+00 
layer_sizes=7 1 1 1 1 1 1 1 1 1 1 1 1 1 1 1 1 1 1 1 1 1 1 1 1 1 1 1 1 1 1 1 1 1 1 1 1 1 1 1 1 1 1 1 1 1 1 1 1 1 1 1 1 1 1 1 1 1 1 1 1 1 1 1 1 1 1 1 1 1 1 1 1 1 1 1 1 1 1 1 1 1 1 1 1 1 1 1 1 1 1 1 1 1 1 1 1 1 1 1 1 1 1 1 1 1 1 1 1 1 1 1 1 1 1 1 1 1 1 1 1 1 1 1 1 1 1 1 1 1 1 1 1 1 1 1 1 1 1 1 1 1 1 1 1 1 1 1 1 1 1 1 1 1 1 1 1 1 1 1 1 1 1 1 1 1 1 1 1 1 1 1 1 1 1 1 1 1 1 1 1 1 1 1 1 10 
scale_included=0
neurons (num_inputs, activation_function, activation_steepness)=(0, 0, 0.00000000000000000000e+00) (0, 0, 0.00000000000000000000e+00) (0, 0, 0.00000000000000000000e+00) (0, 0, 0.00000000000000000000e+00) (0, 0, 0.00000000000000000000e+00) (0, 0, 0.00000000000000000000e+00) (0, 0, 0.00000000000000000000e+00) (7, 8, 1.00000000000000000000e+00) (8, 5, 2.50000000000000000000e-01) (9, 16, 7.50000000000000000000e-01) (10, 8, 5.00000000000000000000e-01) (11, 14, 5.00000000000000000000e-01) (12, 8, 5.00000000000000000000e-01) (13, 10, 5.00000000000000000000e-01) (14, 17, 5.00000000000000000000e-01) (15, 17, 1.00000000000000000000e+00) (16, 14, 1.00000000000000000000e+00) (17, 3, 2.50000000000000000000e-01) (18, 14, 1.00000000000000000000e+00) (19, 10, 2.50000000000000000000e-01) (20, 8, 5.00000000000000000000e-01) (21, 10, 1.00000000000000000000e+00) (22, 8, 2.50000000000000000000e-01) (23, 10, 7.50000000000000000000e-01) (24, 14, 5.00000000000000000000e-01) (25, 10, 7.50000000000000000000e-01) (26, 10, 2.50000000000000000000e-01) (27, 10, 2.50000000000000000000e-01) (28, 10, 5.00000000000000000000e-01) (29, 10, 2.50000000000000000000e-01) (30, 11, 5.00000000000000000000e-01) (31, 10, 7.50000000000000000000e-01) (32, 11, 2.50000000000000000000e-01) (33, 10, 7.50000000000000000000e-01) (34, 10, 5.00000000000000000000e-01) (35, 10, 7.50000000000000000000e-01) (36, 10, 2.50000000000000000000e-01) (37, 10, 7.50000000000000000000e-01) (38, 11, 2.50000000000000000000e-01) (39, 10, 2.50000000000000000000e-01) (40, 10, 2.50000000000000000000e-01) (41, 10, 2.50000000000000000000e-01) (42, 10, 2.50000000000000000000e-01) (43, 10, 2.50000000000000000000e-01) (44, 11, 2.50000000000000000000e-01) (45, 10, 1.00000000000000000000e+00) (46, 10, 2.50000000000000000000e-01) (47, 10, 1.00000000000000000000e+00) (48, 10, 2.50000000000000000000e-01) (49, 10, 2.50000000000000000000e-01) (50, 11, 2.50000000000000000000e-01) (51, 10, 7.50000000000000000000e-01) (52, 10, 7.50000000000000000000e-01) (53, 10, 5.00000000000000000000e-01) (54, 10, 2.50000000000000000000e-01) (55, 10, 1.00000000000000000000e+00) (56, 10, 7.50000000000000000000e-01) (57, 10, 7.50000000000000000000e-01) (58, 10, 2.50000000000000000000e-01) (59, 10, 7.50000000000000000000e-01) (60, 10, 2.50000000000000000000e-01) (61, 10, 7.50000000000000000000e-01) (62, 10, 5.00000000000000000000e-01) (63, 10, 5.00000000000000000000e-01) (64, 10, 2.50000000000000000000e-01) (65, 10, 7.50000000000000000000e-01) (66, 11, 5.00000000000000000000e-01) (67, 10, 7.50000000000000000000e-01) (68, 10, 2.50000000000000000000e-01) (69, 10, 5.00000000000000000000e-01) (70, 10, 2.50000000000000000000e-01) (71, 10, 1.00000000000000000000e+00) (72, 10, 2.50000000000000000000e-01) (73, 10, 7.50000000000000000000e-01) (74, 10, 2.50000000000000000000e-01) (75, 10, 1.00000000000000000000e+00) (76, 11, 5.00000000000000000000e-01) (77, 10, 1.00000000000000000000e+00) (78, 11, 2.50000000000000000000e-01) (79, 10, 2.50000000000000000000e-01) (80, 10, 7.50000000000000000000e-01) (81, 10, 5.00000000000000000000e-01) (82, 10, 2.50000000000000000000e-01) (83, 10, 2.50000000000000000000e-01) (84, 10, 5.00000000000000000000e-01) (85, 10, 1.00000000000000000000e+00) (86, 10, 2.50000000000000000000e-01) (87, 10, 2.50000000000000000000e-01) (88, 10, 2.50000000000000000000e-01) (89, 10, 7.50000000000000000000e-01) (90, 11, 2.50000000000000000000e-01) (91, 10, 2.50000000000000000000e-01) (92, 10, 2.50000000000000000000e-01) (93, 10, 7.50000000000000000000e-01) (94, 10, 2.50000000000000000000e-01) (95, 10, 7.50000000000000000000e-01) (96, 10, 2.50000000000000000000e-01) (97, 10, 2.50000000000000000000e-01) (98, 11, 2.50000000000000000000e-01) (99, 10, 5.00000000000000000000e-01) (100, 11, 2.50000000000000000000e-01) (101, 10, 7.50000000000000000000e-01) (102, 10, 1.00000000000000000000e+00) (103, 10, 7.50000000000000000000e-01) (104, 10, 2.50000000000000000000e-01) (105, 10, 1.00000000000000000000e+00) (106, 10, 2.50000000000000000000e-01) (107, 10, 1.00000000000000000000e+00) (108, 10, 2.50000000000000000000e-01) (109, 10, 5.00000000000000000000e-01) (110, 10, 5.00000000000000000000e-01) (111, 10, 1.00000000000000000000e+00) (112, 10, 2.50000000000000000000e-01) (113, 10, 5.00000000000000000000e-01) (114, 11, 1.00000000000000000000e+00) (115, 10, 7.50000000000000000000e-01) (116, 10, 7.50000000000000000000e-01) (117, 10, 1.00000000000000000000e+00) (118, 10, 2.50000000000000000000e-01) (119, 10, 1.00000000000000000000e+00) (120, 10, 5.00000000000000000000e-01) (121, 10, 7.50000000000000000000e-01) (122, 11, 2.50000000000000000000e-01) (123, 10, 7.50000000000000000000e-01) (124, 11, 2.50000000000000000000e-01) (125, 10, 7.50000000000000000000e-01) (126, 10, 2.50000000000000000000e-01) (127, 10, 7.50000000000000000000e-01) (128, 10, 2.50000000000000000000e-01) (129, 10, 7.50000000000000000000e-01) (130, 10, 2.50000000000000000000e-01) (131, 10, 7.50000000000000000000e-01) (132, 10, 7.50000000000000000000e-01) (133, 10, 1.00000000000000000000e+00) (134, 10, 2.50000000000000000000e-01) (135, 10, 1.00000000000000000000e+00) (136, 10, 1.00000000000000000000e+00) (137, 10, 5.00000000000000000000e-01) (138, 10, 7.50000000000000000000e-01) (139, 10, 5.00000000000000000000e-01) (140, 10, 2.50000000000000000000e-01) (141, 10, 1.00000000000000000000e+00) (142, 11, 2.50000000000000000000e-01) (143, 10, 5.00000000000000000000e-01) (144, 10, 7.50000000000000000000e-01) (145, 10, 2.50000000000000000000e-01) (146, 11, 2.50000000000000000000e-01) (147, 10, 2.50000000000000000000e-01) (148, 11, 2.50000000000000000000e-01) (149, 10, 2.50000000000000000000e-01) (150, 10, 2.50000000000000000000e-01) (151, 10, 7.50000000000000000000e-01) (152, 10, 5.00000000000000000000e-01) (153, 10, 2.50000000000000000000e-01) (154, 10, 1.00000000000000000000e+00) (155, 10, 7.50000000000000000000e-01) (156, 10, 2.50000000000000000000e-01) (157, 10, 5.00000000000000000000e-01) (158, 10, 2.50000000000000000000e-01) (159, 10, 2.50000000000000000000e-01) (160, 10, 5.00000000000000000000e-01) (161, 10, 5.00000000000000000000e-01) (162, 10, 2.50000000000000000000e-01) (163, 10, 1.00000000000000000000e+00) (164, 11, 2.50000000000000000000e-01) (165, 10, 7.50000000000000000000e-01) (166, 10, 2.50000000000000000000e-01) (167, 10, 7.50000000000000000000e-01) (168, 10, 5.00000000000000000000e-01) (169, 10, 7.50000000000000000000e-01) (170, 10, 2.50000000000000000000e-01) (171, 10, 5.00000000000000000000e-01) (172, 10, 2.50000000000000000000e-01) (173, 10, 5.00000000000000000000e-01) (174, 10, 7.50000000000000000000e-01) (175, 10, 7.50000000000000000000e-01) (176, 10, 2.50000000000000000000e-01) (177, 10, 7.50000000000000000000e-01) (178, 10, 5.00000000000000000000e-01) (179, 10, 2.50000000000000000000e-01) (180, 10, 5.00000000000000000000e-01) (181, 10, 2.50000000000000000000e-01) (182, 10, 5.00000000000000000000e-01) (183, 10, 2.50000000000000000000e-01) (184, 10, 1.00000000000000000000e+00) (185, 10, 1.00000000000000000000e+00) (186, 10, 2.50000000000000000000e-01) (187, 10, 5.00000000000000000000e-01) (188, 10, 2.50000000000000000000e-01) (189, 10, 2.50000000000000000000e-01) (190, 10, 2.50000000000000000000e-01) (191, 4, 5.00000000000000000000e-01) (191, 4, 5.00000000000000000000e-01) (191, 4, 5.00000000000000000000e-01) (191, 4, 5.00000000000000000000e-01) (191, 4, 5.00000000000000000000e-01) (191, 4, 5.00000000000000000000e-01) (191, 4, 5.00000000000000000000e-01) (191, 4, 5.00000000000000000000e-01) (191, 4, 5.00000000000000000000e-01) (191, 4, 5.00000000000000000000e-01) 
connections (connected_to_neuron, weight)=(0, 5.68134574890136718750e+01) (1, 5.77874565124511718750e+01) (2, 5.71374931335449218750e+01) (3, 5.69104957580566406250e+01) (4, 5.74888420104980468750e+01) (5, 5.71768150329589843750e+01) (6, 5.63288688659667968750e+01) (0, 3.99032745361328125000e+01) (1, 1.21809113025665283203e+00) (2, 8.80130231380462646484e-01) (3, 2.64223396778106689453e-01) (4, 2.39915207028388977051e-01) (5, 1.52124750614166259766e+00) (6, -1.88377663493156433105e-01) (7, 2.53230500221252441406e+00) (0, 4.77386932373046875000e+01) (1, 4.01676940917968750000e+00) (2, 3.43130445480346679688e+00) (3, 4.58104228973388671875e+00) (4, 4.24837636947631835938e+00) (5, 4.32341384887695312500e+00) (6, 4.63311958312988281250e+00) (7, -7.20417737960815429688e-01) (8, 4.51462125778198242188e+00) (0, 8.35957946777343750000e+01) (1, 8.37290725708007812500e+01) (2, 8.27383422851562500000e+01) (3, 8.33877944946289062500e+01) (4, 8.41814880371093750000e+01) (5, 8.32487792968750000000e+01) (6, 8.23474197387695312500e+01) (7, 8.24552612304687500000e+01) (8, 8.23218612670898437500e+01) (9, 8.36670837402343750000e+01) (0, 2.46189708709716796875e+01) (1, 2.31107540130615234375e+01) (2, 2.37249507904052734375e+01) (3, 2.30099697113037109375e+01) (4, 2.24788341522216796875e+01) (5, 2.35594444274902343750e+01) (6, 1.96376152038574218750e+01) (7, -1.69257946014404296875e+01) (8, 2.09117012023925781250e+01) (9, 2.05797348022460937500e+01) (10, -1.61034355163574218750e+01) (0, 4.95775512695312500000e+02) (1, 4.97174133300781250000e+02) (2, 4.97214111328125000000e+02) (3, 4.97128417968750000000e+02) (4, 4.96719573974609375000e+02) (5, 4.95305511474609375000e+02) (6, 4.93334960937500000000e+02) (7, 4.94751037597656250000e+02) (8, 4.95205047607421875000e+02) (9, 4.97259796142578125000e+02) (10, 4.96055084228515625000e+02) (11, 4.95906280517578125000e+02) (0, 6.26720046997070312500e+00) (1, 1.18129694461822509766e+00) (2, -2.16039746999740600586e-01) (3, -6.47553324699401855469e-01) (4, 9.26417112350463867188e-02) (5, -1.07177108526229858398e-01) (6, 3.27024281024932861328e-01) (7, 1.09880077838897705078e+00) (8, 1.58929860591888427734e+00) (9, -3.56429189443588256836e-01) (10, 2.05975079536437988281e+00) (11, 2.68332529067993164062e+00) (12, 3.33536648750305175781e+00) (0, 6.95295227050781250000e+02) (1, 4.88304436206817626953e-01) (2, 1.56136286258697509766e+00) (3, 9.09630417823791503906e-01) (4, 8.05296063423156738281e-01) (5, 1.50742685794830322266e+00) (6, -1.81588697433471679688e+00) (7, 2.69959592819213867188e+00) (8, 1.85462027788162231445e-01) (9, 9.33191061019897460938e-01) (10, 4.15193176269531250000e+00) (11, 3.09360551834106445312e+00) (12, 1.84382545948028564453e+00) (13, 9.06598925590515136719e-01) (0, 6.88136291503906250000e+00) (1, 2.08160281181335449219e-02) (2, -4.08238172531127929688e-03) (3, 9.17116850614547729492e-02) (4, 7.00694561004638671875e-01) (5, -5.15657901763916015625e-01) (6, -4.22060441970825195312e+00) (7, 4.57245397567749023438e+00) (8, -1.42664551734924316406e+00) (9, -1.45217251777648925781e+00) (10, 5.04816579818725585938e+00) (11, 4.25303745269775390625e+00) (12, 2.41178250312805175781e+00) (13, -1.58368110656738281250e-01) (14, -4.21764433383941650391e-01) (0, 4.94943969726562500000e+02) (1, 4.31811571121215820312e+00) (2, 6.03571557998657226562e+00) (3, 6.87502622604370117188e+00) (4, 6.67960691452026367188e+00) (5, 6.96868705749511718750e+00) (6, 5.92793750762939453125e+00) (7, -3.31159830093383789062e-01) (8, 6.73939323425292968750e+00) (9, 5.56885671615600585938e+00) (10, -1.29576936364173889160e-01) (11, -1.78246247768402099609e+00) (12, -1.46102750301361083984e+00) (13, 7.08337163925170898438e+00) (14, 6.48607730865478515625e+00) (15, 6.91540718078613281250e+00) (0, 8.26177692413330078125e+00) (1, 4.83592867851257324219e-01) (2, -1.46827235817909240723e-01) (3, -5.16410732269287109375e+00) (4, -2.28547886013984680176e-01) (5, 4.22629356384277343750e-01) (6, -3.83090758323669433594e+00) (7, 4.07817077636718750000e+00) (8, -7.42290139198303222656e-01) (9, -1.05201315879821777344e+00) (10, 3.72879123687744140625e+00) (11, 3.68044567108154296875e+00) (12, 4.43445539474487304688e+00) (13, 1.11152386665344238281e+00) (14, 2.62951254844665527344e-01) (15, -2.11354994773864746094e+00) (16, 3.70402765274047851562e+00) (0, 4.97280120849609375000e+02) (1, 4.99116992950439453125e+00) (2, 7.07280063629150390625e+00) (3, 7.51925897598266601562e+00) (4, 7.84766626358032226562e+00) (5, 8.31591224670410156250e+00) (6, 4.70081138610839843750e+00) (7, -3.75953936576843261719e+00) (8, 8.52734470367431640625e+00) (9, 8.51499557495117187500e+00) (10, -2.99914574623107910156e+00) (11, -2.91058897972106933594e+00) (12, -4.92400169372558593750e+00) (13, 3.63055419921875000000e+00) (14, 8.23742771148681640625e+00) (15, 9.42998981475830078125e+00) (16, -2.99431014060974121094e+00) (17, 4.95987701416015625000e+02) (0, 6.18417739868164062500e+00) (1, -4.19769859313964843750e+00) (2, -1.62796127796173095703e+00) (3, -2.77781438827514648438e+00) (4, -2.89542049169540405273e-01) (5, -1.04283249378204345703e+00) (6, -9.28166747093200683594e-01) (7, 3.96149230003356933594e+00) (8, -3.28058242797851562500e-01) (9, -1.61285161972045898438e+00) (10, 5.30417537689208984375e+00) (11, 3.11434006690979003906e+00) (12, 3.17323660850524902344e+00) (13, -4.76745653152465820312e+00) (14, -1.17522978782653808594e+00) (15, -5.79764246940612792969e-01) (16, 5.87281227111816406250e+00) (17, 6.13491868972778320312e+00) (18, 3.23718714714050292969e+00) (0, 5.95405761718750000000e+02) (1, 5.96308288574218750000e+02) (2, 5.96320068359375000000e+02) (3, 5.95724487304687500000e+02) (4, 5.97115112304687500000e+02) (5, 5.97427856445312500000e+02) (6, 5.91975036621093750000e+02) (7, 5.94988830566406250000e+02) (8, 5.96458007812500000000e+02) (9, 5.95828491210937500000e+02) (10, 5.96574890136718750000e+02) (11, 5.96566284179687500000e+02) (12, 5.95665832519531250000e+02) (13, 5.97475036621093750000e+02) (14, 5.97421875000000000000e+02) (15, 5.97169799804687500000e+02) (16, 5.96960754394531250000e+02) (17, 5.95678710937500000000e+02) (18, 5.95331787109375000000e+02) (19, 5.94910034179687500000e+02) (0, 5.86949110031127929688e+00) (1, -4.87387984991073608398e-01) (2, 3.76407742500305175781e-01) (3, -7.10451304912567138672e-02) (4, -1.77889478206634521484e+00) (5, 7.57162213325500488281e-01) (6, -6.61480426788330078125e-03) (7, 4.10153055191040039062e+00) (8, -9.17644143104553222656e-01) (9, -2.51352161169052124023e-01) (10, 4.32143306732177734375e+00) (11, 3.96627831459045410156e+00) (12, 4.13171625137329101562e+00) (13, 1.08625531196594238281e-01) (14, -9.14412140846252441406e-01) (15, -3.06787580251693725586e-01) (16, 3.64614367485046386719e+00) (17, 7.30898809432983398438e+00) (18, 4.23952388763427734375e+00) (19, -1.04968249797821044922e+00) (20, 3.15513205528259277344e+00) (0, 1.50000000000000000000e+03) (1, 1.50000000000000000000e+03) (2, 1.50000000000000000000e+03) (3, 1.50000000000000000000e+03) (4, 1.50000000000000000000e+03) (5, 1.50000000000000000000e+03) (6, 1.50000000000000000000e+03) (7, 1.50000000000000000000e+03) (8, 1.50000000000000000000e+03) (9, 1.50000000000000000000e+03) (10, 1.50000000000000000000e+03) (11, 1.50000000000000000000e+03) (12, 1.50000000000000000000e+03) (13, 1.50000000000000000000e+03) (14, 1.50000000000000000000e+03) (15, 1.50000000000000000000e+03) (16, 1.50000000000000000000e+03) (17, 1.50000000000000000000e+03) (18, 1.50000000000000000000e+03) (19, 1.50000000000000000000e+03) (20, 1.50000000000000000000e+03) (21, 1.50000000000000000000e+03) (0, 8.58283329010009765625e+00) (1, -6.44954323768615722656e-01) (2, -4.10792917013168334961e-01) (3, -1.67276471853256225586e-01) (4, 8.45533907413482666016e-01) (5, -8.19908976554870605469e-01) (6, 7.63188004493713378906e-01) (7, 9.76983189582824707031e-01) (8, 1.38662350177764892578e+00) (9, 1.38151621818542480469e+00) (10, 3.20152401924133300781e+00) (11, 1.60097014904022216797e+00) (12, 2.25944733619689941406e+00) (13, 2.62362861633300781250e+00) (14, 5.35336136817932128906e-01) (15, 5.71304559707641601562e-02) (16, 2.10858845710754394531e+00) (17, 7.36489486694335937500e+00) (18, 3.35068011283874511719e+00) (19, 1.14573156833648681641e+00) (20, 3.39115023612976074219e+00) (21, -5.90005278587341308594e-01) (22, 3.10977482795715332031e+00) (0, 4.46881774902343750000e+02) (1, 3.94317436218261718750e+01) (2, 3.96871452331542968750e+01) (3, 3.69446487426757812500e+01) (4, 3.88861427307128906250e+01) (5, 3.79810256958007812500e+01) (6, 3.66145668029785156250e+01) (7, -2.48242244720458984375e+01) (8, 4.04385948181152343750e+01) (9, 4.03150558471679687500e+01) (10, -2.66119060516357421875e+01) (11, -2.67847347259521484375e+01) (12, -2.56148166656494140625e+01) (13, 8.94024734497070312500e+01) (14, 4.00350608825683593750e+01) (15, 4.17231254577636718750e+01) (16, -2.48871135711669921875e+01) (17, 4.47586090087890625000e+02) (18, -2.65771999359130859375e+01) (19, 4.19785041809082031250e+01) (20, -2.47180080413818359375e+01) (21, 3.93952255249023437500e+01) (22, -2.64174709320068359375e+01) (23, 4.08835334777832031250e+01) (0, 5.91650152206420898438e+00) (1, -5.26332855224609375000e-02) (2, -2.01744168996810913086e-01) (3, -1.92029476165771484375e-02) (4, 3.52675557136535644531e-01) (5, 5.20619034767150878906e-01) (6, -1.38784015178680419922e+00) (7, 4.26551723480224609375e+00) (8, -2.40491718053817749023e-01) (9, -5.64333081245422363281e-01) (10, 4.73091363906860351562e+00) (11, 4.50688648223876953125e+00) (12, 4.75484180450439453125e+00) (13, 6.13700985908508300781e-01) (14, 4.29416298866271972656e-01) (15, -5.60583710670471191406e-01) (16, 2.89001536369323730469e+00) (17, 8.66900730133056640625e+00) (18, 3.98261809349060058594e+00) (19, -1.14347231388092041016e+00) (20, 2.93684458732604980469e+00) (21, -4.54044342041015625000e-03) (22, 5.35151815414428710938e+00) (23, -1.17660152912139892578e+00) (24, 3.47714638710021972656e+00) (0, 1.50000000000000000000e+03) (1, -8.78034159541130065918e-03) (2, 1.09859742224216461182e-02) (3, 6.91331386566162109375e-01) (4, 2.89312928915023803711e-01) (5, 1.41572222113609313965e-01) (6, -6.96662712097167968750e+00) (7, 1.44136505126953125000e+01) (8, -6.34900283813476562500e+00) (9, -4.99258708953857421875e+00) (10, 1.38270606994628906250e+01) (11, 1.24460906982421875000e+01) (12, 1.31817455291748046875e+01) (13, -7.27796020507812500000e+01) (14, -1.64247913360595703125e+01) (15, -4.86672997474670410156e-01) (16, 1.51900005340576171875e+01) (17, 1.50000000000000000000e+03) (18, 1.48479080200195312500e+01) (19, -9.38992858886718750000e+02) (20, 1.38297519683837890625e+01) (21, -5.27312374114990234375e+00) (22, 1.24811553955078125000e+01) (23, -7.59908752441406250000e+02) (24, 1.39325695037841796875e+01) (25, -1.00532233715057373047e+00) (0, 5.82342863082885742188e+00) (1, 2.56404519081115722656e-01) (2, -1.33959066867828369141e+00) (3, -1.90940558910369873047e+00) (4, -8.81030261516571044922e-02) (5, -8.28114390373229980469e-01) (6, -4.94738674163818359375e+00) (7, 4.41435813903808593750e+00) (8, -1.24859464168548583984e+00) (9, -5.05497336387634277344e-01) (10, 3.77020955085754394531e+00) (11, 3.36042571067810058594e+00) (12, 4.42540168762207031250e+00) (13, -8.70422720909118652344e-01) (14, 7.33827710151672363281e-01) (15, 4.93393063545227050781e-01) (16, 5.30368900299072265625e+00) (17, 7.94936323165893554688e+00) (18, 3.42772126197814941406e+00) (19, -1.79921710491180419922e+00) (20, 5.32362365722656250000e+00) (21, 4.15323436260223388672e-01) (22, 4.34316587448120117188e+00) (23, -1.43634068965911865234e+00) (24, 3.64009881019592285156e+00) (25, 3.29434990882873535156e-01) (26, -1.31105196475982666016e+00) (0, 1.50000000000000000000e+03) (1, -2.03994140028953552246e-01) (2, 4.97597604990005493164e-01) (3, 9.95185598731040954590e-02) (4, -1.24921999871730804443e-01) (5, 2.23176613450050354004e-01) (6, -3.60022974014282226562e+00) (7, 6.46635150909423828125e+00) (8, -3.32297474145889282227e-01) (9, -1.73949778079986572266e+00) (10, 4.16853332519531250000e+00) (11, 5.41011667251586914062e+00) (12, 3.59510755538940429688e+00) (13, 3.92191827297210693359e-01) (14, -1.48408737182617187500e+01) (15, -7.71396636962890625000e-01) (16, 5.86226987838745117188e+00) (17, 1.50000000000000000000e+03) (18, 6.29699277877807617188e+00) (19, -1.01294744873046875000e+03) (20, 4.97840929031372070312e+00) (21, -3.04555454254150390625e+01) (22, 3.76176619529724121094e+00) (23, -2.18583316802978515625e+01) (24, 6.14385557174682617188e+00) (25, 6.14325478672981262207e-02) (26, 3.48577308654785156250e+01) (27, -3.77425201416015625000e+02) (0, 7.17676353454589843750e+00) (1, -8.14691662788391113281e-01) (2, 6.09788060188293457031e-01) (3, -5.00866770744323730469e-01) (4, -1.87483108043670654297e+00) (5, -1.16163408756256103516e+00) (6, -7.52770781517028808594e-01) (7, 3.46471953392028808594e+00) (8, -1.51752316951751708984e+00) (9, -6.99888110160827636719e-01) (10, 4.26800632476806640625e+00) (11, 3.21378636360168457031e+00) (12, 3.35835480690002441406e+00) (13, 2.82616913318634033203e-01) (14, -1.44164121150970458984e+00) (15, -1.40576350688934326172e+00) (16, 5.30735063552856445312e+00) (17, 8.19817733764648437500e+00) (18, 4.46108627319335937500e+00) (19, -1.55225843191146850586e-01) (20, 3.71553969383239746094e+00) (21, -1.84572637081146240234e+00) (22, 4.83341836929321289062e+00) (23, -4.82739299535751342773e-01) (24, 5.02743530273437500000e+00) (25, 6.24467492103576660156e-01) (26, 5.69733262062072753906e-01) (27, -1.46430051326751708984e+00) (28, -9.38642382621765136719e-01) (0, 1.50000000000000000000e+03) (1, 4.13844674825668334961e-01) (2, -3.10220271348953247070e-01) (3, -4.20998409390449523926e-02) (4, -2.00782179832458496094e-01) (5, 3.12762781977653503418e-02) (6, 4.81710433959960937500e+00) (7, 3.67021918296813964844e+00) (8, 2.64075565338134765625e+00) (9, 2.61148428916931152344e+00) (10, 1.24763739109039306641e+00) (11, 1.14728987216949462891e+00) (12, 1.11944615840911865234e+00) (13, 2.69154858589172363281e+00) (14, 4.80465364456176757812e+00) (15, 1.49398517608642578125e+00) (16, 1.39744818210601806641e+00) (17, 1.50000000000000000000e+03) (18, 3.74804615974426269531e+00) (19, 2.92475250244140625000e+02) (20, 3.18544220924377441406e+00) (21, -9.77047634124755859375e+00) (22, 1.92543351650238037109e+00) (23, 1.26340805053710937500e+02) (24, 2.61335396766662597656e+00) (25, 1.90600242614746093750e+01) (26, -1.10221042633056640625e+01) (27, 3.02797088623046875000e+02) (28, -2.10615730285644531250e+01) (29, 3.93188446044921875000e+02) (0, 7.19847011566162109375e+00) (1, 1.48412430286407470703e+00) (2, 1.12336313724517822266e+00) (3, -9.24084305763244628906e-01) (4, 1.26191914081573486328e+00) (5, -3.77309173345565795898e-01) (6, 1.57002604007720947266e+00) (7, 4.11205530166625976562e+00) (8, -9.38415646553039550781e-01) (9, 1.34180986881256103516e+00) (10, 2.10735130310058593750e+00) (11, 3.17880845069885253906e+00) (12, 2.08069515228271484375e+00) (13, 2.07592558860778808594e+00) (14, 1.28224718570709228516e+00) (15, -5.98919510841369628906e-01) (16, 2.56776428222656250000e+00) (17, 6.83854293823242187500e+00) (18, 3.68312287330627441406e+00) (19, 6.27492070198059082031e-01) (20, 2.90808844566345214844e+00) (21, 1.91513669490814208984e+00) (22, 2.56735563278198242188e+00) (23, 1.34605896472930908203e+00) (24, 3.19002032279968261719e+00) (25, 1.09209740161895751953e+00) (26, 1.57502520084381103516e+00) (27, 7.85239338874816894531e-01) (28, 6.96449458599090576172e-01) (29, -8.25770020484924316406e-01) (30, 2.96918034553527832031e+00) (0, 1.50000000000000000000e+03) (1, 1.81475818157196044922e+00) (2, -4.22474443912506103516e-01) (3, 1.87698319554328918457e-01) (4, -6.75407126545906066895e-02) (5, 9.23070073127746582031e-01) (6, -1.05651607513427734375e+01) (7, 1.93006515502929687500e+01) (8, -7.61328744888305664062e+00) (9, -8.25457382202148437500e+00) (10, 1.92404785156250000000e+01) (11, 1.78580436706542968750e+01) (12, 1.90034046173095703125e+01) (13, 2.55837559700012207031e-01) (14, 3.60107064247131347656e+00) (15, -1.83836040496826171875e+01) (16, 1.83240451812744140625e+01) (17, 1.50000000000000000000e+03) (18, 1.79519309997558593750e+01) (19, -1.30397598266601562500e+02) (20, 1.85748653411865234375e+01) (21, 1.02372121810913085938e+00) (22, 1.81141147613525390625e+01) (23, -5.17133216857910156250e+01) (24, 1.96414604187011718750e+01) (25, -8.55925941467285156250e+00) (26, 1.69925868511199951172e+00) (27, -1.28103866577148437500e+02) (28, 4.74049836397171020508e-01) (29, -5.24053726196289062500e+01) (30, 1.43302524089813232422e+00) (31, -1.03629803657531738281e+00) (0, 6.03491449356079101562e+00) (1, -1.15798103809356689453e+00) (2, -7.38178133964538574219e-01) (3, -4.59128230810165405273e-01) (4, -2.82212519645690917969e+00) (5, -5.89869916439056396484e-02) (6, -6.45601153373718261719e-01) (7, 5.43844175338745117188e+00) (8, -2.14870667457580566406e+00) (9, -2.26428008079528808594e+00) (10, 6.93568420410156250000e+00) (11, 6.16039085388183593750e+00) (12, 6.06060647964477539062e+00) (13, 1.02355253696441650391e+00) (14, -2.18541502952575683594e+00) (15, -2.43506765365600585938e+00) (16, 4.70722341537475585938e+00) (17, 7.49682378768920898438e+00) (18, 5.75339698791503906250e+00) (19, -2.29242920875549316406e+00) (20, 6.29112052917480468750e+00) (21, -3.04416513442993164062e+00) (22, 4.21763992309570312500e+00) (23, -3.00806760787963867188e-02) (24, 6.11964797973632812500e+00) (25, -7.49714970588684082031e-01) (26, 9.95799303054809570312e-02) (27, -1.88579165935516357422e+00) (28, 8.80790948867797851562e-02) (29, -4.86928129196166992188e+00) (30, 4.13980817794799804688e+00) (31, -1.90818154811859130859e+00) (32, -2.07668155431747436523e-01) (0, 1.50000000000000000000e+03) (1, 1.50000000000000000000e+03) (2, 1.50000000000000000000e+03) (3, 1.50000000000000000000e+03) (4, 1.50000000000000000000e+03) (5, 1.50000000000000000000e+03) (6, 2.35570549964904785156e+00) (7, 1.83436703681945800781e+00) (8, 3.98091459274291992188e+00) (9, 1.51323318481445312500e+00) (10, 1.22264075279235839844e+00) (11, 1.61351513862609863281e+00) (12, 1.89593815803527832031e+00) (13, 1.50000000000000000000e+03) (14, -1.50000000000000000000e+03) (15, -1.50000000000000000000e+03) (16, 2.96222209930419921875e+00) (17, 1.50000000000000000000e+03) (18, 3.33574962615966796875e+00) (19, -1.50000000000000000000e+03) (20, 2.37630033493041992188e+00) (21, 1.50000000000000000000e+03) (22, 2.88544034957885742188e+00) (23, -1.50000000000000000000e+03) (24, 1.51678347587585449219e+00) (25, 1.50000000000000000000e+03) (26, 1.50000000000000000000e+03) (27, -1.50000000000000000000e+03) (28, 1.50000000000000000000e+03) (29, -1.50000000000000000000e+03) (30, -1.50000000000000000000e+03) (31, 1.50000000000000000000e+03) (32, 1.50000000000000000000e+03) (33, 1.71976900100708007812e+00) (0, 7.94935131072998046875e+00) (1, 9.52909111976623535156e-01) (2, -7.86221146583557128906e-01) (3, -1.15263569355010986328e+00) (4, -1.59997785091400146484e+00) (5, 1.59514188766479492188e-01) (6, -1.77624833583831787109e+00) (7, 2.88035655021667480469e+00) (8, 6.22621655464172363281e-01) (9, 4.23219203948974609375e-02) (10, 5.24310207366943359375e+00) (11, 4.92650508880615234375e+00) (12, 5.46945524215698242188e+00) (13, 1.19999754428863525391e+00) (14, -1.34794843196868896484e+00) (15, 1.28774654865264892578e+00) (16, 5.41600370407104492188e+00) (17, 6.22321844100952148438e+00) (18, 4.46329879760742187500e+00) (19, 5.99441170692443847656e-01) (20, 4.53220367431640625000e+00) (21, 2.00608968734741210938e-01) (22, 5.64652585983276367188e+00) (23, -3.22872489690780639648e-01) (24, 3.73355317115783691406e+00) (25, -1.19895994663238525391e+00) (26, 9.65107083320617675781e-01) (27, 2.31475949287414550781e-01) (28, 1.14642870426177978516e+00) (29, -1.95226657390594482422e+00) (30, 3.42299246788024902344e+00) (31, -2.70988941192626953125e-02) (32, 9.88788723945617675781e-01) (33, 2.94508934020996093750e-02) (34, 8.08411240577697753906e-01) (0, 1.50000000000000000000e+03) (1, -5.65564393997192382812e-01) (2, 1.45649898052215576172e+00) (3, 7.10486590862274169922e-01) (4, 3.30101871490478515625e+00) (5, 1.76757180690765380859e+00) (6, -8.47013549804687500000e+01) (7, 1.06899536132812500000e+02) (8, -8.11532669067382812500e+01) (9, -7.83798751831054687500e+01) (10, 1.07377716064453125000e+02) (11, 1.07121635437011718750e+02) (12, 1.07423744201660156250e+02) (13, -2.92975845336914062500e+01) (14, -6.59884023666381835938e+00) (15, -1.39067640304565429688e+01) (16, 1.07347244262695312500e+02) (17, 1.50000000000000000000e+03) (18, 1.08229385375976562500e+02) (19, -1.14831115722656250000e+03) (20, 1.08460998535156250000e+02) (21, -2.70652587890625000000e+02) (22, 1.07338806152343750000e+02) (23, -1.14598168945312500000e+03) (24, 1.05746322631835937500e+02) (25, -3.08035850524902343750e+01) (26, 4.39282257080078125000e+02) (27, -1.01235437011718750000e+03) (28, 4.37594970703125000000e+02) (29, -1.36415307617187500000e+03) (30, -3.16768360137939453125e+01) (31, 2.38607540130615234375e+01) (32, 2.12343475341796875000e+02) (33, -8.05592727661132812500e+01) (34, -7.84068832397460937500e+01) (35, -1.91613113403320312500e+02) (0, 8.12941932678222656250e+00) (1, -1.17963612079620361328e+00) (2, -9.69739556312561035156e-01) (3, -4.24003928899765014648e-01) (4, -7.51046061515808105469e-01) (5, -2.79878449440002441406e+00) (6, -2.02712702751159667969e+00) (7, 4.37190151214599609375e+00) (8, 1.10718846321105957031e-01) (9, -2.82452464103698730469e+00) (10, 7.09959173202514648438e+00) (11, 7.01973676681518554688e+00) (12, 5.46474313735961914062e+00) (13, -2.46074604988098144531e+00) (14, -1.55871617794036865234e+00) (15, -3.90310615301132202148e-01) (16, 5.33219480514526367188e+00) (17, 5.99069929122924804688e+00) (18, 5.25615787506103515625e+00) (19, -1.07617723941802978516e+00) (20, 4.73070096969604492188e+00) (21, -2.19293951988220214844e+00) (22, 5.57822370529174804688e+00) (23, -2.92682099342346191406e+00) (24, 6.11128997802734375000e+00) (25, -1.47279393672943115234e+00) (26, -8.65903258323669433594e-01) (27, -3.56249183416366577148e-01) (28, -4.32659000158309936523e-01) (29, -1.88214719295501708984e+00) (30, 6.55328369140625000000e+00) (31, -1.46304070949554443359e+00) (32, -2.10417509078979492188e-02) (33, -1.54041230678558349609e+00) (34, -2.18650865554809570312e+00) (35, -1.07155168056488037109e+00) (36, -1.29845535755157470703e+00) (0, 1.50000000000000000000e+03) (1, 1.25430449843406677246e-01) (2, -4.31268453598022460938e-01) (3, -1.42782434821128845215e-01) (4, 9.99828755855560302734e-01) (5, -7.22108125686645507812e-01) (6, 6.82666778564453125000e+00) (7, -2.39250636100769042969e+00) (8, 1.16276407241821289062e+01) (9, 1.08606920242309570312e+01) (10, -8.01265656948089599609e-01) (11, -2.70149302482604980469e+00) (12, -1.61465966701507568359e+00) (13, 4.68895626068115234375e+00) (14, 8.65739345550537109375e+00) (15, 1.44484014511108398438e+01) (16, -6.56948328018188476562e-01) (17, 1.50000000000000000000e+03) (18, -1.37070977687835693359e+00) (19, 5.26972198486328125000e+01) (20, -3.25287222862243652344e+00) (21, 1.99522380828857421875e+01) (22, -3.47695374488830566406e+00) (23, 4.86920509338378906250e+01) (24, -1.89906740188598632812e+00) (25, 1.24283885955810546875e+00) (26, 2.02980756759643554688e+00) (27, 5.01526947021484375000e+01) (28, 1.92314791679382324219e+00) (29, 1.13573242187500000000e+02) (30, 4.55131053924560546875e+00) (31, 1.45925736427307128906e+00) (32, -5.41064882278442382812e+00) (33, 1.07137928009033203125e+01) (34, 1.03965063095092773438e+01) (35, 1.09750518798828125000e+01) (36, -1.90538879394531250000e+02) (37, 1.13282661437988281250e+01) (0, 8.38145828247070312500e+00) (1, 7.66969919204711914062e-02) (2, 4.72009718418121337891e-01) (3, -5.53853869438171386719e-01) (4, 2.73741781711578369141e-01) (5, 6.36126458644866943359e-01) (6, -3.39370274543762207031e+00) (7, 1.95447552204132080078e+00) (8, -1.99191659688949584961e-01) (9, -1.24918788671493530273e-01) (10, 2.21606588363647460938e+00) (11, 4.43922996520996093750e+00) (12, 3.53641152381896972656e+00) (13, 1.07271838188171386719e+00) (14, 1.87132894992828369141e+00) (15, -5.66098570823669433594e-01) (16, 2.46758222579956054688e+00) (17, 6.49630880355834960938e+00) (18, 1.97435963153839111328e+00) (19, -1.95783942937850952148e-01) (20, 3.38280797004699707031e+00) (21, -7.48148918151855468750e-01) (22, 2.57528924942016601562e+00) (23, -9.22477245330810546875e-03) (24, 4.24202251434326171875e+00) (25, -2.57803767919540405273e-01) (26, -6.37889504432678222656e-01) (27, 1.54875051975250244141e+00) (28, 7.09247291088104248047e-01) (29, -5.88685393333435058594e-01) (30, 2.86133050918579101562e+00) (31, -1.04082196950912475586e-01) (32, 5.98994553089141845703e-01) (33, 1.70637857913970947266e+00) (34, 4.53046858310699462891e-01) (35, 1.98371946811676025391e+00) (36, 7.82953500747680664062e-02) (37, 9.99283790588378906250e-01) (38, 1.67398512363433837891e+00) (0, 1.50000000000000000000e+03) (1, 7.29931175708770751953e-01) (2, -8.05934429168701171875e-01) (3, 2.11488172411918640137e-01) (4, 2.58572578430175781250e-01) (5, 2.84251384437084197998e-03) (6, -7.57583761215209960938e+00) (7, 1.88547763824462890625e+01) (8, -7.09030342102050781250e+00) (9, -8.56026458740234375000e+00) (10, 2.04193859100341796875e+01) (11, 2.03041553497314453125e+01) (12, 2.00648231506347656250e+01) (13, -1.20478340148925781250e+02) (14, -3.62621498107910156250e+00) (15, -6.87671432495117187500e+01) (16, 2.06366329193115234375e+01) (17, 1.50000000000000000000e+03) (18, 1.79756927490234375000e+01) (19, -1.50000000000000000000e+03) (20, 1.84380168914794921875e+01) (21, -5.29914016723632812500e+01) (22, 1.81639194488525390625e+01) (23, -2.18397560119628906250e+01) (24, 2.00925903320312500000e+01) (25, -3.19729881286621093750e+01) (26, 5.68094825744628906250e+00) (27, -1.50000000000000000000e+03) (28, 7.54755353927612304688e+00) (29, 2.28381919860839843750e+01) (30, 3.85313677787780761719e+00) (31, -2.30222366333007812500e+02) (32, 1.06924302875995635986e-01) (33, -7.51659250259399414062e+00) (34, -8.18235969543457031250e+00) (35, -9.69154834747314453125e+00) (36, 3.52533569335937500000e+02) (37, -8.54077339172363281250e+00) (38, -2.35493347167968750000e+02) (39, -3.35485763549804687500e+01) (0, 8.71060943603515625000e+00) (1, -1.24083292484283447266e+00) (2, 9.14353579282760620117e-02) (3, -1.55967757105827331543e-01) (4, 1.01637148857116699219e+00) (5, -5.99832892417907714844e-01) (6, -2.25456953048706054688e+00) (7, 3.21796751022338867188e+00) (8, -1.12582910060882568359e+00) (9, 9.23878550529479980469e-01) (10, 5.28232812881469726562e+00) (11, 2.64574241638183593750e+00) (12, 2.68091154098510742188e+00) (13, 7.64210343360900878906e-01) (14, 8.23742985725402832031e-01) (15, 8.53447079658508300781e-01) (16, 2.41271281242370605469e+00) (17, 6.38146305084228515625e+00) (18, 2.72416901588439941406e+00) (19, 6.10835552215576171875e-01) (20, 4.91229724884033203125e+00) (21, -1.13557302951812744141e+00) (22, 5.00787448883056640625e+00) (23, -3.02748143672943115234e-01) (24, 2.99228429794311523438e+00) (25, 2.58262932300567626953e-01) (26, 1.45504057407379150391e+00) (27, -1.37099409103393554688e+00) (28, 2.04196286201477050781e+00) (29, 1.63728678226470947266e+00) (30, 2.43314218521118164062e+00) (31, -3.04041814804077148438e+00) (32, 1.65110886096954345703e+00) (33, 5.41820287704467773438e-01) (34, -7.85247445106506347656e-01) (35, 5.13679265975952148438e-01) (36, 1.19664156436920166016e+00) (37, 4.19022977352142333984e-01) (38, 4.98630046844482421875e+00) (39, 1.32546722888946533203e+00) (40, -8.10899615287780761719e-01) (0, 1.50000000000000000000e+03) (1, -1.58367678523063659668e-01) (2, 3.09832245111465454102e-01) (3, 1.12039558589458465576e-01) (4, -3.36505383253097534180e-01) (5, 4.75142747163772583008e-02) (6, -1.86202926635742187500e+01) (7, 2.93364601135253906250e+01) (8, -1.83980407714843750000e+01) (9, -1.92889404296875000000e+01) (10, 3.21399536132812500000e+01) (11, 2.94378471374511718750e+01) (12, 3.19468536376953125000e+01) (13, -3.50588369369506835938e+00) (14, -6.59244918823242187500e+00) (15, -3.91682548522949218750e+01) (16, 2.96384506225585937500e+01) (17, 1.50000000000000000000e+03) (18, 3.21945419311523437500e+01) (19, -2.20850234985351562500e+02) (20, 3.18864707946777343750e+01) (21, -3.38574600219726562500e+01) (22, 3.25403251647949218750e+01) (23, -9.30937271118164062500e+01) (24, 3.20458145141601562500e+01) (25, -5.27008914947509765625e+00) (26, 7.80787038803100585938e+00) (27, -1.91100860595703125000e+02) (28, 1.76172180175781250000e+01) (29, -7.03973754882812500000e+02) (30, 5.25480699539184570312e+00) (31, -3.36001068353652954102e-01) (32, 4.06607437133789062500e+00) (33, -1.87286834716796875000e+01) (34, -1.85875205993652343750e+01) (35, -3.71330871582031250000e+01) (36, 4.58608886718750000000e+02) (37, -1.97089920043945312500e+01) (38, -2.96558166503906250000e+02) (39, -3.17256808280944824219e+00) (40, 1.97449172973632812500e+02) (41, -1.56036100387573242188e+01) (0, 8.01685142517089843750e+00) (1, 6.45314276218414306641e-01) (2, 2.71712601184844970703e-01) (3, -9.79811787605285644531e-01) (4, 6.28806531429290771484e-01) (5, -2.96948760747909545898e-01) (6, 7.71588861942291259766e-01) (7, 4.50322341918945312500e+00) (8, 1.72461235523223876953e+00) (9, 1.81733369827270507812e-02) (10, 3.74376273155212402344e+00) (11, 1.98283493518829345703e+00) (12, 3.80412888526916503906e+00) (13, -1.87415397167205810547e+00) (14, 1.07628464698791503906e-01) (15, 1.51567995548248291016e-01) (16, 2.70380449295043945312e+00) (17, 8.10313034057617187500e+00) (18, 4.42750549316406250000e+00) (19, -7.16490149497985839844e-01) (20, 2.60630178451538085938e+00) (21, 1.16342186927795410156e+00) (22, 4.90319490432739257812e+00) (23, -2.22559303045272827148e-01) (24, 5.03985404968261718750e+00) (25, -1.13781583309173583984e+00) (26, -1.03998172283172607422e+00) (27, -1.94661319255828857422e+00) (28, 2.22738528251647949219e+00) (29, -1.72812855243682861328e+00) (30, 2.22303104400634765625e+00) (31, 1.07308864593505859375e-01) (32, -2.19127744436264038086e-01) (33, 8.67782175540924072266e-01) (34, 1.11564314365386962891e+00) (35, 1.52066195011138916016e+00) (36, 1.68181622028350830078e+00) (37, 3.36844265460968017578e-01) (38, 3.69469809532165527344e+00) (39, 2.00078725814819335938e-01) (40, 1.46600067615509033203e+00) (41, -1.24377763271331787109e+00) (42, 1.43311464786529541016e+00) (0, 1.50000000000000000000e+03) (1, 1.50000000000000000000e+03) (2, 1.50000000000000000000e+03) (3, 4.08127009868621826172e-01) (4, 1.79148241877555847168e-01) (5, -6.88133016228675842285e-02) (6, -2.02042102813720703125e+00) (7, 4.95685291290283203125e+00) (8, 1.39676177501678466797e+00) (9, 5.40071129798889160156e-01) (10, 5.38556909561157226562e+00) (11, 4.62038230895996093750e+00) (12, 4.07504606246948242188e+00) (13, -4.75669765472412109375e+00) (14, 1.54616284370422363281e+00) (15, -2.13804745674133300781e+00) (16, 3.35022592544555664062e+00) (17, 1.50000000000000000000e+03) (18, 4.69312286376953125000e+00) (19, 1.37483203411102294922e+00) (20, 6.31558704376220703125e+00) (21, 2.17457652091979980469e+00) (22, 5.03761625289916992188e+00) (23, 1.53456771373748779297e+00) (24, 4.46673011779785156250e+00) (25, -1.82844662666320800781e+00) (26, 1.54584169387817382812e+00) (27, -3.34543973207473754883e-01) (28, 1.68550801277160644531e+00) (29, -1.49417864158749580383e-02) (30, 5.39805507659912109375e+00) (31, 4.02625769376754760742e-01) (32, -1.09806041717529296875e+01) (33, -1.48290145397186279297e+00) (34, -1.55863749980926513672e+00) (35, 1.13958895206451416016e+00) (36, 5.62800598144531250000e+00) (37, 7.98441693186759948730e-02) (38, -7.53924026489257812500e+01) (39, -1.21887087821960449219e+00) (40, 6.86126422882080078125e+00) (41, 6.66753232479095458984e-01) (42, 1.34052228927612304688e+01) (43, -1.55339211225509643555e-01) (0, 6.89881324768066406250e+00) (1, 2.51319050788879394531e-01) (2, 7.98378586769104003906e-01) (3, -1.55905282497406005859e+00) (4, -1.91254705190658569336e-01) (5, 9.19005990028381347656e-01) (6, 1.14630901813507080078e+00) (7, 5.72400999069213867188e+00) (8, -5.28005957603454589844e-01) (9, 4.72873806953430175781e-01) (10, 5.84635114669799804688e+00) (11, 4.43912506103515625000e+00) (12, 3.10781359672546386719e+00) (13, -1.39787942171096801758e-02) (14, -1.28407871723175048828e+00) (15, 8.64456772804260253906e-01) (16, 2.78656792640686035156e+00) (17, 6.78513288497924804688e+00) (18, 5.04014396667480468750e+00) (19, 1.92376852035522460938e-01) (20, 5.69294977188110351562e+00) (21, -7.46825814247131347656e-01) (22, 3.72737812995910644531e+00) (23, -1.84699571132659912109e+00) (24, 5.61122512817382812500e+00) (25, 7.36081719398498535156e-01) (26, 1.06747496128082275391e+00) (27, 9.00454640388488769531e-01) (28, 9.73835110664367675781e-01) (29, 5.91675400733947753906e-01) (30, 5.33818435668945312500e+00) (31, -2.47002863883972167969e+00) (32, -6.39346480369567871094e-01) (33, 5.87553977966308593750e-02) (34, -9.88339781761169433594e-01) (35, 1.15754520893096923828e+00) (36, -5.04579424858093261719e-01) (37, -1.15635573863983154297e+00) (38, 5.39921426773071289062e+00) (39, 9.55561280250549316406e-01) (40, 1.30466425418853759766e+00) (41, -4.80304569005966186523e-01) (42, -6.83121085166931152344e-01) (43, -1.63643431663513183594e+00) (44, -1.54113852977752685547e+00) (0, 1.50000000000000000000e+03) (1, -7.91829586029052734375e-01) (2, 8.88311326503753662109e-01) (3, -5.46543151140213012695e-02) (4, 2.90387034416198730469e-01) (5, -4.69925515353679656982e-02) (6, -2.89395070075988769531e+00) (7, 6.90544605255126953125e+00) (8, 5.87688565254211425781e-01) (9, -6.92282557487487792969e-01) (10, 5.85179615020751953125e+00) (11, 6.50698184967041015625e+00) (12, 4.34657669067382812500e+00) (13, -8.41918869018554687500e+01) (14, 1.10038530826568603516e+00) (15, -2.62000007629394531250e+01) (16, 7.45384407043457031250e+00) (17, 1.50000000000000000000e+03) (18, 5.49912738800048828125e+00) (19, -1.29669287109375000000e+03) (20, 6.61629867553710937500e+00) (21, 7.53108644485473632812e+00) (22, 5.81494522094726562500e+00) (23, -6.37441205978393554688e+00) (24, 5.61908149719238281250e+00) (25, -2.58819408416748046875e+01) (26, 2.19933223724365234375e+00) (27, -1.50000000000000000000e+03) (28, 4.13293480873107910156e-01) (29, -5.29729766845703125000e+01) (30, 4.62824773788452148438e+00) (31, -1.95311492919921875000e+02) (32, 6.94449138641357421875e+00) (33, -4.73394840955734252930e-01) (34, -3.88170294463634490967e-02) (35, -1.57113477587699890137e-01) (36, 7.81624374389648437500e+01) (37, 1.24806487560272216797e+00) (38, -2.14341934204101562500e+02) (39, -6.03804397583007812500e+01) (40, 7.86849746704101562500e+01) (41, -2.40583190917968750000e+02) (42, 7.59948806762695312500e+01) (43, -1.43182189941406250000e+02) (44, 3.28436636924743652344e+00) (45, -8.39053511619567871094e-01) (0, 7.46602296829223632812e+00) (1, -9.08384025096893310547e-02) (2, 1.00918686389923095703e+00) (3, -4.60244506597518920898e-01) (4, 1.53845071792602539062e-01) (5, 2.70408272743225097656e-01) (6, 2.78981924057006835938e-02) (7, 2.55615091323852539062e+00) (8, -9.24826502799987792969e-01) (9, 3.72793257236480712891e-01) (10, 4.98003196716308593750e+00) (11, 4.31883287429809570312e+00) (12, 1.87729799747467041016e+00) (13, 1.13493883609771728516e+00) (14, 1.31488955020904541016e+00) (15, -1.11919969320297241211e-01) (16, 3.35932183265686035156e+00) (17, 8.31857109069824218750e+00) (18, 4.77182197570800781250e+00) (19, -3.19305986166000366211e-01) (20, 2.57553625106811523438e+00) (21, -6.88760876655578613281e-01) (22, 3.30090975761413574219e+00) (23, -9.70835328102111816406e-01) (24, 2.78683805465698242188e+00) (25, 5.30149936676025390625e-02) (26, 9.24713373184204101562e-01) (27, -1.55020415782928466797e+00) (28, 6.25835657119750976562e-02) (29, 6.68021976947784423828e-01) (30, 4.41539525985717773438e+00) (31, 8.31849217414855957031e-01) (32, -9.34205174446105957031e-01) (33, 1.17524874210357666016e+00) (34, -2.62620776891708374023e-01) (35, 1.20778572559356689453e+00) (36, -6.57313764095306396484e-02) (37, 2.05658745765686035156e+00) (38, 4.87491989135742187500e+00) (39, -7.56737589836120605469e-01) (40, 4.08290624618530273438e-02) (41, 1.11334812641143798828e+00) (42, -6.87238335609436035156e-01) (43, 2.91165769100189208984e-01) (44, 1.61406099796295166016e+00) (45, 8.61471772193908691406e-01) (46, 2.16739201545715332031e+00) (0, 1.50000000000000000000e+03) (1, 1.52498674392700195312e+00) (2, 1.35903269052505493164e-01) (3, 2.14899212121963500977e-01) (4, 1.22616291046142578125e+00) (5, 2.46255233883857727051e-01) (6, -1.85852737426757812500e+01) (7, 2.45358772277832031250e+01) (8, -1.32986555099487304688e+01) (9, -1.38290376663208007812e+01) (10, 2.42579650878906250000e+01) (11, 2.56541519165039062500e+01) (12, 2.70370750427246093750e+01) (13, -2.17322902679443359375e+01) (14, -1.03922996520996093750e+01) (15, -1.34380407333374023438e+01) (16, 2.56887245178222656250e+01) (17, 1.50000000000000000000e+03) (18, 2.72509078979492187500e+01) (19, -5.91810607910156250000e+01) (20, 2.44622077941894531250e+01) (21, 4.10339164733886718750e+00) (22, 2.67280311584472656250e+01) (23, -3.78185348510742187500e+01) (24, 2.46359176635742187500e+01) (25, -9.10363769531250000000e+00) (26, 1.13743357360363006592e-01) (27, -1.29925933837890625000e+02) (28, 4.74946403503417968750e+00) (29, -1.29676681518554687500e+02) (30, 1.03391289710998535156e+00) (31, -6.78080368041992187500e+01) (32, 7.66945743560791015625e+00) (33, -1.38808374404907226562e+01) (34, -1.29056978225708007812e+01) (35, -3.80260009765625000000e+01) (36, 4.45406227111816406250e+01) (37, -1.27664079666137695312e+01) (38, -9.42568817138671875000e+01) (39, -2.79394054412841796875e+01) (40, 1.88997764587402343750e+01) (41, -1.64702358245849609375e+01) (42, 2.17794303894042968750e+01) (43, -1.30752639770507812500e+02) (44, 5.36444604396820068359e-01) (45, 2.39632368087768554688e+00) (46, 1.88450736999511718750e+01) (47, 6.10875189304351806641e-01) (0, 8.39559364318847656250e+00) (1, -2.86450624465942382812e-01) (2, 1.02361214160919189453e+00) (3, -1.22811570763587951660e-01) (4, 5.57952523231506347656e-01) (5, -1.26537787914276123047e+00) (6, 2.11108312010765075684e-01) (7, 5.12454795837402343750e+00) (8, 3.90409111976623535156e-01) (9, -1.82783752679824829102e-02) (10, 5.26373434066772460938e+00) (11, 4.00758361816406250000e+00) (12, 4.92391109466552734375e+00) (13, -1.66876077651977539062e+00) (14, -1.36730408668518066406e+00) (15, -5.14528751373291015625e-01) (16, 4.61381912231445312500e+00) (17, 6.68765640258789062500e+00) (18, 4.73912572860717773438e+00) (19, -1.11660671234130859375e+00) (20, 6.28660678863525390625e+00) (21, -1.37424755096435546875e+00) (22, 4.24696445465087890625e+00) (23, -6.59245610237121582031e-01) (24, 6.09215736389160156250e+00) (25, -8.01193475723266601562e-01) (26, -1.07883548736572265625e+00) (27, 1.21824073791503906250e+00) (28, -1.48306623101234436035e-01) (29, -3.69262933731079101562e-01) (30, 4.30852890014648437500e+00) (31, -1.09973144531250000000e+00) (32, -1.97621703147888183594e+00) (33, -1.22776937484741210938e+00) (34, 9.84377980232238769531e-01) (35, 5.69881558418273925781e-01) (36, -5.05001187324523925781e-01) (37, 4.29680466651916503906e-01) (38, 4.37392616271972656250e+00) (39, -1.43509531021118164062e+00) (40, -9.09101366996765136719e-01) (41, -2.16165661811828613281e+00) (42, -4.59997653961181640625e-01) (43, 9.82323765754699707031e-01) (44, -1.62349629402160644531e+00) (45, -4.54201549291610717773e-01) (46, -8.52708339691162109375e-01) (47, -4.21631485223770141602e-02) (48, 1.24768066406250000000e+00) (0, 1.50000000000000000000e+03) (1, 1.06813657283782958984e+00) (2, -1.86383381485939025879e-01) (3, -6.79264545440673828125e-01) (4, -1.05344146490097045898e-01) (5, 7.94373750686645507812e-02) (6, -2.88140940666198730469e+00) (7, 2.99247717857360839844e+00) (8, 1.27603399753570556641e+00) (9, 2.39813542366027832031e+00) (10, 2.34740233421325683594e+00) (11, 1.65074050426483154297e+00) (12, 3.39162468910217285156e+00) (13, 1.99094581604003906250e+00) (14, 2.64402866363525390625e-01) (15, 8.12351799011230468750e+00) (16, 4.30907058715820312500e+00) (17, 1.50000000000000000000e+03) (18, 2.59336876869201660156e+00) (19, 3.12097311019897460938e-01) (20, 3.02453923225402832031e+00) (21, -1.95554149150848388672e+00) (22, 2.91486859321594238281e+00) (23, 6.57624661922454833984e-01) (24, 2.45860648155212402344e+00) (25, -1.42073392868041992188e-01) (26, -5.77111005783081054688e-01) (27, 4.10071372985839843750e+00) (28, -8.81746232509613037109e-01) (29, 4.76748752593994140625e+00) (30, 2.08272480964660644531e+00) (31, 2.13317942619323730469e+00) (32, 2.35257740020751953125e+01) (33, 1.93533480167388916016e+00) (34, 2.03979089856147766113e-01) (35, 3.08182644844055175781e+00) (36, -1.35894897460937500000e+02) (37, 4.64420974254608154297e-01) (38, 4.64261932373046875000e+01) (39, 3.20420026779174804688e-01) (40, -6.17199611663818359375e+00) (41, 4.10021209716796875000e+00) (42, -2.57253861427307128906e+00) (43, 1.98980391025543212891e+00) (44, 4.42623138427734375000e-01) (45, -1.10542523860931396484e+00) (46, -3.74645161628723144531e+00) (47, -4.13191461563110351562e+00) (48, -1.20863890647888183594e+00) (49, 9.11479415893554687500e+01) (0, 8.28282737731933593750e+00) (1, 4.18658375740051269531e-01) (2, -1.72200858592987060547e+00) (3, -6.38759732246398925781e-01) (4, 1.42560589313507080078e+00) (5, -8.25045704841613769531e-01) (6, -3.02850097417831420898e-01) (7, 1.95917880535125732422e+00) (8, 2.24734783172607421875e+00) (9, 3.19867908954620361328e-01) (10, 2.91411185264587402344e+00) (11, 4.05770349502563476562e+00) (12, 2.51122403144836425781e+00) (13, -5.55860233306884765625e+00) (14, 3.76283705234527587891e-01) (15, -8.72489571571350097656e-01) (16, 1.86766612529754638672e+00) (17, 8.02712440490722656250e+00) (18, 3.45783066749572753906e+00) (19, -2.60550111532211303711e-01) (20, 8.52341771125793457031e-01) (21, -2.52776288986206054688e+00) (22, 9.70488667488098144531e-01) (23, 9.49590802192687988281e-01) (24, 1.88057792186737060547e+00) (25, 6.45757734775543212891e-01) (26, 1.61868488788604736328e+00) (27, -4.71227496862411499023e-01) (28, 5.04993796348571777344e-01) (29, 2.98819923400878906250e+00) (30, 3.71506714820861816406e+00) (31, 1.36009371280670166016e+00) (32, 1.84075057506561279297e+00) (33, 2.79119491577148437500e+00) (34, -1.13803714513778686523e-01) (35, 8.23086380958557128906e-01) (36, 4.00041818618774414062e-01) (37, 1.70190477371215820312e+00) (38, 3.16227936744689941406e+00) (39, 2.29643464088439941406e+00) (40, 2.40178680419921875000e+00) (41, 1.13127255439758300781e+00) (42, 2.72085762023925781250e+00) (43, 3.09634387493133544922e-01) (44, 7.83123731613159179688e-01) (45, -2.73782610893249511719e+00) (46, 7.87255048751831054688e-01) (47, 2.32661843299865722656e-01) (48, 2.13043117523193359375e+00) (49, 4.89977121353149414062e-01) (50, 3.88123726844787597656e+00) (0, 1.50000000000000000000e+03) (1, 2.72714406251907348633e-01) (2, 4.31726366281509399414e-01) (3, 7.83333420753479003906e-01) (4, 5.20461797714233398438e-01) (5, 3.52581262588500976562e+00) (6, -2.31714706420898437500e+01) (7, 2.99838104248046875000e+01) (8, -2.01816387176513671875e+01) (9, -2.08452110290527343750e+01) (10, 3.11905174255371093750e+01) (11, 3.22847938537597656250e+01) (12, 3.02560920715332031250e+01) (13, -8.74408996582031250000e+02) (14, -1.83482711791992187500e+02) (15, -7.24353713989257812500e+01) (16, 3.00304756164550781250e+01) (17, 1.50000000000000000000e+03) (18, 2.92261886596679687500e+01) (19, -1.50000000000000000000e+03) (20, 3.05725097656250000000e+01) (21, -9.36789184570312500000e+02) (22, 3.17670326232910156250e+01) (23, -1.50000000000000000000e+03) (24, 3.02041320800781250000e+01) (25, -1.60675796508789062500e+02) (26, 2.21453592181205749512e-01) (27, -1.50000000000000000000e+03) (28, 3.71864271163940429688e+00) (29, -1.50000000000000000000e+03) (30, 8.39225196838378906250e+00) (31, 1.96907546997070312500e+02) (32, 2.18754806518554687500e+01) (33, -2.23462562561035156250e+01) (34, -2.02679786682128906250e+01) (35, -1.06858016967773437500e+02) (36, 2.10477428436279296875e+01) (37, -2.23719673156738281250e+01) (38, -2.80612354278564453125e+01) (39, -2.05051895141601562500e+02) (40, 2.01986999511718750000e+01) (41, -1.50000000000000000000e+03) (42, 1.95548267364501953125e+01) (43, -1.50000000000000000000e+03) (44, 4.72385287284851074219e-01) (45, -7.89764709472656250000e+01) (46, 2.02320156097412109375e+01) (47, 1.02802406311035156250e+02) (48, 1.90811157226562500000e+01) (49, 8.23670959472656250000e+01) (50, 2.40040588378906250000e+01) (51, -7.14036621093750000000e+02) (0, 8.15700817108154296875e+00) (1, -1.86781561374664306641e+00) (2, -2.85669159889221191406e+00) (3, -5.31508803367614746094e-01) (4, -6.12932085990905761719e-01) (5, -2.97425597906112670898e-01) (6, -5.79755783081054687500e+00) (7, 6.75944089889526367188e+00) (8, -2.25951045751571655273e-01) (9, 2.26349472999572753906e-01) (10, 5.52598524093627929688e+00) (11, 4.91955280303955078125e+00) (12, 4.59428644180297851562e+00) (13, -2.89521789550781250000e+00) (14, 4.20198559761047363281e-01) (15, 4.40030217170715332031e-01) (16, 6.54647827148437500000e+00) (17, 8.26713371276855468750e+00) (18, 4.65091037750244140625e+00) (19, 2.27288365364074707031e-01) (20, 5.75402021408081054688e+00) (21, 3.50683331489562988281e-01) (22, 5.66025876998901367188e+00) (23, -1.17303264141082763672e+00) (24, 4.68058776855468750000e+00) (25, -2.48282170295715332031e+00) (26, -1.22811138629913330078e+00) (27, -3.61761379241943359375e+00) (28, -3.64669561386108398438e-02) (29, -3.52318310737609863281e+00) (30, 3.92930054664611816406e+00) (31, -1.27915990352630615234e+00) (32, -1.45864665508270263672e+00) (33, -2.71114182472229003906e+00) (34, -2.35003352165222167969e+00) (35, -2.61094307899475097656e+00) (36, 3.21742296218872070312e-02) (37, -1.93838822841644287109e+00) (38, 7.18923997879028320312e+00) (39, -7.33141303062438964844e-01) (40, -2.25140309333801269531e+00) (41, -4.25197792053222656250e+00) (42, 4.02660965919494628906e-01) (43, -4.21971988677978515625e+00) (44, -2.12885499000549316406e+00) (45, -2.49535846710205078125e+00) (46, -1.54020226001739501953e+00) (47, -2.94623446464538574219e+00) (48, -8.49072813987731933594e-01) (49, 3.79552960395812988281e-01) (50, 7.14628839492797851562e+00) (51, -2.45891022682189941406e+00) (52, -1.91431963443756103516e+00) (0, 1.50000000000000000000e+03) (1, 5.09218871593475341797e-02) (2, -2.79451191425323486328e-01) (3, 6.66448548436164855957e-02) (4, 2.86961734294891357422e-01) (5, -5.39759211242198944092e-02) (6, -2.02976303100585937500e+01) (7, 2.32439079284667968750e+01) (8, -1.53505964279174804688e+01) (9, -1.66755104064941406250e+01) (10, 2.25124950408935546875e+01) (11, 2.05719947814941406250e+01) (12, 2.13233718872070312500e+01) (13, -9.50618286132812500000e+01) (14, -4.15506706237792968750e+01) (15, -8.04375152587890625000e+01) (16, 2.27493076324462890625e+01) (17, 1.50000000000000000000e+03) (18, 2.32501583099365234375e+01) (19, -4.63860412597656250000e+02) (20, 2.17054271697998046875e+01) (21, 2.17298507690429687500e+00) (22, 2.17657337188720703125e+01) (23, -2.28574478149414062500e+02) (24, 2.11339378356933593750e+01) (25, -1.26327295303344726562e+01) (26, -5.33448636531829833984e-01) (27, -2.29749633789062500000e+02) (28, 1.18504464626312255859e+00) (29, -2.28024139404296875000e+02) (30, 5.58851957321166992188e+00) (31, -1.54964536428451538086e-01) (32, 2.55677175521850585938e+00) (33, -1.70498428344726562500e+01) (34, -1.72381248474121093750e+01) (35, -4.13186073303222656250e+01) (36, 1.03208360671997070312e+01) (37, -1.64100589752197265625e+01) (38, -3.04483079910278320312e+00) (39, -1.08889951705932617188e+01) (40, 7.17350578308105468750e+00) (41, -2.43411468505859375000e+02) (42, 1.03560304641723632812e+01) (43, -6.75830764770507812500e+01) (44, -2.84125477075576782227e-01) (45, -8.14425563812255859375e+00) (46, 9.80197143554687500000e+00) (47, 4.26780509948730468750e+01) (48, 9.56969547271728515625e+00) (49, -2.32021188735961914062e+00) (50, 6.62441015243530273438e+00) (51, -9.74236373901367187500e+01) (52, 6.81225402832031250000e+02) (53, -2.29103744506835937500e+02) (0, 8.47243022918701171875e+00) (1, -7.82904744148254394531e-01) (2, -3.09551805257797241211e-01) (3, -4.20892328023910522461e-01) (4, -3.55011224746704101562e-02) (5, -8.21736752986907958984e-02) (6, 6.43258631229400634766e-01) (7, 1.97414314746856689453e+00) (8, -6.59639477729797363281e-01) (9, 1.65041601657867431641e+00) (10, 1.87208855152130126953e+00) (11, 4.74599504470825195312e+00) (12, 4.46848821640014648438e+00) (13, -4.54838562011718750000e+00) (14, -4.84884589910507202148e-01) (15, -9.17620778083801269531e-01) (16, 4.40463972091674804688e+00) (17, 6.53650999069213867188e+00) (18, 3.23245882987976074219e+00) (19, -1.03508281707763671875e+00) (20, 2.74480295181274414062e+00) (21, 2.88228106498718261719e+00) (22, 3.52067685127258300781e+00) (23, 1.57827341556549072266e+00) (24, 3.14637446403503417969e+00) (25, 1.34265482425689697266e+00) (26, 6.11282587051391601562e-02) (27, -2.31581020355224609375e+00) (28, 2.03133320808410644531e+00) (29, -1.69608628749847412109e+00) (30, 4.75574398040771484375e+00) (31, 1.07911086082458496094e+00) (32, -4.90844577550888061523e-01) (33, -7.85827755928039550781e-01) (34, 1.76920139789581298828e+00) (35, 5.84637582302093505859e-01) (36, 2.42981493473052978516e-01) (37, 8.43793213367462158203e-01) (38, 3.66976380348205566406e+00) (39, 6.94324791431427001953e-01) (40, 1.33633613586425781250e-04) (41, 1.90791547298431396484e+00) (42, 2.08300054073333740234e-01) (43, 1.08432912826538085938e+00) (44, 2.44815540313720703125e+00) (45, -4.27644252777099609375e-02) (46, -5.70035815238952636719e-01) (47, 1.62077486515045166016e+00) (48, 1.55131399631500244141e+00) (49, 2.88318920135498046875e+00) (50, 1.96677744388580322266e+00) (51, -9.35903668403625488281e-01) (52, 9.14387226104736328125e-01) (53, 1.12254822254180908203e+00) (54, 1.75335276126861572266e+00) (0, 1.50000000000000000000e+03) (1, -1.06536793708801269531e+00) (2, 1.38483631610870361328e+00) (3, -4.45207506418228149414e-02) (4, 3.39165478944778442383e-01) (5, -7.41956830024719238281e-02) (6, -2.99597620964050292969e+00) (7, 6.78460884094238281250e+00) (8, -2.16309353709220886230e-02) (9, -9.31600034236907958984e-01) (10, 6.27951526641845703125e+00) (11, 7.18536281585693359375e+00) (12, 7.92950820922851562500e+00) (13, -1.14119946956634521484e+00) (14, -4.48027133941650390625e-01) (15, -1.32703912258148193359e+00) (16, 8.19584083557128906250e+00) (17, 1.50000000000000000000e+03) (18, 6.47874927520751953125e+00) (19, -3.38311100006103515625e+00) (20, 8.05648517608642578125e+00) (21, 2.71872449666261672974e-02) (22, 5.74224376678466796875e+00) (23, -1.35536122322082519531e+00) (24, 5.75054168701171875000e+00) (25, 1.61914378404617309570e-01) (26, -6.68752133846282958984e-01) (27, -1.17270779609680175781e+00) (28, 5.48678278923034667969e-01) (29, -3.49841666221618652344e+00) (30, 5.75241136550903320312e+00) (31, 8.62190425395965576172e-01) (32, 3.36966562271118164062e+00) (33, -1.15767788887023925781e+00) (34, 5.93066871166229248047e-01) (35, -1.55951261520385742188e+00) (36, 2.75335001945495605469e+00) (37, -1.28872060775756835938e+00) (38, 3.67166376113891601562e+00) (39, 1.59896403551101684570e-01) (40, 3.03845524787902832031e+00) (41, -2.30145621299743652344e+00) (42, 7.95606493949890136719e-01) (43, -5.10601580142974853516e-01) (44, 2.18407845497131347656e+00) (45, 3.30511778593063354492e-01) (46, 2.33971223235130310059e-01) (47, 2.58494663238525390625e+00) (48, 1.65826749801635742188e+00) (49, -8.76339435577392578125e+00) (50, 7.48045444488525390625e+00) (51, -6.35484099388122558594e-01) (52, 1.03756637573242187500e+02) (53, -3.18066358566284179688e+00) (54, 2.27186355590820312500e+01) (55, -7.25141465663909912109e-01) (0, 6.38349437713623046875e+00) (1, -4.24969047307968139648e-01) (2, -1.32594764232635498047e+00) (3, -2.45405554771423339844e+00) (4, -2.98010373115539550781e+00) (5, -1.03522312641143798828e+00) (6, 3.32919406890869140625e+00) (7, 2.33983731269836425781e+00) (8, 6.09037935733795166016e-01) (9, 5.76128840446472167969e-01) (10, 4.67848390340805053711e-01) (11, 3.68473744392395019531e+00) (12, 8.17676186561584472656e-01) (13, 1.70776760578155517578e+00) (14, 6.72824323177337646484e-01) (15, 2.06516265869140625000e+00) (16, 1.98681962490081787109e+00) (17, 6.39990282058715820312e+00) (18, 2.07857632637023925781e+00) (19, 2.68615388870239257812e+00) (20, 1.82203382253646850586e-01) (21, 2.15319418907165527344e+00) (22, 3.34720396995544433594e+00) (23, 8.35852682590484619141e-01) (24, 2.35496354103088378906e+00) (25, 3.43610858917236328125e+00) (26, 4.60137128829956054688e-01) (27, -7.47526288032531738281e-01) (28, 6.35349214076995849609e-01) (29, 3.07769775390625000000e+00) (30, 1.60929906368255615234e+00) (31, -1.40861123800277709961e-01) (32, 2.67343568801879882812e+00) (33, 2.37143301963806152344e+00) (34, 1.78593468666076660156e+00) (35, 2.73407411575317382812e+00) (36, 3.32435607910156250000e+00) (37, 1.52138066291809082031e+00) (38, 1.21560871601104736328e+00) (39, 3.70426702499389648438e+00) (40, 1.86838257312774658203e+00) (41, -4.39452028274536132812e+00) (42, 3.63063669204711914062e+00) (43, 2.55686759948730468750e+00) (44, 3.39289522171020507812e+00) (45, -2.82471013069152832031e+00) (46, 1.37286818027496337891e+00) (47, 2.12896490097045898438e+00) (48, 1.02546656131744384766e+00) (49, 5.23844957351684570312e-02) (50, 3.49263042211532592773e-01) (51, 1.07847869396209716797e+00) (52, 1.10952723026275634766e+00) (53, 3.66721153259277343750e+00) (54, 1.68520426750183105469e+00) (55, 3.33529949188232421875e+00) (56, 3.24501705169677734375e+00) (0, 1.50000000000000000000e+03) (1, -1.93774652481079101562e+00) (2, 2.37277722358703613281e+00) (3, 1.49628091603517532349e-02) (4, 6.44181430339813232422e-01) (5, 2.32907235622406005859e-01) (6, -2.69203662872314453125e+01) (7, 4.04860115051269531250e+01) (8, -2.45211048126220703125e+01) (9, -2.69334964752197265625e+01) (10, 4.31850624084472656250e+01) (11, 4.05239601135253906250e+01) (12, 4.25715370178222656250e+01) (13, -1.82921081542968750000e+02) (14, -6.62603302001953125000e+01) (15, -2.45244426727294921875e+01) (16, 4.31363868713378906250e+01) (17, 1.50000000000000000000e+03) (18, 3.98626365661621093750e+01) (19, -4.04488342285156250000e+02) (20, 4.10587654113769531250e+01) (21, -1.20213012695312500000e+01) (22, 4.01458015441894531250e+01) (23, -2.33748397827148437500e+02) (24, 4.18655357360839843750e+01) (25, -3.35078454017639160156e+00) (26, -2.26847559213638305664e-01) (27, -4.06882659912109375000e+02) (28, 1.39563786983489990234e+00) (29, -4.04312286376953125000e+02) (30, 3.68771815299987792969e+00) (31, -5.41614675521850585938e+00) (32, 2.44701337814331054688e+00) (33, -2.48110790252685546875e+01) (34, -2.73163280487060546875e+01) (35, -2.67815685272216796875e+01) (36, 7.30584144592285156250e-01) (37, -2.48947563171386718750e+01) (38, 4.24478244781494140625e+00) (39, -3.91979718208312988281e+00) (40, -1.69812664389610290527e-01) (41, -5.36684513092041015625e-01) (42, 1.58948421478271484375e+00) (43, -9.09023857116699218750e+00) (44, -3.52895903587341308594e+00) (45, 1.66531848907470703125e+00) (46, -9.07615661621093750000e-01) (47, -5.94900369644165039062e-01) (48, 1.49197626113891601562e+00) (49, -1.72375488281250000000e+02) (50, 7.78770637512207031250e+00) (51, -4.07150146484375000000e+02) (52, 5.16330505371093750000e+02) (53, -2.37246414184570312500e+02) (54, 5.14759094238281250000e+02) (55, -2.36988967895507812500e+02) (56, 9.66553649902343750000e+01) (57, -2.65348072052001953125e+01) (0, 6.69013643264770507812e+00) (1, -1.41278588771820068359e+00) (2, -1.65967810153961181641e+00) (3, 5.10789632797241210938e-01) (4, -4.38419669866561889648e-01) (5, 2.83794045448303222656e-01) (6, -6.00367021560668945312e+00) (7, 6.99750566482543945312e+00) (8, -3.11771243810653686523e-01) (9, -2.84389567375183105469e+00) (10, 5.81254053115844726562e+00) (11, 4.86639308929443359375e+00) (12, 7.36183881759643554688e+00) (13, -4.25928735733032226562e+00) (14, -5.86901545524597167969e-01) (15, 2.45630741119384765625e-03) (16, 4.27033376693725585938e+00) (17, 6.62795543670654296875e+00) (18, 4.35145473480224609375e+00) (19, -2.87867474555969238281e+00) (20, 3.85207867622375488281e+00) (21, -9.59193587303161621094e-01) (22, 5.44247722625732421875e+00) (23, -2.79224705696105957031e+00) (24, 6.31874179840087890625e+00) (25, -2.83267283439636230469e+00) (26, -4.56549018621444702148e-01) (27, -5.45280265808105468750e+00) (28, -2.43447631597518920898e-01) (29, -1.75577533245086669922e+00) (30, 4.45913457870483398438e+00) (31, -3.02542328834533691406e+00) (32, -1.27819389104843139648e-01) (33, -9.84294295310974121094e-01) (34, 5.26108026504516601562e-01) (35, -1.17801463603973388672e+00) (36, -1.31227576732635498047e+00) (37, -2.78161501884460449219e+00) (38, 5.20771551132202148438e+00) (39, -2.23582243919372558594e+00) (40, -2.58476901054382324219e+00) (41, -2.36683988571166992188e+00) (42, -1.15318071842193603516e+00) (43, -2.65919804573059082031e+00) (44, -1.68019807338714599609e+00) (45, -2.35185766220092773438e+00) (46, 3.83999943733215332031e-01) (47, -1.19361531734466552734e+00) (48, -1.54349720478057861328e+00) (49, -5.47966623306274414062e+00) (50, 5.79294443130493164062e+00) (51, -1.47516906261444091797e+00) (52, -1.67186105251312255859e+00) (53, -3.02533936500549316406e+00) (54, -1.22667443752288818359e+00) (55, -2.78938746452331542969e+00) (56, -2.81727004051208496094e+00) (57, -2.29499888420104980469e+00) (58, -2.42259573936462402344e+00) (0, 1.50000000000000000000e+03) (1, 8.99793133139610290527e-02) (2, -3.75941634178161621094e-01) (3, 4.77043867111206054688e-01) (4, -9.89995241165161132812e-01) (5, 6.07224106788635253906e-01) (6, -1.45414009094238281250e+01) (7, 1.91027431488037109375e+01) (8, -9.47632408142089843750e+00) (9, -1.00649738311767578125e+01) (10, 1.96815738677978515625e+01) (11, 1.82742176055908203125e+01) (12, 2.02102451324462890625e+01) (13, 4.92897605895996093750e+01) (14, -5.57730140686035156250e+01) (15, -3.93696403503417968750e+01) (16, 2.05828876495361328125e+01) (17, 1.50000000000000000000e+03) (18, 2.01354045867919921875e+01) (19, -6.53805847167968750000e+01) (20, 1.80928859710693359375e+01) (21, -1.05406455993652343750e+02) (22, 1.82884998321533203125e+01) (23, -6.05302009582519531250e+01) (24, 1.99036922454833984375e+01) (25, -1.27724599838256835938e+01) (26, 6.42030477523803710938e-01) (27, -1.50000000000000000000e+03) (28, -3.83253037929534912109e-01) (29, -1.50000000000000000000e+03) (30, 4.37180042266845703125e+00) (31, -3.20464859008789062500e+01) (32, 3.43669533729553222656e-01) (33, -9.92519760131835937500e+00) (34, -1.01258125305175781250e+01) (35, -1.01593093872070312500e+01) (36, -2.42335498332977294922e-02) (37, -9.72371673583984375000e+00) (38, 3.97405481338500976562e+00) (39, -1.76245784759521484375e+01) (40, 3.41940307617187500000e+00) (41, -7.10113477706909179688e+00) (42, 2.37800431251525878906e+00) (43, 1.90761398315429687500e+02) (44, -1.82230556011199951172e+00) (45, -1.03242149353027343750e+01) (46, 2.90733742713928222656e+00) (47, 2.64719176292419433594e+00) (48, 3.31627821922302246094e+00) (49, -3.24794708251953125000e+02) (50, 3.74678158760070800781e+00) (51, -9.80932712554931640625e+00) (52, 9.46974258422851562500e+01) (53, -2.75968551635742187500e+01) (54, 2.00272293090820312500e+02) (55, -9.72312355041503906250e+00) (56, 2.48833637237548828125e+01) (57, -8.44880676269531250000e+00) (58, 2.01932449340820312500e+02) (59, -2.06101654052734375000e+02) (0, 6.03926515579223632812e+00) (1, -1.30781412124633789062e+00) (2, 4.21126008033752441406e-01) (3, -5.49240112304687500000e-01) (4, -2.03298822045326232910e-01) (5, 5.29192566871643066406e-01) (6, -3.92744088172912597656e+00) (7, 3.45977663993835449219e+00) (8, -4.92044210433959960938e-01) (9, -5.13897180557250976562e-01) (10, 5.68941354751586914062e+00) (11, 3.15677714347839355469e+00) (12, 5.32713699340820312500e+00) (13, -3.62768173217773437500e+00) (14, -1.09197020530700683594e+00) (15, -2.18170881271362304688e+00) (16, 4.80787706375122070312e+00) (17, 7.20426130294799804688e+00) (18, 5.94450473785400390625e+00) (19, 1.00910580158233642578e+00) (20, 4.55462551116943359375e+00) (21, -2.19092512130737304688e+00) (22, 6.56961631774902343750e+00) (23, 1.93940266966819763184e-01) (24, 3.53219532966613769531e+00) (25, 1.29795312881469726562e+00) (26, -1.66059541702270507812e+00) (27, 2.93590188026428222656e-01) (28, -8.08872222900390625000e-01) (29, -2.42598786950111389160e-01) (30, 3.18211388587951660156e+00) (31, -5.89201807975769042969e-01) (32, 6.56508088111877441406e-01) (33, 5.70753693580627441406e-01) (34, 1.06847906112670898438e+00) (35, -1.01500582695007324219e+00) (36, -3.68269085884094238281e-01) (37, -1.62934875488281250000e+00) (38, 4.65169095993041992188e+00) (39, 1.34660792350769042969e+00) (40, 6.36750310659408569336e-02) (41, -2.43974447250366210938e+00) (42, -2.20423769950866699219e+00) (43, -2.47466516494750976562e+00) (44, 5.85989117622375488281e-01) (45, -1.08928680419921875000e+00) (46, -1.29159760475158691406e+00) (47, -1.31375551223754882812e+00) (48, 2.95379281044006347656e-01) (49, -5.66738843917846679688e+00) (50, 3.46654200553894042969e+00) (51, -1.85761713981628417969e+00) (52, -1.51242136955261230469e+00) (53, -1.91087126731872558594e+00) (54, 5.43244481086730957031e-01) (55, -1.01271247863769531250e+00) (56, -2.08113312721252441406e+00) (57, 1.08957004547119140625e+00) (58, -1.35351681709289550781e+00) (59, -2.78001999855041503906e+00) (60, -6.21244192123413085938e-01) (0, 1.50000000000000000000e+03) (1, 2.78820917010307312012e-02) (2, -4.04691249132156372070e-01) (3, 3.00035506486892700195e-01) (4, -4.52787607908248901367e-01) (5, 3.56705456972122192383e-01) (6, -2.86442828178405761719e+00) (7, 9.94452285766601562500e+00) (8, -3.31039500236511230469e+00) (9, -2.78968691825866699219e+00) (10, 8.39229774475097656250e+00) (11, 8.54520606994628906250e+00) (12, 8.36550521850585937500e+00) (13, 2.28079948425292968750e+01) (14, -3.38033943176269531250e+01) (15, -3.77159614562988281250e+01) (16, 9.21196746826171875000e+00) (17, 1.50000000000000000000e+03) (18, 9.15350532531738281250e+00) (19, -4.80116081237792968750e+01) (20, 8.09491825103759765625e+00) (21, -6.38711891174316406250e+01) (22, 7.31317281723022460938e+00) (23, -9.45612812042236328125e+00) (24, 9.66189575195312500000e+00) (25, -1.75643777847290039062e+00) (26, -1.39310777187347412109e+00) (27, -6.44310546875000000000e+02) (28, -7.32319772243499755859e-01) (29, -1.50000000000000000000e+03) (30, 6.64039278030395507812e+00) (31, -6.25625610351562500000e+01) (32, -1.00018918514251708984e-01) (33, -3.85711312294006347656e+00) (34, -3.19343638420104980469e+00) (35, -5.87696027755737304688e+00) (36, 7.58316397666931152344e-01) (37, -6.91779136657714843750e-01) (38, 6.53680372238159179688e+00) (39, -2.75548315048217773438e+00) (40, -8.73983263969421386719e-01) (41, 4.31776847839355468750e+01) (42, 8.45293700695037841797e-02) (43, 1.81929016113281250000e+02) (44, 7.04747319221496582031e-01) (45, 7.16761589050292968750e+00) (46, 7.81481206417083740234e-01) (47, 7.89854526519775390625e+00) (48, 1.54644691944122314453e+00) (49, -1.23753540039062500000e+02) (50, 6.20324850082397460938e+00) (51, -4.23179244995117187500e+00) (52, 5.76110229492187500000e+01) (53, -4.03823547363281250000e+01) (54, 5.62762985229492187500e+01) (55, -4.69341802597045898438e+00) (56, 2.21912250518798828125e+01) (57, -2.70824599266052246094e+00) (58, 1.39675643920898437500e+02) (59, -1.88296951293945312500e+02) (60, 5.65876312255859375000e+01) (61, -2.59807224273681640625e+01) (0, 7.32928657531738281250e+00) (1, -2.22257184982299804688e+00) (2, -5.84696173667907714844e-01) (3, -1.34079599380493164062e+00) (4, 9.04370784759521484375e-01) (5, -3.43349170684814453125e+00) (6, -2.78087997436523437500e+00) (7, 3.30635190010070800781e+00) (8, 1.54316627979278564453e+00) (9, 7.64391243457794189453e-01) (10, 2.72009134292602539062e+00) (11, 3.04477286338806152344e+00) (12, 4.91198062896728515625e+00) (13, -4.80442851781845092773e-01) (14, -4.16678518056869506836e-01) (15, 1.24685299396514892578e+00) (16, 5.14165019989013671875e+00) (17, 7.45152950286865234375e+00) (18, 4.02281951904296875000e+00) (19, 1.52243721485137939453e+00) (20, 1.70685732364654541016e+00) (21, -5.75432538986206054688e+00) (22, 4.24158620834350585938e+00) (23, 2.47727632522583007812e-02) (24, 1.83194649219512939453e+00) (25, -9.75664556026458740234e-02) (26, 9.43864405155181884766e-01) (27, -1.72999083995819091797e+00) (28, 7.06548869609832763672e-01) (29, -4.58852857351303100586e-01) (30, 3.54402709007263183594e+00) (31, 2.21624112129211425781e+00) (32, 3.18253457546234130859e-01) (33, 2.20953249931335449219e+00) (34, -5.73435425758361816406e-01) (35, 2.33360743522644042969e+00) (36, 8.98555278778076171875e-01) (37, 4.40155923366546630859e-01) (38, 3.05386328697204589844e+00) (39, -1.44374698400497436523e-01) (40, 2.31553053855895996094e+00) (41, -3.29956245422363281250e+00) (42, 1.27343666553497314453e+00) (43, 1.90347015857696533203e+00) (44, 2.03958916664123535156e+00) (45, -2.74086952209472656250e+00) (46, 1.44138920307159423828e+00) (47, 9.80035424232482910156e-01) (48, -9.74031388759613037109e-02) (49, -7.36994624137878417969e-01) (50, 4.40864706039428710938e+00) (51, -1.75074338912963867188e-02) (52, 2.05437719821929931641e-01) (53, 5.88247597217559814453e-01) (54, 1.11824810504913330078e+00) (55, 4.10422623157501220703e-01) (56, 1.60166418552398681641e+00) (57, -5.23983359336853027344e-01) (58, 6.68577849864959716797e-01) (59, -1.15504610538482666016e+00) (60, 1.28147125244140625000e-01) (61, -2.12296772003173828125e+00) (62, -6.47738575935363769531e-01) (0, 1.50000000000000000000e+03) (1, 1.04926669597625732422e+00) (2, -6.80252909660339355469e-01) (3, 4.06096577644348144531e-02) (4, -4.42619919776916503906e-01) (5, 3.84110867977142333984e-01) (6, -9.35069465637207031250e+00) (7, 1.14511146545410156250e+01) (8, -6.70529079437255859375e+00) (9, -5.35229587554931640625e+00) (10, 1.06483983993530273438e+01) (11, 1.10390777587890625000e+01) (12, 1.09096899032592773438e+01) (13, -3.67578216552734375000e+02) (14, -1.17019863128662109375e+01) (15, -7.03102645874023437500e+01) (16, 8.78505229949951171875e+00) (17, 1.50000000000000000000e+03) (18, 9.03063488006591796875e+00) (19, -6.88688659667968750000e+01) (20, 1.07266187667846679688e+01) (21, -6.79828491210937500000e+01) (22, 8.70471572875976562500e+00) (23, -3.01650352478027343750e+01) (24, 1.16043338775634765625e+01) (25, -1.08964042663574218750e+01) (26, -6.03501558303833007812e-01) (27, -3.67346038818359375000e+02) (28, 1.85499048233032226562e+00) (29, -3.66255584716796875000e+02) (30, 6.21524238586425781250e+00) (31, -2.17585144042968750000e+01) (32, 1.16047668457031250000e+00) (33, -6.43341064453125000000e+00) (34, -4.37616777420043945312e+00) (35, -1.19512405395507812500e+01) (36, 3.99809569120407104492e-01) (37, -3.77661323547363281250e+00) (38, 4.72654581069946289062e+00) (39, -1.05573539733886718750e+01) (40, -8.07130336761474609375e-01) (41, -1.37682914733886718750e+01) (42, -3.82693618535995483398e-01) (43, -1.57696533203125000000e+02) (44, -1.47927618026733398438e+00) (45, 2.81344652175903320312e+00) (46, -2.20980897545814514160e-01) (47, 5.83943009376525878906e-01) (48, -1.09663617610931396484e+00) (49, -2.69200164794921875000e+02) (50, 6.98429203033447265625e+00) (51, -2.83969345092773437500e+01) (52, 1.67746490478515625000e+02) (53, -2.80003547668457031250e+01) (54, 1.67958160400390625000e+02) (55, -3.12500877380371093750e+01) (56, 2.38092975616455078125e+01) (57, -4.67920446395874023438e+00) (58, 1.68419586181640625000e+02) (59, -7.03154144287109375000e+01) (60, 1.67629791259765625000e+02) (61, -7.42228927612304687500e+01) (62, 1.69120239257812500000e+02) (63, -4.79171419143676757812e+00) (0, 9.37243652343750000000e+00) (1, -1.50269687175750732422e+00) (2, -4.15379136800765991211e-01) (3, -1.72874724864959716797e+00) (4, -1.80170267820358276367e-01) (5, -2.51863569021224975586e-01) (6, -5.68345487117767333984e-02) (7, 3.80259823799133300781e+00) (8, 1.74322426319122314453e+00) (9, 4.81416404247283935547e-01) (10, 2.52691316604614257812e+00) (11, 2.99534296989440917969e+00) (12, 2.29745912551879882812e+00) (13, 1.56889927387237548828e+00) (14, 9.01456832885742187500e-01) (15, 1.48051464557647705078e+00) (16, 4.84025382995605468750e+00) (17, 6.39925813674926757812e+00) (18, 3.11195969581604003906e+00) (19, 8.54775011539459228516e-01) (20, 3.15273594856262207031e+00) (21, -2.91004228591918945312e+00) (22, 1.97157537937164306641e+00) (23, 7.32595860958099365234e-01) (24, 2.27558422088623046875e+00) (25, 4.53425586223602294922e-01) (26, 9.38736200332641601562e-02) (27, -1.46329367160797119141e+00) (28, 9.68240499496459960938e-01) (29, 2.22685027122497558594e+00) (30, 3.63024544715881347656e+00) (31, 8.02691519260406494141e-01) (32, -8.88791918754577636719e-01) (33, 2.46506834030151367188e+00) (34, 1.06209015846252441406e+00) (35, 9.19183731079101562500e-01) (36, 4.82960522174835205078e-01) (37, -2.70030587911605834961e-01) (38, 2.11437559127807617188e+00) (39, -3.81222337484359741211e-01) (40, 1.32236921787261962891e+00) (41, 2.76382744312286376953e-01) (42, 9.87159490585327148438e-01) (43, -2.71574449539184570312e+00) (44, -7.62125134468078613281e-01) (45, -7.18790650367736816406e-01) (46, 1.74313747882843017578e+00) (47, 2.45116758346557617188e+00) (48, -1.39126867055892944336e-01) (49, -5.19886589050292968750e+00) (50, 3.43647933006286621094e+00) (51, 1.38664782047271728516e+00) (52, 2.41929793357849121094e+00) (53, 1.04314875602722167969e+00) (54, -4.88163322210311889648e-01) (55, -6.50469422340393066406e-01) (56, -1.11083257198333740234e+00) (57, 7.16693222522735595703e-01) (58, -1.25617116689682006836e-01) (59, -3.74022006988525390625e+00) (60, 4.53435122966766357422e-01) (61, -2.83094406127929687500e+00) (62, -8.36324334144592285156e-01) (63, 6.75626456737518310547e-01) (64, 1.73532783985137939453e+00) (0, 1.50000000000000000000e+03) (1, 1.50000000000000000000e+03) (2, 1.50000000000000000000e+03) (3, 5.50998687744140625000e-01) (4, -1.11822932958602905273e-01) (5, 9.36432853341102600098e-02) (6, 3.84327560663223266602e-01) (7, 7.06294536590576171875e+00) (8, 1.36609435081481933594e+00) (9, -2.87150174379348754883e-01) (10, 6.53476715087890625000e+00) (11, 4.95256042480468750000e+00) (12, 4.91085147857666015625e+00) (13, -1.34316444396972656250e-01) (14, -2.41007328033447265625e+00) (15, 7.68356800079345703125e-01) (16, 7.47953128814697265625e+00) (17, 1.50000000000000000000e+03) (18, 4.95814704895019531250e+00) (19, 9.80884552001953125000e-01) (20, 6.29723501205444335938e+00) (21, -5.90413987636566162109e-01) (22, 6.60943794250488281250e+00) (23, -1.43871498107910156250e+00) (24, 6.50610494613647460938e+00) (25, -6.61758780479431152344e-01) (26, -2.48301696777343750000e+00) (27, -6.88612759113311767578e-01) (28, -1.88625442981719970703e+00) (29, -1.20153188705444335938e+00) (30, 1.12056217193603515625e+01) (31, -1.27623629570007324219e+00) (32, -7.71530531346797943115e-03) (33, 1.24418067932128906250e+00) (34, 5.82546219229698181152e-02) (35, 1.05604970455169677734e+00) (36, 2.65542745590209960938e-01) (37, -4.95274156332015991211e-01) (38, -1.54681304931640625000e+02) (39, -8.46328616142272949219e-01) (40, 2.58344697952270507812e+00) (41, -4.02563124895095825195e-01) (42, 1.67442619800567626953e+00) (43, -1.15874028205871582031e+00) (44, 1.99010284423828125000e+02) (45, 2.08320116996765136719e+00) (46, -1.24323582649230957031e+00) (47, -1.34251081943511962891e+00) (48, -1.28211665153503417969e+00) (49, -1.02447974681854248047e+00) (50, 7.17330455780029296875e+00) (51, 3.29784542322158813477e-01) (52, 1.71539306640625000000e+00) (53, 2.22698733210563659668e-01) (54, 2.49953031539916992188e+00) (55, -5.11708915233612060547e-01) (56, -8.28387439250946044922e-01) (57, 8.77444267272949218750e-01) (58, 2.40799593925476074219e+00) (59, -1.32172727584838867188e+00) (60, -4.01394039392471313477e-01) (61, 1.59497833251953125000e+00) (62, 4.60934489965438842773e-01) (63, -8.43605548143386840820e-02) (64, 2.36022686958312988281e+00) (65, 1.05079686641693115234e+00) (0, 8.71769428253173828125e+00) (1, -1.64458024501800537109e+00) (2, -1.92347419261932373047e+00) (3, -1.97764718532562255859e+00) (4, -3.40936034917831420898e-01) (5, -2.59487557411193847656e+00) (6, -1.76292026042938232422e+00) (7, 2.93049359321594238281e+00) (8, 1.16377639770507812500e+00) (9, 2.33815813064575195312e+00) (10, 2.96666646003723144531e+00) (11, 5.07262825965881347656e-01) (12, 2.03054451942443847656e+00) (13, 2.84536361694335937500e+00) (14, 2.87616968154907226562e+00) (15, 2.86735296249389648438e-02) (16, 2.40914225578308105469e+00) (17, 7.66321182250976562500e+00) (18, 2.54761815071105957031e+00) (19, 3.15805006027221679688e+00) (20, 2.65754652023315429688e+00) (21, -3.61807727813720703125e+00) (22, 1.97224009037017822266e+00) (23, 2.02162671089172363281e+00) (24, 9.51548695564270019531e-01) (25, 3.12734186649322509766e-01) (26, 3.23583698272705078125e+00) (27, 6.55578851699829101562e-01) (28, 2.12493443489074707031e+00) (29, 3.15192079544067382812e+00) (30, 6.82404398918151855469e-01) (31, 6.74785137176513671875e-01) (32, 3.01357328891754150391e-01) (33, 8.47012341022491455078e-01) (34, 1.29442524909973144531e+00) (35, 1.94856774806976318359e+00) (36, 1.29287827014923095703e+00) (37, 2.16795563697814941406e+00) (38, 9.10827279090881347656e-01) (39, 1.61838686466217041016e+00) (40, 5.37879109382629394531e-01) (41, 5.78369379043579101562e-01) (42, 2.60559940338134765625e+00) (43, -3.60948944091796875000e+00) (44, 3.33450794219970703125e+00) (45, 1.73424661159515380859e-01) (46, 3.57888889312744140625e+00) (47, 1.26621019840240478516e+00) (48, 3.35715198516845703125e+00) (49, -3.79051351547241210938e+00) (50, 1.57437241077423095703e+00) (51, 2.14639973640441894531e+00) (52, 7.20617473125457763672e-01) (53, 3.51735687255859375000e+00) (54, 3.93890023231506347656e+00) (55, 1.54297459125518798828e+00) (56, 4.70997333526611328125e-01) (57, 3.20650243759155273438e+00) (58, 2.57856750488281250000e+00) (59, 2.87442255020141601562e+00) (60, 1.88257157802581787109e+00) (61, 3.13178062438964843750e+00) (62, 3.42160415649414062500e+00) (63, 1.95480227470397949219e+00) (64, 3.74966621398925781250e+00) (65, 7.47795283794403076172e-01) (66, 3.67424345016479492188e+00) (0, 1.50000000000000000000e+03) (1, 5.12854156494140625000e+01) (2, 5.18171386718750000000e+01) (3, 3.54279365539550781250e+01) (4, 1.33644866943359375000e+02) (5, 2.35276794433593750000e+01) (6, -9.88462707519531250000e+02) (7, 1.32644860839843750000e+03) (8, -9.84095031738281250000e+02) (9, -9.84501342773437500000e+02) (10, 1.32567456054687500000e+03) (11, 1.32520251464843750000e+03) (12, 1.32817089843750000000e+03) (13, -1.25545048713684082031e+00) (14, -1.50000000000000000000e+03) (15, -1.50000000000000000000e+03) (16, 1.32679260253906250000e+03) (17, 1.50000000000000000000e+03) (18, 1.32547094726562500000e+03) (19, -1.50000000000000000000e+03) (20, 1.32620336914062500000e+03) (21, -1.50000000000000000000e+03) (22, 1.32620507812500000000e+03) (23, -1.50000000000000000000e+03) (24, 1.32558911132812500000e+03) (25, 5.48175048828125000000e+02) (26, -5.20666084289550781250e+01) (27, -1.50000000000000000000e+03) (28, -2.08289775848388671875e+01) (29, -1.50000000000000000000e+03) (30, 4.13127555847167968750e+01) (31, 7.33814941406250000000e+02) (32, 2.28825729370117187500e+02) (33, -9.85993469238281250000e+02) (34, -9.83711120605468750000e+02) (35, -9.84188415527343750000e+02) (36, 7.49678710937500000000e+02) (37, -9.86215881347656250000e+02) (38, -6.10302307128906250000e+02) (39, 5.00451385498046875000e+02) (40, 1.64400085449218750000e+02) (41, -3.22029590606689453125e+00) (42, 1.55639007568359375000e+02) (43, -1.50000000000000000000e+03) (44, -9.83807678222656250000e+02) (45, 1.41256201171875000000e+03) (46, 6.55522613525390625000e+01) (47, 2.90191925048828125000e+02) (48, 6.33278732299804687500e+01) (49, -1.50000000000000000000e+03) (50, 2.99759735107421875000e+02) (51, -1.50000000000000000000e+03) (52, 1.50000000000000000000e+03) (53, -1.50000000000000000000e+03) (54, 1.50000000000000000000e+03) (55, -1.50000000000000000000e+03) (56, 1.50000000000000000000e+03) (57, -9.84599670410156250000e+02) (58, 1.50000000000000000000e+03) (59, -1.50000000000000000000e+03) (60, 1.50000000000000000000e+03) (61, -1.14335501194000244141e+00) (62, 1.50000000000000000000e+03) (63, -9.86575561523437500000e+02) (64, 1.50000000000000000000e+03) (65, -9.85878356933593750000e+02) (66, -5.11627929687500000000e+02) (67, -9.86244628906250000000e+02) (0, 8.41925811767578125000e+00) (1, -3.93404096364974975586e-01) (2, 1.51548779010772705078e+00) (3, -1.39007103443145751953e+00) (4, 3.54100346565246582031e-01) (5, -1.28032958507537841797e+00) (6, -3.45241236686706542969e+00) (7, 5.94948530197143554688e+00) (8, 4.14047241210937500000e-02) (9, -1.58786046504974365234e+00) (10, 4.46366500854492187500e+00) (11, 6.04722785949707031250e+00) (12, 4.30868577957153320312e+00) (13, -1.34221780300140380859e+00) (14, -7.53632187843322753906e-01) (15, -1.71222180128097534180e-01) (16, 5.18216037750244140625e+00) (17, 9.46173763275146484375e+00) (18, 4.09445714950561523438e+00) (19, 5.63262104988098144531e-01) (20, 2.84060788154602050781e+00) (21, -1.41644752025604248047e+00) (22, 5.83048105239868164062e+00) (23, -1.57478320598602294922e+00) (24, 4.23553466796875000000e+00) (25, 4.02821660041809082031e-01) (26, -9.91755843162536621094e-01) (27, -1.42661368846893310547e+00) (28, -4.40249770879745483398e-01) (29, -4.02092599868774414062e+00) (30, 3.08526682853698730469e+00) (31, -1.59985291957855224609e+00) (32, 1.40526401996612548828e+00) (33, -1.76583182811737060547e+00) (34, -1.00177752971649169922e+00) (35, -1.17552280426025390625e-02) (36, -1.05801522731781005859e+00) (37, 1.45722150802612304688e-01) (38, 4.16661024093627929688e+00) (39, 9.71535325050354003906e-01) (40, 5.46008229255676269531e-01) (41, 1.42748749256134033203e+00) (42, 6.52176022529602050781e-01) (43, -1.51189315319061279297e+00) (44, -1.68585050106048583984e+00) (45, -1.87257659435272216797e+00) (46, 3.05030941963195800781e-01) (47, 8.88989567756652832031e-01) (48, 1.76956582069396972656e+00) (49, -1.69741427898406982422e+00) (50, 4.27659797668457031250e+00) (51, -1.75641286373138427734e+00) (52, -1.39539992809295654297e+00) (53, -8.54974389076232910156e-01) (54, -1.34304988384246826172e+00) (55, 2.32813954353332519531e-01) (56, 1.53599369525909423828e+00) (57, -3.46659988164901733398e-01) (58, 7.94346451759338378906e-01) (59, -6.75376057624816894531e-01) (60, 1.45200836658477783203e+00) (61, 1.27229321002960205078e+00) (62, -2.87082999944686889648e-01) (63, 1.08615267276763916016e+00) (64, 1.49460756778717041016e+00) (65, 6.99285626411437988281e-01) (66, -6.96722865104675292969e-01) (67, -1.33452785015106201172e+00) (68, -9.26112055778503417969e-01) (0, 1.50000000000000000000e+03) (1, -3.18771868944168090820e-01) (2, 1.50289125740528106689e-02) (3, 5.69885037839412689209e-02) (4, 6.00008308887481689453e-01) (5, -1.80360972881317138672e-01) (6, -9.66430664062500000000e+00) (7, 1.40852184295654296875e+01) (8, -6.43970441818237304688e+00) (9, -7.96367645263671875000e+00) (10, 1.54853858947753906250e+01) (11, 1.25874938964843750000e+01) (12, 1.29385890960693359375e+01) (13, -3.46455841064453125000e+01) (14, -3.66196727752685546875e+00) (15, -1.60695781707763671875e+01) (16, 1.32204055786132812500e+01) (17, 1.50000000000000000000e+03) (18, 1.25364456176757812500e+01) (19, -4.03065834045410156250e+01) (20, 1.26990451812744140625e+01) (21, 4.51466131210327148438e+00) (22, 1.32924842834472656250e+01) (23, -6.89262199401855468750e+00) (24, 1.22706928253173828125e+01) (25, -1.83006744384765625000e+01) (26, 3.86844962835311889648e-01) (27, -1.49854774475097656250e+01) (28, 1.06943643093109130859e+00) (29, -1.38701524734497070312e+01) (30, 5.25765037536621093750e+00) (31, -8.92626380920410156250e+00) (32, 1.16629326343536376953e+00) (33, -6.94790124893188476562e+00) (34, -6.68451404571533203125e+00) (35, -5.42766809463500976562e+00) (36, 1.79276132583618164062e+00) (37, -5.16850709915161132812e+00) (38, 3.30912375450134277344e+00) (39, -3.55626792907714843750e+01) (40, 2.06764912605285644531e+00) (41, -3.89333496093750000000e+01) (42, 4.82621955871582031250e+00) (43, -3.85320549011230468750e+01) (44, 2.05009484291076660156e+00) (45, -6.10761046409606933594e-01) (46, 4.19250392913818359375e+00) (47, 1.86646068096160888672e+00) (48, 4.46016120910644531250e+00) (49, -4.13520050048828125000e+00) (50, 7.95561981201171875000e+00) (51, -8.69325160980224609375e+00) (52, 6.08868789672851562500e+01) (53, -5.91231632232666015625e+00) (54, 6.21549987792968750000e+01) (55, -7.69763755798339843750e+00) (56, 6.10804862976074218750e+01) (57, -8.15045070648193359375e+00) (58, 1.42423599243164062500e+02) (59, -1.13117542266845703125e+01) (60, 6.03213043212890625000e+01) (61, 3.13379535675048828125e+01) (62, 6.01497497558593750000e+01) (63, -8.28355884552001953125e+00) (64, 6.03206634521484375000e+01) (65, -6.42129945755004882812e+00) (66, -1.91049134731292724609e+00) (67, -7.81491851806640625000e+00) (68, -6.43178176879882812500e+00) (69, -6.77913093566894531250e+00) (0, 6.34585618972778320312e+00) (1, 6.25916600227355957031e-01) (2, -1.84129321575164794922e+00) (3, 7.04064011573791503906e-01) (4, -4.84286636114120483398e-01) (5, -1.53987109661102294922e+00) (6, -1.79666078090667724609e+00) (7, 4.29701614379882812500e+00) (8, -5.70699095726013183594e-01) (9, -2.86525100469589233398e-01) (10, 5.01156663894653320312e+00) (11, 5.60707855224609375000e+00) (12, 4.15323066711425781250e+00) (13, -5.15508532524108886719e-01) (14, -1.31269705295562744141e+00) (15, -5.11734843254089355469e-01) (16, 3.64601826667785644531e+00) (17, 7.54029655456542968750e+00) (18, 6.03495407104492187500e+00) (19, -9.09086585044860839844e-01) (20, 4.65234565734863281250e+00) (21, 6.29116654396057128906e-01) (22, 6.32965946197509765625e+00) (23, 1.09671509265899658203e+00) (24, 4.18520116806030273438e+00) (25, -1.07295501232147216797e+00) (26, 9.94591832160949707031e-01) (27, -1.34535586833953857422e+00) (28, -1.83226764202117919922e+00) (29, -1.04616320133209228516e+00) (30, 5.95427656173706054688e+00) (31, -1.30600583553314208984e+00) (32, 1.56789994239807128906e+00) (33, 1.50566303730010986328e+00) (34, 1.38620388507843017578e+00) (35, -7.07139134407043457031e-01) (36, -1.82496011257171630859e+00) (37, -4.07502502202987670898e-01) (38, 5.57802343368530273438e+00) (39, -4.07513231039047241211e-01) (40, 1.29411852359771728516e+00) (41, -3.92095655202865600586e-01) (42, -1.18665325641632080078e+00) (43, -9.38869595527648925781e-01) (44, 1.08054220676422119141e+00) (45, -5.11204361915588378906e-01) (46, 5.37541985511779785156e-01) (47, -1.65965831279754638672e+00) (48, 1.20949804782867431641e+00) (49, 1.06343960762023925781e+00) (50, 4.01486825942993164062e+00) (51, -5.24375557899475097656e-01) (52, -9.75358605384826660156e-01) (53, -6.37158751487731933594e-01) (54, -1.21841228008270263672e+00) (55, 6.02522015571594238281e-01) (56, 2.78032422065734863281e-01) (57, 1.76432538032531738281e+00) (58, 1.24531233310699462891e+00) (59, 4.33910965919494628906e-01) (60, -1.07258999347686767578e+00) (61, 8.13369870185852050781e-01) (62, 1.11605083942413330078e+00) (63, -1.29544246196746826172e+00) (64, 5.28280377388000488281e-01) (65, 7.11503148078918457031e-01) (66, -1.44355297088623046875e-02) (67, 6.91466450691223144531e-01) (68, -1.48675167560577392578e+00) (69, -8.22631001472473144531e-01) (70, -1.50679862499237060547e+00) (0, 1.50000000000000000000e+03) (1, 2.48768920898437500000e+01) (2, 2.62629680633544921875e+01) (3, 2.93529853820800781250e+01) (4, 1.50000000000000000000e+03) (5, 1.50000000000000000000e+03) (6, -1.01452246093750000000e+03) (7, 1.32950988769531250000e+03) (8, -1.01372186279296875000e+03) (9, -1.01550311279296875000e+03) (10, 1.33043127441406250000e+03) (11, 1.32982653808593750000e+03) (12, 1.33076611328125000000e+03) (13, 1.50000000000000000000e+03) (14, -1.50000000000000000000e+03) (15, -1.50000000000000000000e+03) (16, 1.33244885253906250000e+03) (17, 1.50000000000000000000e+03) (18, 1.33102185058593750000e+03) (19, -1.50000000000000000000e+03) (20, 1.33147338867187500000e+03) (21, 1.47864089965820312500e+02) (22, 1.32901159667968750000e+03) (23, -1.50000000000000000000e+03) (24, 1.33133044433593750000e+03) (25, -1.45500866699218750000e+03) (26, 5.71679496765136718750e+01) (27, -1.50000000000000000000e+03) (28, 5.77034339904785156250e+01) (29, -1.50000000000000000000e+03) (30, -9.05098114013671875000e+01) (31, 1.50000000000000000000e+03) (32, 6.90837097167968750000e+01) (33, -1.01235980224609375000e+03) (34, -1.01549389648437500000e+03) (35, -1.50000000000000000000e+03) (36, 1.42049743652343750000e+02) (37, -1.01299859619140625000e+03) (38, -9.13209609985351562500e+01) (39, -1.19964636230468750000e+03) (40, 1.42623336791992187500e+02) (41, -1.50000000000000000000e+03) (42, 1.41159225463867187500e+02) (43, 1.29054748535156250000e+02) (44, 3.21434478759765625000e+02) (45, 1.50000000000000000000e+03) (46, 3.40181823730468750000e+02) (47, 1.50000000000000000000e+03) (48, 3.40091705322265625000e+02) (49, 7.64653062820434570312e+00) (50, 4.72494323730468750000e+02) (51, -1.50000000000000000000e+03) (52, 1.50000000000000000000e+03) (53, -1.50000000000000000000e+03) (54, 1.50000000000000000000e+03) (55, -1.50000000000000000000e+03) (56, 1.50000000000000000000e+03) (57, -1.01491674804687500000e+03) (58, 1.50000000000000000000e+03) (59, -1.50000000000000000000e+03) (60, 1.50000000000000000000e+03) (61, 1.49297326660156250000e+03) (62, 1.50000000000000000000e+03) (63, -1.01463641357421875000e+03) (64, 1.50000000000000000000e+03) (65, -1.50000000000000000000e+03) (66, 3.22340576171875000000e+02) (67, -1.01449865722656250000e+03) (68, -1.01262115478515625000e+03) (69, -1.50000000000000000000e+03) (70, 1.50000000000000000000e+03) (71, 7.37593765258789062500e+01) (0, 6.44327068328857421875e+00) (1, -1.38607156276702880859e+00) (2, -1.66323751211166381836e-01) (3, 5.38676381111145019531e-01) (4, 7.94794559478759765625e-02) (5, -8.69858622550964355469e-01) (6, -9.65303540229797363281e-01) (7, 4.58039665222167968750e+00) (8, 8.13737034797668457031e-01) (9, -1.34177792072296142578e+00) (10, 3.59350609779357910156e+00) (11, 5.65813398361206054688e+00) (12, 6.34240341186523437500e+00) (13, 1.31895303726196289062e-01) (14, 9.42025780677795410156e-01) (15, 1.11168539524078369141e+00) (16, 3.59819006919860839844e+00) (17, 6.80043125152587890625e+00) (18, 5.64476299285888671875e+00) (19, -4.80877012014389038086e-01) (20, 2.90386319160461425781e+00) (21, -6.69099688529968261719e-01) (22, 6.17619037628173828125e+00) (23, 4.82861638069152832031e-01) (24, 3.04201054573059082031e+00) (25, -1.41407954692840576172e+00) (26, 8.75881314277648925781e-01) (27, 3.15427780151367187500e-03) (28, -1.05685985088348388672e+00) (29, 5.90721249580383300781e-01) (30, 3.97192931175231933594e+00) (31, -4.33183997869491577148e-01) (32, 1.19279634952545166016e+00) (33, 1.19828522205352783203e+00) (34, -1.70439469814300537109e+00) (35, -5.37611603736877441406e-01) (36, -1.48146069049835205078e+00) (37, 7.06043362617492675781e-01) (38, 6.03093147277832031250e+00) (39, 1.32042276859283447266e+00) (40, 1.35241138935089111328e+00) (41, -1.37638318538665771484e+00) (42, 5.73202729225158691406e-01) (43, 1.28946077823638916016e+00) (44, 7.43658185005187988281e-01) (45, -2.94658511877059936523e-01) (46, 5.91259121894836425781e-01) (47, 1.73452830314636230469e+00) (48, 6.86178326606750488281e-01) (49, -1.40436813235282897949e-01) (50, 4.03923130035400390625e+00) (51, 9.82721447944641113281e-01) (52, 1.14971506595611572266e+00) (53, -7.85400032997131347656e-01) (54, -3.44303935766220092773e-01) (55, 1.58440518379211425781e+00) (56, -2.11333602666854858398e-01) (57, -1.27830970287322998047e+00) (58, -2.22327798604965209961e-01) (59, 7.19952702522277832031e-01) (60, 1.30055773258209228516e+00) (61, 1.14228117465972900391e+00) (62, -1.52311837673187255859e+00) (63, 6.83467030525207519531e-01) (64, 5.30678868293762207031e-01) (65, -1.23936688899993896484e+00) (66, -1.66403186321258544922e+00) (67, 1.03736460208892822266e+00) (68, 1.45482265949249267578e+00) (69, 1.75957942008972167969e+00) (70, 5.47899842262268066406e-01) (71, 1.87451040744781494141e+00) (72, -1.42669117450714111328e+00) (0, 1.50000000000000000000e+03) (1, -4.43759322166442871094e-01) (2, -1.90361186861991882324e-01) (3, 2.16514363884925842285e-01) (4, 2.94631421566009521484e-01) (5, 3.53546254336833953857e-02) (6, -3.25608215332031250000e+01) (7, 5.59386596679687500000e+01) (8, -3.23225708007812500000e+01) (9, -3.28463439941406250000e+01) (10, 5.39457015991210937500e+01) (11, 5.49396362304687500000e+01) (12, 5.47152786254882812500e+01) (13, 8.87141418457031250000e+01) (14, -3.21962585449218750000e+01) (15, -1.56329784393310546875e+01) (16, 5.63538894653320312500e+01) (17, 1.50000000000000000000e+03) (18, 5.36956176757812500000e+01) (19, -2.83107585906982421875e+01) (20, 5.47503814697265625000e+01) (21, -3.04462280273437500000e+01) (22, 5.41835479736328125000e+01) (23, -3.67531890869140625000e+01) (24, 5.37783889770507812500e+01) (25, -5.70942938327789306641e-01) (26, 5.38640737533569335938e-01) (27, 1.11110696792602539062e+01) (28, 2.89769619703292846680e-01) (29, 9.08432006835937500000e+01) (30, 5.47535467147827148438e+00) (31, 3.39026182889938354492e-01) (32, 9.85919761657714843750e+00) (33, -3.40054321289062500000e+01) (34, -3.19174232482910156250e+01) (35, -3.31707000732421875000e+01) (36, 4.01312160491943359375e+00) (37, -3.27503814697265625000e+01) (38, -1.24095356464385986328e+00) (39, -1.25702679157257080078e+00) (40, 2.01937580108642578125e+00) (41, -1.63656402587890625000e+02) (42, 4.84836864471435546875e+00) (43, 2.15197181701660156250e+01) (44, 3.15425319671630859375e+01) (45, -4.25394020080566406250e+01) (46, 2.94006013870239257812e+00) (47, 3.90470428466796875000e+01) (48, 4.81970787048339843750e+00) (49, 1.83504623413085937500e+02) (50, 6.10097837448120117188e+00) (51, -4.44276542663574218750e+01) (52, 8.15410842895507812500e+01) (53, -9.42299652099609375000e+01) (54, 7.79261703491210937500e+01) (55, -3.37901153564453125000e+01) (56, 7.97056198120117187500e+01) (57, -3.30413131713867187500e+01) (58, 7.85714950561523437500e+01) (59, -5.51336822509765625000e+01) (60, 8.02254257202148437500e+01) (61, -1.07535820007324218750e+01) (62, 7.97829818725585937500e+01) (63, -3.27786254882812500000e+01) (64, 